encog,BasicNetwork,java,3.2.0,1,1428654184840
[BASIC]
[BASIC:PARAMS]
[BASIC:NETWORK]
beginTraining=0
connectionLimit=0
contextTargetOffset=0,0,0
contextTargetSize=0,0,0
endTraining=2
hasContext=f
inputCount=13
layerCounts=31,131,14
layerFeedCounts=31,130,13
layerContextCount=0,0,0
layerIndex=0,31,162
output=0,0,0,0,0,0,0.00175496,0.0003223565,0,0,0,0,0.0000321487,0,0.2040010559,0.0000008019,0.0322687508,0,0,0,0,0,0.0000000626,0,0,0,0,0,0,0,0.6256065639,0.592211195,1,1,0.0090552764,0,0.1434824801,0.1379380379,0,0.0000933859,0.5591530978,0,0.0000000014,0.0000000153,0,0,0.0000000083,0,0.0024995854,0,0.0000103824,0.8274199115,0,0.0043831425,0.64588925,0.9999847458,0,0.0049847989,0.000000705,0.9940614789,0,0,0,0.1489744651,0,0.1336538428,0.9999999996,0,0.8213962393,0.9999741604,0,1,0,0.9445482599,0,0.0217806822,0.9991056962,0,0,0.6646946304,0,0.0041342137,0.3328556739,0.0013398645,0,0,0,0.0060252379,0.001518578,0.0794352962,0,0,0.0451797807,0,0,0.0032068884,0,0,0.0044696493,0,0,0.3261865846,0.9999886945,0.1239626066,0.0219824322,0.9442485848,0.000017023,0.0000005891,0.0002627755,0,0,0.0069488452,0,0.0037494391,0.0098744286,0.6118233471,0.0005341374,0.0701016807,0.0099086037,0.0000000001,0.00081446,0,0.9999106027,0,0,0.0169259128,0.0064628486,0,0.1120771737,1,0.9366922847,0.1658231225,0.0000062143,0,0,1,0.0000000005,0.9999992215,0,0.0005122668,0.0057180844,0.6784339883,0.0107524707,0.0000616993,0.0006435723,0.0000001136,0.0092071043,0.0006942947,0.000792981,1,0.0000001063,0,0,0.9097485523,0.580601691,0.1581774332,1,0.0043493095,0.0000051915,0.0000000335,0.4398736258,1,16.0265977005,4.4942568426,-5.1413820426,2.8512953422,-2.2778816368,0.7002045598,-0.0609554941,-1.3833430533,1.0551084855,-1.4554502091,0.3472206836,-0.3696066704,-0.6185762263,1
outputCount=31
weightIndex=0,4061,5881
weights=##0
##double#5881
   0.6222656058,5.4811327052,-1.3163703469,0.3128961171,113.4535613315,-5.4847529065,41.7652473091,0.1401229165,3393.2603797983,-8.1449820445,763.3344942838,-247.2142056048,54.2976945887,-0.091566657,-46.8970283844,24722.0261764352,-0.2263829677,5578.173048153,-56533.4554952042,0.7943302208,2.2556253238,0.2912410199,17.7822408628,-229307.3390910391,0.5237758277,-6.6986625345,-999.5047791248,-9012.4198217531,0.8516718534,-85.441787107,0.9633673943,-1.3581156568,-13.3170518811,23.9837646271,-0.7524184885,0.1923047911,-32.9351372128,0.122243382,16.6407259184,0.2656343603,0.9137594007,-0.2119148946,5.9601931444,10.1283986898,-15.7867445845,7.3158698251,22.182286233,0.4014253852,0.0429069986,-310.0295088313,16613.3532334434,-31654.6989075583,-237886.6486860536,-7.9392135785,-1.4247116674,-0.9070880138,715.0740258208,-44.0537766828,-9.5974645589,-0.3936870349,-5.4021310354,0.8228125306,-0.489162522,0.5044301687,-228519.8094827697,-0.6687326462,-957.6635205066,-15.3794480151,-6.241010964,-140.8083383874,4.369596246,0.6495110948,-0.4925355082,437.2279213648,0.4512235064,212688.7016771855,-1.9907421036,1.7246127345,-1403.1959957864,-86332.2747161692,-694.1266975914,-0.1623441127,-6228.7190078981,18.8521358298,-0.3806709697,2929.9497755938,-1299.192902235,-613.6508052609,0.6792172685,0.2348851713,-157.9987613446,0.464350005,0.4578194214,-218.2211698085,-2278.5231356466,-175.5571308159,-0.1204069254,2.5359973045,0.4656844342,0.5213834862,-3.4238968562,-91664.8163140039,0.2362441097,-2.752735317,-0.2846444715,-32.3119041703,4.1536725806,-6.7221100509,-1425.1872025225,54.6753379473,-0.423149292,-305.2148904583,215054.7737712183,3.3071893484,6485.1653431699,43969.3205984347,76873.2418388548,249.6428087804,-0.3608173618,-81.3987791962,-254614.7078608652,20160.116309469,0.819989027,-0.5250698709,0.5605902299,-0.0724051091,161479.9591478806,524.6837256486,34114.9251369962,1.0489128133,-0.8246973857,2.2429381874,-0.1730945969,-0.1456040961,-126.6828828017,-77.1720420968,25.0281643722,9.7558748543,0.3840915961,6657.85303444,-0.4732555238,225.5920379224,133.1959642959,245.0742596062,-0.8348721569,-44.0648829125,-240410.1031981414,-92.043457177,3609.7208768889,141.0198944507,5.0340188314,3.7858261481,-0.678473899,105.5277500207,-6470.8944353508,0.7803637723,-9.3012222513,-1401.9434706024,-2194.8540463041,-0.2105176355,32.8348333044,7.5701435746,-4.0495648525,-10.4877496316,80.6257116432,0.5489782172,-0.1698917311,4309.5446302113,-0.2144089917,280.5448219219,-4.561940312,0.4609366422,-2.3538342994,122.5608902446,4.8457503273,0.5569944862,-530.7591495385,-37.9038109917,-0.3225758311,-0.2456618539,66.5043810784,31658.3453093817,1040.725092587,4136.1082700657,-7.5901361619,-2.4609111531,-4.9591453194,-1514.7154436348,270.0453648546,-1.6112960598,-0.6007221155,-13.9025535564,0.2947010855,0.7173305952,-15.9960252564,-469.5906471661,-0.4425437252,162.3828922745,0.6107540254,-0.8796685809,-66.8870636447,-3.7621240402,-0.4735213746,1.9005326571,2401.1985579205,0.4395695147,651.5745782175,-79.0150481491,-19.4762331459,-0.2692468606,-569.6783557963,-0.9759606802,0.6168674623,-138.2530562564,36.339481421,45.1428730425,4856.2104405014,8.1674350806,-19.3501594789,-80.7947781195,-21.802091515,-0.6856163668,-1.3457950613,0.5525599869,-716.7648255766,-1272.9857819198,-814.9162820747,-0.7951148514,-1.6844288048,-0.3804272142,-0.082907061,-53.9660630623,734.8527143128,0.2809673001,0.3889538207,-0.1373190539,185.7741687406,0.2627558991,-1.310893513,-1884.3161640372,715.8884896238,0.2404334534,-144.8868224009,-235045.8494791671,-1723.1139703391,-74870.8433412204,-2199.7192437519,-14198.5007325953,-366.2050512621,-0.5553903361,176.5949364784,-50.6397893665,-252840.1064104713,0.2847908691,0.7809555748,0.8096462375,-0.4562683536,24318.2160646074,510.3434637293,-150002.998758035,66.8594801629,-0.0705346471,1.9257026257,-2.1485886211,-0.2499264269,-1335.3892103747,129.9744529507,-242.4223479759,818.3204316841,0.5237149286,-42622.6069678044,0.4216295468,-150.868208596,-305.3484356086,100.8043425225,-0.6666009706,-40.5934635433,-179856.6583492447,-0.6183599421,2160.0391867263,-832.0257075955,-6.2876111032,-79.2982141708,-0.4228147011,60.1072001041,-1542.7090888476,-0.2157098635,4.2277144167,-1184.4956196205,-109.3943751154,-0.3415047028,-8.5018633819,-6.9428599496,5.1863318693,0.1670657783,-17.9371914022,-1.369874625,-0.1527504978,-50.1192348265,0.0618311954,-1.3772053074,2.2917372157,-0.6749377703,2.0568305354,-7223.2629345859,-12.4878868489,5.6510177481,38.0015381254,-92.0726069536,0.2389096467,0.1691916563,-60.2192453225,43885.760560265,15679.0651662639,-1025.5630577521,4.3215784285,-3.0703427874,0.5336973777,-5930.1159207142,1754.5267219272,-0.3131542785,-0.7221081525,2.7062950353,0.1832827927,-0.3849948626,-2.2621999457,-291.0183831613,0.5215863752,-1224.1663918027,0.908543935,-2.5715356014,-130.23951094,-0.31154729,0.4542480911,-2.7244332431,11117.8153418475,0.1628657894,-117052.3262925248,-0.303882215,0.2900253557,-446.6778433948,-398.012758655,0.4670078747,-0.3947933873,-698.1720294868,78.246599997,-0.6934964617,-12846.6214139213,-371.1257507161,100.5160796992,-8.4376236757,0.0876539929,-0.3078249425,0.3092909092,0.1410496638,-523.5831597736,95.7276938847,-1054.6126267977,-0.1186920107,-8.0381903765,-0.2206017849,-0.7185798534,0.8642581749,-10019.931214942,-0.4223407282,2.0685318405,0.2185526691,30.162414626,14.1851342453,-1.0983718491,-79716.1387587282,23.4984615274,0.6315633583,-0.249393878,113736.2717286816,-19.1143044188,76527.9433836293,-43535.0835310247,4688.4698068962,158.5095184739,-0.3519087084,-422.4103411034,-2.0318578776,-161.0845104111,-0.1381435053,9.6896790966,-172.177436166,0.4088543694,-46724.0196292604,-354.2686084824,12339.2807785288,-4.8524528311,-0.318592292,-1.2371466833,-1.5101653068,1.1716616121,-2.8073316402,66.9272482489,-3922.7521908521,-7.8078871455,-0.9163460941,-26089.9942791088,-1.0864129385,-234.1253814261,-8.3808873248,81.2757297279,0.9738429762,19.476035581,15778.6599814432,-14.2457421717,-5175.5119257084,1129.4190412665,-45.8208943955,108.0286763264,0.1607113252,5.5349130456,645.8123172034,-0.2549992572,-12.9034441446,-9.2185089428,-38636.8781781009,0.6872418948,-97.9019147042,-2.5678643232,-2.4451003148,2.2638212996,-212.9831822445,-0.3254614653,-0.9258822924,-191.8293060791,-0.2105346783,50.7149540789,-0.0743526767,0.2724199002,-98.1725951891,5.9801150406,64.0438079078,-0.2705133722,-25.2792966035,37.784251406,-1.0716811412,1.5298425291,-36.1041269152,-7892.4209299015,-135.7896070862,1664.7440003708,-4.7411051895,-1.2671918155,-7.1133245365,-508.7917427746,-213.3227490543,79.0934167669,0.0510812218,-8.6630393886,-0.5587315958,-0.2501047304,1.1698805677,313.4227517551,0.3021749061,-590.7677462898,-65.6652768693,-4.2566980105,10.7350297865,0.2265721368,-0.4272701189,-0.5744851583,-3015.3620075157,-0.3387157717,-9834.0727572467,1.5206720765,-14.2362135228,-166.2113110155,-29.1855374608,-3.3960218077,-0.5146771202,-1798.2772608588,-84.5098499003,54.2959725232,1844.9975189797,-14.6194313445,-252.9616403283,-67.9382828224,-1668.0397134784,33.1549183598,-7.9614385589,-0.2003461825,137.6189835579,288.4107721352,43.9317150627,-0.1718858438,-0.7490748603,-0.0345794847,0.3284810466,-38.1881893766,-92705.5497996053,-0.0687070135,-4.9512777733,-0.3698826318,34.8960027926,26.4956323511,7.0402257009,-2687.6971013895,72.334599441,-0.5475166396,-22.8097539078,149364.1858027599,-13.4386708276,9910.2679829256,-448.2276206761,66564.4760420861,-456.5339605524,0.7000444896,281.0243655115,-59007.3120240146,12941.3588652126,0.05162849,-0.4979414475,-3.4437530337,-0.2042460458,-2486.3456887756,-18212.4885291615,22921.2875846759,-30.2773648055,-1.4508526873,-0.9486428665,-3.2949880219,-0.5252331943,14.3987665944,-3187.6898206866,-91.5403811889,-924.3373452007,-0.9223815474,-0.3726666002,-1.3005444625,57.1992886932,-140.6584688969,-76.1007889217,-0.782869552,18.3570639754,-64823.7960534336,-0.1193622835,101.4238531863,523.2124253729,-0.2940634399,-1.0804650041,0.6630922916,80.411499025,-0.3548556653,0.1155527703,13.2338000905,0.0722986655,-37.259742074,-0.2674662569,-10.7934153122,16.8046763066,4.2168207064,-0.2812822017,32.8943379177,-1.1840974317,-0.6503696612,0.1352505799,0.1066925161,48.5091478072,1.2430204255,0.3147835082,-0.9759660259,-6260.2115716475,-7.5907983834,-0.5440047238,-3.3875666089,-2.0357502184,0.2435809887,0.6497744531,-33.2941090334,-1.0485663896,-36.3135408521,-0.3285647763,5.9799573671,2.9985672383,0.1204588064,-33.6216293408,973.3730380289,0.4678650251,-0.5019308518,8.9961228495,0.0735323264,-0.2794749001,-1.0300047975,0.3719981819,1.081690084,-39.3286738521,0.5102902963,199.4816870863,18.0021214356,-0.6578705792,0.1793618453,-0.3341614615,-144400.6265508655,-0.257408121,-0.7954267379,-0.9558655276,0.1425824824,999.2581436509,12318.2694467095,-0.6391502887,0.4845507105,5505.0721604461,-9.853650855,-0.1159949401,-33822.9320971673,-3475.2457859648,-27.5341285759,-6.7751894314,1136.3520493894,15525.5652055668,-13.8532362967,0.5126964627,238.0471193165,1192.839598793,-0.2312514018,-0.3487377976,-4.7451013228,0.6437529695,-0.1603575158,14.4335855566,-0.331702871,-0.2580335551,0.8535008539,0.2558764845,-95.449497175,-7337.4115044466,6.5577559375,19930.5296190867,-6.4053568014,-0.3380320605,374.4007944333,-38028.9431341422,-2.7763068623,-42039.1423048744,177.9912403206,-717.2121554866,-186.088001839,-0.2942030768,170.411794936,632.9771761116,-1307.3773683905,-0.1287585921,0.1944714494,-0.4530304726,0.2041169896,-1.0538099746,-1.8383280451,-16190.7385037577,-8.8171947088,-2.1228985909,1.7243634342,0.1818354507,-0.0530421276,-50.4262850259,515.8725908092,2.6124089391,-2.8342818523,0.2766843109,-13758.6491759959,-8.7084717847,-12.7505399425,145.8131970159,164.1289878694,-0.0533804311,-5489.2873619299,70011.8682644768,8.6873757354,6354.6886422955,-9233.083505821,-6.4618701743,32.28754614,0.0711752209,18.179700366,42.9823839414,-0.7942733599,-4.6604893147,-0.9219520534,34.8618813098,0.0350918227,-64.4660522507,2.0746478944,-2.5501655109,-27.5852020712,-5.5157825176,-0.020073213,-0.639722111,-12602.622909677,-0.6396578203,14.910833316,-1.0116738428,-0.2812937306,-0.6820633462,15.262506127,22.5883528383,0.5441988528,0.3679397203,-62.9863764126,-0.1652076098,-0.3229993084,105.6554938896,-3670.7748840289,312.3976991603,3251.6338237127,-8.2966393891,-2.504472792,-0.0147161392,427.3616065763,923.079069138,-112.809649164,0.3237470125,-7.116129113,-0.5143736559,-0.0168492992,-2.2755399354,23986.0124573235,-0.5123237357,-345.6707976457,2.4563664751,-4.4332900981,-6319.9232707211,0.3216795248,-0.066890257,0.598742775,149.5865982218,0.3378951599,-39769.5729877431,-0.1587547229,-16.021660333,-2693.8140934852,3715.4529564899,-0.7691487961,-0.3281153417,763.0950405243,86.8471349394,-1.7549659172,6394.8450661308,-370.6266345007,-725.463235642,40.9746153768,-2.2646755079,-1148.5674838625,-0.052906158,0.6239060411,-665.3037886968,-2582.4559653232,-38065.1886206191,0.4334191771,0.1718774574,-0.1747859592,-0.3228662858,-32.6818379506,39448.5366312194,-0.1285059567,-1.557727775,0.4115364099,216.9892223256,3.6616169573,-6.4190394109,-661.0289528937,-20.6435525304,-0.1951369739,-0.1508176068,74998.1397125812,-2.4659405051,21493.3264857749,1056.3061843661,53639.9552949187,-224.4536652959,-0.0208862502,147.4545685325,-1126.9266333876,-29614.7388382116,-0.0498560047,0.3056871275,-0.5515657653,0.3236444342,-32563.8539151522,-20.1937640351,131276.4986812149,0.2152537043,-0.1814351755,-5.4670752425,6.7483300443,-1.4171847372,579.0862564867,180.9905492614,-179.0919735558,-538.546269169,0.2947966655,1182.1083568448,-0.4574746114,115.0824258829,362.9231594899,25.7598773213,-0.6050054096,-38.7451059695,11741.027330675,12.0218028504,-147.6792042669,-1825.9462646793,-10.8605135232,-7.2999737779,-0.6151754574,0.8613044966,950.1807057537,-0.6132140548,-10.6668037517,-47.9726949152,-17329.2066637723,0.3690003139,2.3040597738,1.4295170421,-4.5254946089,2.8428053412,-6.5000492597,21.2404642651,-0.4459331059,-101.6460946129,0.0403906498,2.3844031214,-2.2284521575,0.4534849404,-234.7374906929,-6.4655170887,-9.3627876815,-0.5975083041,1.5253456597,2.3510238778,0.6700901403,-0.3408612286,45.3740831918,220.9809577566,-1240.7156801318,-27954.4562568162,-8.2160840231,-0.9088455709,2.1332110599,-86.2639936717,967.9637298769,-6.2235861218,0.5743300155,-10.9724580659,-0.4063950467,0.856685115,-2.7254377525,-4492.9837740379,0.0165380183,18.388456485,18.4853281023,-5.5224823415,-9.0180491369,-0.3987662259,0.7077236646,0.4649328291,81.7260317379,-0.6412336102,-575.5958549048,-1235.0516005076,-12.4920960665,-205.4812173068,-24511.9558988765,-8.4659257219,0.7139587795,-1017.051065131,-2197.8311763506,0.129531976,-12469.0596408024,-527.7353480911,-450.5746802003,16.2469653449,-154.7098097031,-122.0615292347,0.4011916998,0.725184892,-161.9369919979,-479.0885943768,699.9742416782,-0.1713955403,-1.2401807438,0.1314157096,-0.4654610494,-46.9537523479,-26086.3968990819,-0.0998766565,0.0159599229,0.0374503406,147.2329604094,8.9601738342,-18.353097441,-142.4567399851,-64.8135670337,0.3966781305,-1092.6921478667,80798.3177179439,-314.1700816463,26809.7434835184,-726.0509227132,40741.4791604216,-54.6179409874,-0.6277555312,285.775292999,-309194.8054470026,15788.7165026832,-0.0513076968,-0.3689694194,26.7048687791,-0.3427597993,-306.9035900885,-837.6864361368,37664.4886525147,4.8224992084,-1.5068810206,-14.380672755,-1.6233720228,-1.2167256627,1104.9868490763,-35.9825055595,-83.356105576,-32.5226370419,0.3710211281,-2018.5638005697,-8.5819778543,6.8814435575,-294.7647102945,-128.4746275625,0.9209501013,-8.0268620966,5027.811684938,-3.8842232612,-1879.9932296888,-232.9303624185,-24683.3041902454,1.1331383836,0.0340976893,595.1044166931,575.9500617563,-0.1742817823,2.2876968146,-13.3855773086,-30320.4421394976,0.3628017739,-97.820319942,-1.6816218157,-0.2808333983,-1.4375301487,-274.1251154492,-0.6414067744,-0.6425394047,-11331.1791449588,-0.0871207924,0.3018708992,2.1705018235,-0.1775178607,0.4519707528,-36.9308772434,-12186.4652686087,-506.5505613307,-0.0791923419,8.020915545,0.0612057246,-0.4094525854,-432.9743723484,-1849.6084938092,-621.5284690968,2644.3640715348,-2.6522274456,-1.8422990249,-0.1529265603,-4808.6861056563,2478.4871515135,0.5327259152,0.2972938503,13.5231128629,-27.1745903577,0.5640881289,5.6163859021,1838.6992991191,-30.8859116973,-130.6054613884,2861.8938691635,-51.9991820328,-22.0615257805,-5.3327255811,0.3925032063,-169.2843335916,31.7620431659,0.5944330696,17307.3501374074,1609.2103874624,3435.2637812253,-13204.2667874032,-1444.0698942513,-12375.5115148428,0.2281512022,-99.0055605476,-50.4019910662,1.5679675168,7929.7394554862,-36.2717570875,-156.3501755593,14.0602491792,-4.2767302578,-20175.3862445161,0.0762160446,-0.0171770311,-185.3511325953,-1988.1847482469,-1831.7559591885,0.150592357,0.4155683976,-0.2616200044,0.4716465893,-20.1514351861,-122228.540328833,0.3306008288,0.1617680948,-0.2372864524,-269.9097468483,12.2903694458,1.8969599517,-2441.0591012442,-106.9506534978,-1.5452736323,12.7676116546,16649.7285308064,6.4199684546,-10892.3153447057,2862.6706870358,21467.2521436809,-396.3489826588,-1.1118104494,-187.6383757437,-3156.1795114642,60760.2816757407,-0.4310423356,-0.1104913658,-6.8109835029,-0.2480528421,854.7822672386,-4.1357948194,6611.6476347257,28.67851518,0.1331458879,-1.1515940159,14.8305891686,1.7804230332,291.7517335736,-222.5798981466,3053.2529147125,-1891.3541979408,0.0287779585,-4.2000931706,1.0816032114,-8.7385013754,-60.6666680216,-62.6072926956,-0.3819608093,-0.0757744319,-54261.924736196,-0.2055216526,92.3658674726,50.1793944561,1.1972919625,-0.4782355791,-0.2300834225,-314.22591158,-0.6182988067,-0.7060338311,12.3169543442,0.2703687966,77.4426619591,-0.5782400673,-17.243093926,-0.1008134538,2.4723231732,-0.4096191117,111.1523317555,0.1428840473,-0.1232650724,-0.5864975905,-0.687598259,-9.2639494678,0.9384856705,0.4744358943,-0.2463299371,-77218.3435302346,42.2598116256,-0.6729179183,-0.7942803247,5.9550202074,0.0768132409,-0.579456479,26.8656236703,-91439.2076136286,35.5939265535,-0.401781608,6.7057115792,-0.3979221381,1.7027224678,1786.4250255424,385.6007322384,-0.9794796151,-0.1046264754,7.107250606,0.290356415,0.3648866788,-0.1951356026,-0.3222824776,-10.915536543,-364.0154983412,2.3436088671,-59.6649736177,3509.0120614746,-13.8216281155,-0.5907831731,5.6208225318,-91610.9784819666,0.2456832893,-1.0596167686,0.1328506,-0.2137518619,-1319.0790446831,-78995.2113425115,0.468596335,-0.1355534261,-46425.7695347587,-221.4541136974,-0.4252850216,-37331.4754117244,-3902.5549749963,-9731.4775897635,-6.2341063778,2351.6395310752,69002.3005671023,13.0319359122,0.2573534848,-188.9544017172,1805.0792902014,0.3388717853,0.6741931,-3.5486660777,-0.3968122318,-0.6302806098,-15.3539539834,-1.4869951062,0.817933289,1.476491094,0.291392128,2.2291203819,-575.1889214951,9.6818130105,-87852.8219965077,60.0840519211,0.3969260342,-1346.3588270823,-155542.6401535593,4159.6485176942,-1684.2968502075,-2855.0094192483,-34367.5150239849,-196.1570769666,-0.1073562015,10.3486944311,4099.2776870986,-45445.9973334133,0.8723802635,-0.3592975067,-3.8628802903,0.0807620441,-621.4242279145,-3.6602854599,42.4008798311,71.0400966101,-0.0083637019,-24.6609638379,-1.9390949461,-1.9604159618,-1910.4767554877,3269.2152601992,-569.3412022925,-2.3354735181,-0.3826769378,-4240.3431984563,14.876738678,-0.1816231325,-139.7339967615,-96.3957723854,-0.5827973905,-28.5581107271,-5537.9266801864,-48.695125631,-1155.3077373878,66.4429810737,-13273.8878830404,95.6155862406,-0.4588971123,401.9644719378,124.0364547528,-1.4956585752,-3.966893624,4.2256252012,283.9178006838,-1.340585533,-46.2042330353,-2.5478752729,-4.4792193547,4.0359477296,-37.000703953,0.7970209345,-1.0163297126,263.3129576997,-0.2153287201,8.2800182561,-3.4949946232,-1.8172383405,-1.933462459,1.3328639685,18961.5841416577,25.9504333556,1.4085915396,-45.542604417,0.395607079,-3.0366880436,-231.6839307878,-1157.8859943436,-93.9439284935,-941.4934747925,-7.5532775495,-1.6261830625,0.8980832389,-3174.4895354513,4168.3191952019,0.1211976432,-0.4911460738,-13.6036974996,-2.1519051046,0.1714636921,-5.7689587668,437.1306312507,-1.7324825469,-301.7928600228,285.5941949123,-7.171554541,-96.6146161115,-0.2249454028,-0.7282561254,10.9566640084,-491.1674573675,-2.1063813007,-30269.3368119839,-105.9975820737,-6733.547040229,-2520.7278161764,4421.226850695,0.0033900902,-0.6755577858,-2074.4689488415,-32.7113863958,68.5800108872,-3051.5850225722,-73.7775960672,-5.5647163483,19.5244145274,-3.1894212961,-273.9596234708,-1.6610694869,-0.0595176609,-116.9045038169,274.4214902961,58.1170763233,0.3835402799,-0.7303883091,-1.0079247589,-0.739312352,0.0768880825,-41345.0851368415,0.4252701221,0.2811832982,-1.6062314326,-168.0229340165,2.0206066775,-15.3814283149,-120.2437853731,-50.6507194108,4.0145359694,-183.644581843,178227.6798816789,-3919.4766922054,28323.3453346627,1085.594201531,-62312.4771165725,-9.4661338736,-0.2257520272,-77.3697718007,-83.2300960224,-314.7640630533,0.078587394,-1.8216441328,-0.2464684751,-1.2773423153,-2492.9685719159,18.1371468785,18401.2637668347,-24.3831121688,-3.3602283601,1.1978135097,2.6079280807,0.4131833604,310.0301104736,1594.3917827472,22.068497413,7.9395197095,-0.6201427917,-21628.7540637537,0.3177647809,-167.2932457178,139.011467938,-21.9874531745,0.159242924,-46.4348182081,58423.490045807,-7.730772539,-101.6454981798,-126268.4815028017,7.0044766591,-0.7183222925,0.1791557082,39.8528795386,-18590.8030907129,0.1970995057,-4.9301016323,-206.8178849345,-32155.1290857103,-0.0657810979,53.1186897486,4.9404666597,4.3159180587,0.944023374,-39.8720308272,-0.3110866648,-0.8049095406,-20.4378218244,0.094457419,-0.8150231392,0.3231939515,0.470149151,76.4768252129,16.8988420372,1.5555834363,0.2580486495,0.0537356976,20.4194258604,0.5429515823,0.5458634759,183.6277833322,-2991.911321069,4036.7021160451,33637.9502269796,2.1352621429,-0.4681070832,0.1456934153,3136.2250547512,8.7727835328,0.8973766829,-0.7618852988,8.3868397278,-0.5831423382,0.269162572,4.618276201,100.5386727224,-0.7778663401,-182.4075255955,-9.0850769884,-6.1876170739,-55.6164086587,0.3588027044,-0.4327597279,-0.753017513,-57.749964722,-0.0372026309,20802.2301023561,46.1195141702,-10.4679554941,-2303.5028369403,-8040.310754202,-32.2706682472,0.3271704155,-13729.7560385167,3.2735625127,-0.2471937861,15438.1726098794,0.4297639024,23.1469585618,-53.5968575706,0.8753290576,-15.2337047986,-29.133762225,-0.2046755087,-760.0000285049,-2936.736449434,-21352.864040089,-0.2562335389,9.8952533784,-0.371511194,-0.6711825643,-29.5527338388,-143642.8777069212,0.3168583212,0.8523608037,0.1424582134,54.5224266279,12.4517861455,12.4544934645,-13362.6204276818,57.4119158816,0.0317877483,-955.3546270645,65217.4641818496,1727.8417785833,8152.8212594216,69100.4481963231,54683.6853355932,150.203062726,0.488356235,-224.9587758243,-358.0638814142,-224980.6992263223,-0.7885423633,-0.7757609655,-0.2604033271,-0.6847528626,-104411.9801282669,-1629.8635600931,58591.8265050231,30.0146468655,0.6068409162,0.3322958387,-0.3558962291,0.5038247973,-431.2105543148,168.2776253867,16.6471533818,14.4581858676,0.3541972178,-28834.9748335334,-1.5831405155,280.7424527528,261.8195460334,-86.8209740115,0.3749045176,-296.1089964071,15271.7679972314,-2.5488570642,-50.5677492369,553.4300690674,0.8134167805,11.5093748448,-0.1813636127,15.2624158042,-35.588346981,-0.4574601371,-4.6439663423,-0.6741848754,-4931.6239205159,-0.1708966111,51.6620090873,2.7062723442,-3.7261384811,-0.5499875874,65.8384978415,0.0988200596,0.2341615507,-1816.0963820259,0.1362940378,-53.7982219892,-0.4642072794,0.5126630058,-8.3923480818,84.971621172,-0.7590814832,-0.3408837112,1.2710057584,-43.937426597,-0.675360092,-0.5629250941,10.1881255617,-1952.5246961487,-99.0691119354,-12225.1159878731,-7.9552152159,-4.1824940386,-1.3253807887,-746.672997157,892.7151343402,-37.9759224181,0.1246597699,-12.5777717113,-0.1671658987,-1.0225381327,-1.3193045217,3165.4421333167,-0.5830366715,-253.1557347696,-5.3001484447,-19.6450404651,-17412.8737098223,0.7056037321,-0.2715124646,-0.1187982168,52.2642674991,0.3407337046,1004.0078407358,-3.2090559905,-6.0619574001,-2215.9168852691,-28181.4212166281,496.2849257368,0.4552605029,-153.708777608,-21.278096532,-17.511882638,1746.243521856,13.6640410097,-0.0150597031,-21.0689891356,-113.6570541098,-1198.9364969095,-0.3498961285,0.485342033,-676.7700025139,-63.2765008531,59.5542419307,-0.9044796022,-0.1491628939,-0.1351393065,0.2854363885,-19.6968126084,4208.2592778154,-0.8325131092,-5.0105377675,-0.545137303,-126.1790805987,3.1211549215,-3.3922496817,-536.8269139396,22.3119783726,0.0305553108,-1.8187720028,-142127.2522453926,0.9378300599,93065.4636805623,-1302.9975442954,-2566.5326430063,-0.85997133,-0.4475089571,71.2648622124,-191091.4843951683,-5243.2141094094,0.3875935168,-0.5291043682,-0.1191028706,-0.5916793704,-0.0788858788,-8.5702333072,73773.2471385155,-5.2618566132,0.1051227545,-0.3581437645,0.3941788185,0.1418110206,-436.3862892959,15298.6318657255,37.9094201991,28.059754676,-0.528654566,84340.3477593621,-0.1986851116,-19.7908486156,67.8130890586,-333.6516779512,-0.0406045323,-46.5901928741,-28946.9663739086,43.9263509981,426.5204616627,-7679.5037125481,-9.8848120184,3.7703810132,-0.3367926775,59.4121038627,430.6599717004,0.7072771436,-4.0504315655,-1.777828267,-2256.2798088067,-0.1426737364,-17.7605176718,3.4304868677,-1.7282817935,-1.1803050333,46.0873961865,0.175880615,0.5124421254,-74.3229380497,-0.4657704468,-0.3369227336,-1.3007427566,0.1842082442,-2.7939021506,-5.0440901744,-7.744694611,-1.3787428962,-0.4161821214,-62.2348610698,0.324295537,-3.0119299213,-267.6066437415,5121.0431880612,-810.2853954316,1610.7027339558,-6.4603545295,-4.6083556314,0.687530464,47.4614612744,3635.5095790428,-44.8864782628,-0.1577540564,-10.2418399431,-0.4955049038,-0.0482501463,-4.6108138949,-1070.405840458,-0.5865346253,-17.7458364577,-21.6898563016,-10.0210791188,-66.7183037812,0.6369835587,-0.0433938594,-0.706692104,-23.1888897645,-0.1266465287,-11734.9429848931,-0.7937815379,1.4036457383,-3601.06773241,196380.4138479106,-1.3928944073,0.3234005691,-13407.9402202018,-437.2491047336,1.117059811,-2117.8178873955,9.2433636583,9.5071720702,81.2054648006,104.2611282972,-5.2580615962,0.1242661251,-0.1776481026,-647.0019666485,146.2858164479,278.76208016,-0.0066889124,-0.6138892597,0.2729869412,0.1596535157,-2.7637727124,-14581.9362848086,0.4611386365,-2.8598292067,-0.5833948797,-383.6008608646,0.6146176353,-4.6418139329,2417.7178062534,-1150.1855454147,0.1459056359,2.6214413649,58340.5013555588,8.8039719272,206005.617016801,-2481.405733551,-31984.0551639005,-64.6487655634,-0.1949128266,-195.6205905772,-232.0498100329,-181070.3857510884,-0.2478340855,0.4073357517,-0.5095473851,-0.1723201484,10939.1783481343,117.5015259622,139755.6392515703,-0.0332363382,-1.5859462803,-1.4098050409,17.1539369259,0.1436737879,-0.4658096114,40.1541236358,1102.4641787918,1477.2959163339,-0.1499443278,-164030.0866132179,4.5814378047,-102.6420595769,390.017087926,-128.7020330622,-0.198525703,59.2803902568,18961.82256743,0.3080166911,-31454.7075278895,-2790.6200191564,-8.6959723743,1.5416705887,0.568757409,-76.3337167638,-7.7169944175,0.5573829159,8.2265069925,0.5595418617,-152.5452643923,-0.0007106408,-21.4290742251,0.5381152467,4.2416557591,0.6139373238,-57.0557851526,-3.2142648299,-0.5848241312,0.0570375071,-0.5285048098,-31.7167667561,0.3809269875,-0.4683738586,-1.3043162989,-220551.6663295673,3.2378085124,0.3880103988,12.7487620486,-2.8544537011,0.424896797,0.0787900613,22.7476621086,-108525.5526416189,-171.2162120562,-1.45985774,8.9179824739,1.5358601581,0.4640028441,-8464.7205833646,19.5415192337,0.452455382,-0.2135048085,12.1490444885,0.1588648463,0.5550215195,-0.1732979227,0.414987475,-24.3758693309,-93.439450448,7.4035076942,406.2609494614,19788.457663462,-0.6393446754,-0.0365543223,6.2430168306,2448.8661262108,0.3975513085,-78.5357166506,-0.814389215,-0.2581343498,-142.7609019762,52870.4344948186,-0.1746916349,0.5787948065,22.9984744374,-82.1209658838,-0.1439824781,-15177.1266861923,-33.2741980231,-1071.6129147953,-14.441075365,-1655.90824992,-30247.3701774603,-0.9565771301,-0.4477160296,399.2539393667,337.8942546141,0.1356801974,-0.445386219,-7.4289306032,0.5215206658,0.5952497007,3.2836211773,-4.8908502801,0.7594058457,1.8881350605,-0.2941609513,-174.665833578,-3197.3084222533,16.1991997079,-116891.3572881251,-89.0814095641,-0.6727086048,0.886584513,-186001.9028625878,-3655.7042966794,-1706.877368176,-131.7436507099,-209436.5189265886,1473.76483564,0.2477771769,-249.788224592,-9613.2734608885,22354.3339729246,0.1002294378,-0.8251921576,0.4508152891,0.6849620538,-3641.8661111096,-1.7176299667,4689.1963843356,-23.4962019904,-0.6747302222,-5.077177444,68.3053525638,6.5802479375,-551.0780792702,-37451.3541751093,-277.1454823717,11.9094024697,0.5336347051,22196.8474484926,14.6108739602,16.1687268658,50.5750507707,-77.2700271553,0.5505226231,0.1544839349,-121081.0900507605,30.5511716625,3437.3217507678,1911.6782415648,-8492.6234884655,24.2135482248,-0.31019041,-780.4835602158,71.0804181699,1.2821619259,-3.2242911203,-8.6053999542,536.0535261505,0.8874813636,-3.8680121758,-12.1797383479,2.5417870908,-49.7969106334,57.2236762462,-13.1474314803,0.2341838575,2716.988492853,0.3653712938,0.1387975565,-1.014550832,0.4691538358,3.4779056894,11.1097102831,-40.178298988,-306.9450224583,0.5804333777,-58.2013398951,0.4643427329,0.7698295686,-222.9402246122,1066.0329502945,-63.4910040116,3319.4115911726,-3.6881571716,-1.4711033881,13.0012757056,835.2123117067,6409.4368539578,-191.9241519678,0.4783269927,2.9980835947,-414.7482613804,-0.6374155536,-10.8986296782,180.387469127,0.5494579337,-65.7826010277,-1950.6311067633,-9.8764812267,-37.6794383297,15.6840110723,1.0400006092,16.3534898458,235.1508644524,0.3721500782,9457.676553671,-168.8406365394,6524.1809048082,-1797.110957134,-8158.3941109453,-6009.4388770785,0.0056530172,-22717.8725266711,-28.3715252372,11.0323870562,2924.0028100317,-838.1990078996,-1.737993884,34.1046559819,-42.7285540899,-7.4625181603,0.3509635494,-0.0890038606,-41.0906999631,-2082.022065729,46.8457326632,-0.4912581603,3.8134973204,0.3831110672,1.0284955566,-48.777174622,-89759.5183691702,0.1058758348,-0.3626533593,0.554868637,-8.0240386237,67.3566727986,-9.0256175619,11958.4659082258,-180.6019169476,5.9251335297,-147.485062651,-30672.5275827842,31.0592902821,-107193.6578770787,2872.8418272082,18020.1038319795,-1820.4344498882,0.8674932032,23.7019913809,-13.2152139495,-251.323745307,0.5490827196,-0.0215409003,-1.5184736161,0.7304755655,8125.8772153403,-5.1178175434,20989.9079639258,-32.4060255479,-1.1557012073,2.1157259879,-0.1643205377,-2.1924375868,-1.5828855924,-299.6044737886,-86.6163940708,0.3121412214,-0.959721295,-18095.0570298905,-3.2390229255,-930.0922282835,-255.7638233349,48.1269408374,0.3297184966,-0.5830788275,-158169.583310127,13.6016400363,-1865.1778039577,-4939.846039334,-156.4695199731,8.1313751541,0.4241028469,-257.3208222313,19.9988100623,-0.183266226,0.5846730288,-0.4297568998,-172906.9693108436,-0.5203946707,-35.3408061275,-0.6150778136,1.9676128084,-1.8324383558,65.5651164702,0.2041769487,0.545648722,34816.3101231935,-0.113507583,0.8609209733,0.2669912334,0.1443790212,1.44866425,-5.6510417188,-0.486178342,-117.2576475905,0.2753929662,-87.6390337085,0.4536204283,-1.5713888359,120.3012268105,-45.3530598654,0.8699886526,67.2269999787,-3.2599170233,-1.2414648848,-2.2822717696,104.0683408127,-20.6277559696,0.3635698126,-0.1150081839,9.9574576148,0.1688327712,0.3484525397,1.5991379735,103.7691830867,-0.5869413955,-136.5818041214,-114.7216340536,-0.8401317993,-11.7178352278,-0.3220909813,-0.0838601002,1.3911900054,-39.911476906,0.2680543929,-204.7492929869,-0.8007027724,296.5476471998,2.2650765538,-762.5876046692,-0.1447052725,-0.1969015268,-146.2871933593
   22.9888703683,-0.5757255146,8358.0194820399,-53.575974669,19.585567034,-50.2666766236,-9.5321304783,-0.6121962329,-0.0642509302,-0.3093530565,5.9397586029,1258.0047644018,-5.1704330585,0.6553838205,10.0303515511,-0.3711540812,0.3933677528,-21.8943337025,-28976.4366954461,0.6792776463,1.084274485,-0.3243396882,84.6958644521,0.6564928211,3.3569756942,-16120.0365561829,137.4573154462,-0.2124276474,0.5249400131,-2675.3209729313,254.5980755918,-173.3915937875,347.1686189779,-27862.37248395,-3905.4300782385,0.1431886729,-61.8087043928,0.6042430941,-366.071728306,0.0835376938,0.1100102137,-0.8495234974,0.4851448396,-1726.8227381343,-135.6222777044,-766.8768882557,30.3531141329,-1.3647474016,1.8534042048,-0.1668669301,0.1790641234,-106.9720557158,-274.6735447698,-67.4207559259,31.1127104741,0.0724220871,-350.1308590533,-3.2522107383,-7.9539550838,165.1228010055,56.9985942904,-0.6786782778,-45.9771055051,-251420.4557945821,6.3692602181,1575.7498469622,-1487.4584476394,18.0512143302,13.3661089159,0.228412275,317.0190047039,643.1226013916,-0.1609599813,-6.6639947344,4.4392462746,-179697.8225045182,-0.5439901709,-6.9038967194,-1.7449847425,-0.0459485396,-1.1103078946,62.0748897482,0.7913208486,0.231365181,-31454.6607886913,0.4390071575,-9.9407575544,-0.0441404675,-0.1514249931,-0.4288140545,3.1424606168,2.3325208795,16.6544676748,3.2710906605,-53.9310661031,-0.2806517113,-0.6403321213,58.6670419562,73.192599096,-901.8931166924,1457.1006523805,-5.4810862172,-1.9122173701,0.0655642242,-689.2045241248,-114.6426292926,-0.2112817606,-0.5523912595,0.5814746456,-1.2975754227,0.5913764149,-1.7064394706,1463.8349985674,-0.7260523111,-165.4521743699,-21.4565930294,-0.5067162838,-122.2327331515,0.5354871061,-0.139226912,0.4935939759,22.7376106664,-0.0100730918,-13804.9181164429,11.6751401786,-8.8977103491,-2510.6963390968,-1467.1675972107,-0.4962432169,0.5022822604,-191.4647467973,-183.2850228769,-0.416102557,-470.5188583621,-16.924195988,0.7850770141,50.7532205033,-4.7076541173,-1.4489120986,-0.4681630098,-0.7002906739,-775.564816568,-324.2393478132,246.2947668412,0.5043041807,2.5694977718,0.6570728466,-0.4466201862,-17.0666088078,15282.2074653586,0.2680469058,-2.330893615,-0.2350827649,88.056682133,0.1883942145,1.0214337329,-5509.4924811944,-41.7345141331,0.3520603692,-19.8363830458,42851.4358651079,2.2561723272,-44863.3901539439,-11670.0965517013,-3687.4257133495,-1056.1964620237,-0.0169806494,-160.3754953326,-20.6420650115,-266950.1474052671,0.3933103959,0.1737449419,-0.6160798618,0.0740808517,-3695.2245336651,877.7361039084,-156266.5613693832,25.1554540278,0.1797795391,-0.8196678717,-1.3114946948,-0.5215106415,295.5556269077,828.671338035,-4.3576373757,321.46635307,-0.0119890093,10703.5343676015,8.1306494968,-18.7161730067,512.1245120592,-27.3164368976,0.2989048086,39.1256330946,203978.5798368662,0.2977880818,1890.4388168181,189.2533817319,-0.1647709827,60.0259328924,-0.2541297214,-3.7443941408,-0.0406847623,-1.3310583587,11.6116316663,283.6707420959,-240.5254075339,-0.0729124144,-3.5311268695,-4.826037486,4.3158648975,0.3824626276,224.4671900978,-10.4507015861,0.0745404945,-0.1554489075,-0.4919099262,-11.1562676273,0.9984712418,0.7192915852,-0.2105450433,-8667.3426356969,-44.5310884424,0.1574180836,32.9933311468,36.7221338046,0.8733639451,-0.2772453366,28.5138583098,27.6442464912,131.5211904444,-0.3124057846,7.9918104329,2.3449522785,1.907869439,9382.5534144847,641.6274498869,-0.5136448863,0.861313193,11.5518108896,-0.3826339852,-0.0905764582,0.0765345697,0.568877947,-0.7797999477,-0.5382890536,0.4511643559,-130.6536634436,2087.4361840914,-46.4430387367,-0.4303335799,0.8130753404,-5619.5205702358,-0.4019258406,73.1116983819,-0.5167447864,0.3838553633,-5.2315016924,77562.7383846271,1.2219404853,-0.2414465567,-44.8802651029,-9.5601340137,-0.2773444303,-55270.6406726076,572.5003674075,-0.3524195227,-7.1060722447,4966.26505559,-246.3587433103,0.5305335414,0.6415480595,198.3523580866,-6694.0271114928,0.5897612065,0.6007408792,-3.1913965249,-0.2959765455,-0.4331249397,2.0065180957,-0.1736937439,0.6365278608,1.676415743,-0.4342279774,-34.4732493339,-30.3351318174,18.0375068988,7137.7842296294,-0.8756976144,0.3262339999,-0.0439866469,-27124.0616302126,-3.3840671051,20809.7801998936,285.4215294101,315.688042533,29.1842327784,0.2800186321,373.8926610843,-191595.2261883952,99645.6031912658,-0.1894503171,0.2477566822,1.0267180467,-0.2678893721,-109.2702870721,-0.6009937036,107308.7510262087,0.2760209752,-1.5220679574,1.0726927534,-78.9636345,2.0239091489,1540.5365151449,-9850.973209221,-7.777347432,6633.8148555838,-0.3135489001,-57.6727511871,30.2059392412,-901.9375335665,52.51254528,-146.4667582078,0.0000533637,1.5182606924,23.3945158029,-0.710672239,-21.6662871504,277.5455210784,0.4842027167,1.7625792102,0.3333447383,40.8335502382,-595.2779188019,-0.4598405025,37.1766080735,681.2504154151,1609.8100744337,-0.4414309131,-14.1857199383,-97.1647517127,1.0008342864,0.2091590115,-36.8454265671,-11.5526057007,-1.3272408199,-765.5933441801,-0.7531712279,-841.5148495576,-0.1673752568,-0.9155304133,0.097637468,-38027.6457962204,-33.3340771984,-0.112630699,4.1558509564,-4.1310852536,-0.1307303539,0.6002516883,24.4497062239,-4.1103068206,30.1907484991,-765.1022877521,5.297785215,1.3417437651,-0.5706794397,-447.3398929507,-51.8587053074,0.3188085233,-0.153382355,5.948297274,-0.898434521,0.4163356158,-0.5798470105,-858.4924568198,0.6069629598,-60.5103093799,0.736094764,-122.3913787772,-52.6931798575,0.2435462038,-0.1948340485,-0.4183422339,-12614.4904109541,0.32716337,-62.5590514449,-0.1342021679,-0.1401668977,-21.1350859743,-854.5230667676,0.4274606726,-0.686789478,-2344.3288336567,-126.5786643801,0.4767703841,-54500.5284592664,-6591.0072609216,-3.7078079424,-6.1097039129,1774.0517276556,-2882.5791989112,-0.2081168432,0.3131415656,-73.2410640568,-11979.3997776218,-765.4261441391,-0.1400002019,-1.2759497965,-0.5395086817,0.3956293278,-9.7436228486,-678.9344535744,0.32699254,-1.4942683186,-0.5131520321,-29.0824289638,-7636.3133124247,4.3511688001,-43305.1831524369,-100.4387187502,0.3701467246,4.9787206817,50871.3044682451,-552.691629351,-4728.670193273,-3.6529126062,-316.1543884719,-211.4662419574,0.8110171301,-79.3244935296,-19.1060524571,460.3634571012,0.0667228608,-0.3708243475,-0.1075179846,0.6710036989,-7904.3162906213,-138.990693331,-1.5822400585,-366.2764166422,-1.687450933,6.0112201535,0.4878935192,0.0251357807,-2286.4686626448,-304.7518582499,-3.4388988732,5.6624058406,-0.2836873552,5155.9584862649,1.8805303305,237.6381213228,116.0956582009,-107.3690543999,0.0568840915,0.4066459764,-66847.749458937,-0.6169093378,18524.6018300844,-7314.6498014826,-19167.890795809,0.4004607288,0.3030586875,-922.4161465433,966.3191343051,-0.8962876278,5.3193895989,20.9076752932,-148705.4724782691,0.3199321348,30.1116535959,-5.0465358652,1.7425686635,0.5838939559,29.8428233378,0.6455959874,-0.1053447614,-291.7511821463,0.0596857458,-0.120290926,-0.9915182507,-0.7541826053,1897.8138120764,0.2904697591,-0.2220225478,-18.3447931543,-0.1357456705,-89.2754626037,-0.0570909532,-0.0974019318,-79.6727356699,391.4614784294,-2332.8241782734,9601.6317511084,-5.9020891612,-2.0415475956,0.3522803638,1180.4633437019,-40.5096329357,-0.4668838867,-0.1233552739,-1.4274839028,-22.1986427707,-0.6665574488,-3.5608384175,23461.4023342223,0.1776732851,-121.9606532827,289.380256252,-1.0161794097,-11.9951359275,2.8595601915,-0.9654818327,29.0152862153,-43.5886559605,-0.5786499988,-66479.2477788761,-79959.4854508757,1939.4764372833,-1554.002734664,-166.6086805412,11.4338169859,0.5858519024,-79.3528938063,4.9228413921,-4.4422813232,-3510.0609148493,0.6493883232,-88.6837753272,5.4709650769,40.6969850184,0.0594927014,0.2777071673,0.1035553592,-3.0343274857,756.7875167477,-78975.8424569943,-0.6951010494,-1.3701519295,-0.6528378128,-0.858830375,13.2907136034,14820.1638041951,0.9062926923,1.5402889489,-0.2795229888,-26.3796139351,-0.7490059197,-10.6576452016,27033.2500370723,-87.1839340448,0.3424898849,0.5531197512,-3324.4131159518,-3077.0382519711,82.8934529166,-2490.5915987605,-24719.4161121026,-5100.6068577034,-0.8039948977,-52.4915618903,-0.4671198381,-71.8222695867,0.429630835,0.4161163498,0.3835889283,-0.2117735722,56762.9228761678,-14.9339943126,-222.4645614291,-51.2977932595,-1.435546338,2.1026316751,0.0021903792,-0.3956344694,-727.1601991846,1104.1826533499,25.31195683,237.5258107136,0.1948080523,-15340.104682279,-5.869564256,443.6539930778,145.957198471,-132.3698858188,0.0906821951,-47.820638737,49675.1482996233,-26.2459054153,4498.8206493964,-1823.3815737862,15.7209418974,0.2128265343,0.301306787,-6.069898387,483.5262904586,-0.3473836721,-5.1307718176,-2.9708983807,-4416.2767140075,0.0711205798,-15.9201811971,-3.0946629535,-2.3690696273,-2.518144924,120.4339448189,-0.4881160343,-0.6484047937,-47.6138027623,-0.2159697135,4.9959289662,-1.2064633748,-0.7296777613,-1.5222457651,-86.3227900226,-11.3278246336,6.8360190438,2.2816686886,0.2643574373,-0.2777044137,-0.2119309857,87.3982002307,15303.9186226418,625.0083640126,-41260.8816732126,-7.4932114416,-2.4689109322,-0.3967489781,-662.8341771041,-22.9699724363,-77.8053069549,0.1075203153,-7.504867894,-0.3237014098,-0.0695713081,1.6282366914,-79869.5144556241,-0.5351595954,-90.6692290682,0.8012422136,-9.7313427983,-304.8130889334,-1.9532340199,-0.1783873557,-0.9136554456,3534.0943451124,0.4582582211,-25246.5981004144,-0.2741010981,-6.6575772539,-1846.6886735535,-20044.6210180949,-1.3430007134,0.6648227362,-6.2115636114,17.4384881775,-0.3479896699,1700.5051558777,-31.431029548,106.2663329884,-10.6152009918,-3.3803755432,-991.8669541705,-3.5567300161,0.5999554359,-302.8799320748,-179.9951492205,-261536.0417447926,-0.5118894317,10.284558113,-0.0687678126,0.3457328821,-1.3777309752,-178284.6475354215,-0.065971199,-2.2137044948,0.2326887272,-31.8719263857,0.2240432219,-10.4846680007,-2535.5963219969,223.0097713975,-0.242901944,-27.9042571119,-10428.9590976569,0.918653479,58058.6482159561,10951.4831688496,3901.1654367581,108.3936351398,-0.2203806592,-314.4111811498,-159481.6471789781,592.7879719621,0.4693674334,0.2745669228,-118.0158139978,-0.7014193038,-97381.78479173,-4.2454220198,65322.0278938,10.3028265293,0.0416178584,12.7884824252,-0.2577612502,-0.4656760212,-1283.9389756001,9081.5182689071,73.9552949402,1.8053446029,-1.0398447,-13377.8559478224,0.8568631285,1755.1874559554,-510.5832355397,-2.9922996572,-0.9132835867,-0.3791581593,-88863.9108741339,-0.8440915141,76.3580484241,-7293.5372010502,-7.1005356211,3.4016757021,0.6929289832,83.5499264077,-291352.6261773875,0.3340052258,-0.7893958925,0.5676042083,-2406.8851620641,0.4621969417,-89.0312819723,-1.4205662158,-0.4748493301,0.2443565944,-117.8372048223,-0.3396373489,1.44972938,-15.0796905715,-0.5105786207,33.9302026104,0.6934559094,-0.5593947853,0.918045485,-18.5687427455,0.6784667531,0.3290509858,1.0004646472,-2.3953004477,-0.1956867551,0.5767992117,-287.33580568,1517.422025279,-79.7482061128,-290178.6601671422,-0.4825601688,-4.1661478622,-0.5985440951,-3275.9371051064,1820.7341426883,-0.1707665439,-0.3407000724,2.7492188898,-0.0616834417,-0.2563155317,-1.5865060271,-661.4284588968,48.7801901458,-1179.7480438421,-7.5161568412,215.3614584881,-88.7431739235,-44.0985888415,0.3824231927,-0.1713536567,276.3360557502,0.9064162318,9108.8850518959,-0.2869445482,-8.924821037,23687.254132337,15284.7744225319,-0.5763580229,-0.0034828992,40157.96492785,43.5882044615,-0.7263015214,-4881.4509705828,104.280019476,-258.2605980127,-55.7315029278,-8.5106483182,105018.7379252308,-9.1357418977,-1.2413922995,-27701.1092627184,-1978.2788487959,-146.0345807297,-0.2452232557,3.4636147867,0.0296447373,-0.451316579,0.669229849,-69749.9334548704,-0.4106649161,0.1085229677,-0.0751492832,-167.2680781561,0.3953482136,-0.6009877327,-24.875514296,89.5086791419,-0.5650716855,-121.4135930247,-156865.2878671909,-16.6627393617,2459.5397073012,-728.6927399037,56222.247065485,-428.0247237396,0.2845492151,-155.3254491316,-5027.4044706544,-70893.2240926336,-0.3001317487,1.3950541804,-2.8393333348,0.6199168371,127178.7863792507,-368.4653151509,-2847.9496088046,1.8955301128,-0.9578907042,2.1862439483,-0.5460713329,0.0166332022,-1479.3974724513,-5975.0481966229,59.0589713082,3.2701568395,0.653278266,5240.2895173377,0.6017332302,-23.2959253997,-42.7108176728,-33.744252408,-0.2914915393,0.552271353,-311062.6116181023,-0.0214177755,35374.7592080199,1300.9385515414,-19.2952470391,0.3800682895,-0.2495602528,58.4296012668,1050.7309263154,-0.1693530581,-11.4236568172,-4.8686088857,-0.1997596227,0.1174112949,-44.5524185282,0.3550511128,-0.9100714299,-0.74462593,58.6349188228,32.4963336291,0.2554498662,-47307.5846179575,-0.5729358644,-42.7158103106,0.3434120041,-0.3667240208,80.2920250447,0.2198912347,27.57701805,-0.1706310838,-1.1863297325,-37.0440817974,-0.5472979551,-0.4628521172,-93.4751312246,1025.3859176411,-2251.0249323675,1497.2018963424,-9.0525045421,-0.888655234,0.2073919477,343.901458062,-307.4992819022,-0.0492847527,0.176112085,1.6147894646,0.7926914538,-0.1565690748,-1.611403232,401.6623754265,0.2464958678,626.9885684414,-4.9990917616,-4.0534415354,-180.3102479158,3.3049220685,-0.3708169716,-9.0030490371,160.0600129621,-0.0751759735,464.8222892163,0.3290462821,-10.0025495072,-504.9406714171,-1567.0145737473,36.9562771142,0.7954076929,-212.7870234847,617.649171397,-10.5968626344,6737.1949752944,-5.2254424244,8.0714150503,10.8871195438,-99.3190497402,0.3395691947,7.403401371,-0.2276900059,-646.1897434773,-122.9093297518,-11437.107939728,0.4150765212,-0.256339214,-0.5996617561,-0.0718338042,0.5253821341,-4224.8280555719,-0.5992010086,2.4025717419,-0.2080149543,-187.7622714226,2.9457786011,-12.6583015852,1280.9238022155,-41.1102870328,-0.2751865468,-0.3114385608,6366.6407267864,-559.2190244926,-185191.3236681969,-69.5312551553,3361.8224816769,560.7326913351,-0.2554694975,-215.510832042,-7.7528564349,-266359.4420799393,-0.0310066048,0.2698179209,1.4104236466,0.7108265706,14096.3500249525,-293.5009003711,-179093.8036820243,-6.2201853171,-1.4160198768,1.1644344178,0.0253461644,-0.2316105286,0.1331242723,-705.5794888459,74.0789834103,1067.2571374871,0.2654592882,-83902.8926537911,15.2100357012,-8.3227185183,212.818109528,95.9798478463,0.02694277,-0.0867085151,-167031.1925561992,0.1982531326,-8223.9141830573,-584.8232222429,0.2525060186,3.6630812059,-0.5460390224,-17.0032369687,-3.1381231721,-0.8010080249,9.7111985848,0.489961553,-210.9135936399,0.1007155943,-1.9938551139,-9.2437360552,4.1646325428,1.1618376326,101.3220630079,-13.1022749658,0.5793557379,0.249124524,0.2360305062,-19.334910429,0.5662105627,0.0345193159,-0.0011606025,-190477.2716441982,-4237.1576855704,-0.0690339394,1.9741276081,-41.9297242237,-0.634458742,-0.3157906247,98.934409639,-10581.6607792872,-51.6361427459,-3.9610636576,2.8371019839,-1.3517955613,1.0365065739,8383.441972666,2.5369874099,-0.0099032033,-0.8585811068,12.0999122534,-0.3775031877,0.0850557582,0.1362638127,-1.9627724071,-0.1490276142,-0.5543419577,1.6739707028,-2.1762013561,-114.9373393536,33.0242105968,-0.0414303568,1.2310734924,29413.0120029508,0.2780737801,-0.4105315139,-0.8946164947,0.9726368511,-84.0451156656,-1328.5819089591,2.1767714669,0.3533000042,-241.3490311689,124.3552102836,1.561038907,-25980.9827163859,-1514.3761982353,709.5410771929,-4.9521119717,3.6313866132,0.6318332166,0.3824061709,-0.7261191655,-55.735143099,-4573.6719797017,0.2356374682,-0.6318014625,-0.8698715966,0.210267993,0.0135184778,-0.0870103177,-2.0706607378,-0.4946727398,2.5297048706,0.0572621725,103.544709203,-43561.9877821533,-3.2489573114,36705.4926475498,90.6529065493,0.5597944285,0.3828663334,-101264.9335092484,-21.3216861928,-154544.2731464105,-1.0959385438,-3694.7119280222,-1064.4803114554,0.710676343,380.7636344302,-0.4575354607,-771.9842674536,0.2618711046,-0.8113620674,1105.1702791062,-0.3809844151,-319485.2003276188,-3.7279813293,-29186.7570106599,54.9031225516,-0.4732702869,1.2779701858,-0.1192741874,0.0609880505,-3317.2334485529,-343.5163665551,-197.8432739302,-7.7489785734,-0.0639343295,149.4571515691,-11.8412622668,24.433469166,-209.151329552,-495.8803833993,0.9798963808,-0.1649630621,-35845.654971253,31.7946564571,-1940.8975302191,479.1429767095,4405.3618972315,-5.8227619467,0.5544552398,169.9292581713,536.7610579009,-0.4297947379,-4.6583836835,-0.6773949829,314.960053656,0.8343502297,-26.3094065148,-7.6668964483,-2.0640999055,-1.1785427944,-141.7381576751,-0.1576779253,-0.3278528399,747.645555095,0.3247832755,-239.328398624,-0.8360406164,-0.2198665486,0.0561743955,-5.2615441842,-116.4874733726,-0.2536567664,-4.7078321577,-149.6127644903,0.0775928945,0.5816815575,-335.7083655051,-9.2816215972,-106.533846358,332.8274705168,-6.5412653516,-3.3206125648,-0.5928885722,-6839.4044896576,-4406.5969988954,0.0294467024,-0.0217808131,-5.1751523699,0.8847708824,-0.5790178193,-1.1423753274,323.4473045462,0.5157540093,-80.9496049622,-4039.1956255415,-2.1433870997,-115.1246197106,-0.8010040049,0.3347871568,-100.368790761,460.4999725844,-0.3327647125,1020.2363719866,1.0581434563,-252.911148303,-1512.5976303602,283.127054073,0.4937276768,-0.38022749,-1710.1077103771,-412.179454936,-32.567175557,-10356.3297817727,26.692204169,-2.9469626,63.982788147,-432.0525523242,0.4774633449,0.7565986951,0.4941254984,-150.3609749844,-2246.7714864514,134.3326545167,-0.1705999325,1.2866797936,-0.0586419994,0.3192825443,-26.7721377256,-45319.4430250045,-0.0692718973,-1.5276402991,-0.2544840885,-200.6799150958,0.6612069701,-2.7824604382,-1856.9070158585,-160.8905050045,-0.2491176036,-582.282864721,-237728.789940895,-18.3471138474,24150.7550074826,-1671.9456428251,-2177.9404712303,-1536.2771061685,-0.1948449665,-393.5090667737,0.6053882627,408.1104469976,-0.4426665085,-0.3005538952,-0.711293806,-0.2919307963,-475.2501319401,64.6402806806,9797.8141045817,-31.0511855414,-1.8389035393,-1.144043314,1.1599907696,1.4819608169,-1177.103652392,-94.7202573999,15.5745111577,206.9820142997,-0.3958665051,-84.6040595033,3.7575438452,-135.3937186738,196.4387794589,112.1320214814,0.362669721,221.3986113102,-8693.103909436,0.6248905216,-2023.8941899138,-7970.4171849918,-9.218484222,-0.4591654507,0.6083039835,-23.4594895996,-101.5967324702,-0.2380030171,5.066754762,0.3978607719,-206.9951393623,-0.628377716,-5.4021130468,-3.9300862081,5.7948057758,30.6768265398,157.9500145564,-1.6504675632,-1.0455470325,-2.3659720558,-0.0062593963,-1.8622107232,-0.0429316974,-0.1439184956,-0.0193813619,-155596.6932366136,-4.3435565482,0.1833416648,-64.7030175583,-14.2552264488,0.0914384467,-0.291657116,49.1871601524,-44823.57381477,-487.4312518878,-160.6705673916,8.5299958537,0.9047334031,2.0541623144,-1354.1461747822,115.2021558027,1.0374946014,0.3237660204,12.4717664134,-0.2827211958,-0.6086318402,-1.5400856028,-1.0368948234,18.8881176374,-100.1251745535,0.8267366107,-148.5565737661,-11256.1736767838,7.7801595637,-0.2970009151,3.8772259119,1212.3444655495,0.3648612662,-211.6451185857,0.2337712218,-0.4817248678,1137.9507655849,1676.3688404096,-0.1333362642,0.5196630805,130.4452343927,97.5808795315,-0.4758035421,-21204.2277469374,2036.9967084677,1466.9481330478,-13.6579102226,-0.8961135641,-188289.5733472518,7.474454473,0.0557066859,-355.0361837339,-1423.5416047787,-0.9488244419,0.2390713773,-3.606035588,0.2379118347,-0.5526538615,205.5053307269,-143.4849474614,0.6986418064,0.7687588729,0.1605195582,42.9336406869,-103.906484432,17.5303506297,20709.3787177656,72.7740226833,-0.1186466348,1.4928286217,-86322.8442976782,4.4551309958,18761.0019464114,-2.5536898253,-268.72788919,-255.8163389851,-0.7179738351,355.5459380997,822.4020399513,-7375.6429602789,0.5639457802,0.6145022999,692.5307217063,-0.3629574597,-49.3269188712,-2.8713351287,9000.418787282,-52.0483637597,0.0757306362,-0.1190057717,16.2888408556,0.1528840679,-1448.2406794049,1210.3542927556,4.0133724672,0.1925788122,-0.5118155983,2877.7566794845,7.964472547,-1255.1296168106,150.2570195963,-207.49459991,0.2649232732,-8981.9988977014,93623.7883746838,0.185414549,14.3679125126,-34728.9511595042,3.6883024731,2.5672957441,-0.5866874154,1.8564126199,-853.2515272359,-0.0522461124,4.5748206727,-0.2372338768,206.6362346693,0.4846901898,15.0367133278,-10.9818723024,-2.7730640805,-0.7621884285,180.373312749,-0.7079168083,0.1813156756,-33.0331784686,0.4906837598,-7.5186735563,-0.6518658011,-0.6044876861,-18.2736243706,11.2386417533,2.1690811125,-0.0234719273,17.3469028979,-53.1191770337,0.3996777145,-0.4787419237,11.0438396367,0.4009188504,426.6273261798,8194.1002964275,2.1227990529,-4.0894117927,-0.4893809634,-1090.1188235316,-5270.3934941139,53.8645228554,-0.1516984859,-10.4974931405,-0.3060277866,-0.4313228975,-2.6864234338,-87.7598729188,-0.514014048,-547.6042566906,-1.9148844599,-8.6583715287,-117.6698294748,4.1315003586,-0.1768836816,0.4949956077,127.5587761776,-0.2396137081,4532.0298463055,-1.2679972814,-6.3051869254,-2092.4936863796,52082.0298284568,-2.0505991283,0.036342677,-8721.5760893127,-35.8714033933,-0.1853131737,-10741.2163197884,-1.5054487418,0.2478817632,-30.4714879829,-55.1855562512,-1329.7155176843,-0.7377575197,-0.0782637827,1759.4109806689,-713.9403989032,-33980.1983463577,0.0522406301,-1.5220678254,0.3782559679,0.370368806,-6.3228564078,-132861.9980168113,0.170592197,-5.4499191542,-0.8160489533,-171.1652593891,-19.3187019607,3.6276027942,-7671.2121582954,-75.235293594,6.082836707,-14.0587760278,-6120.8127326924,-1.470435299,-8855.2432250166,7867.1397848807,23569.3661413214,312.2025753841,0.4254541492,-136.5438425028,-183182.1854900044,3661.9558945421,1.5493001367,-0.0749412649,-0.4850678175,0.3657899882,-17018.612758403,28.4845961926,-24214.3491506722,-0.6670230368,0.0393910279,0.8801558538,-0.6885633448,-2.8951669726,-13.1694849069,378.5207562943,-74.6313969823,-0.6934295506,-0.7435699765,-35998.0395880393,-16.6979418959,-13629.1679416202,-138.9478673678,-37.8332691967,0.1753437736,-46.2762818501,1684.4816510992,-23.4533366644,-77.5420239063,-52564.8607095376,-18.5266522002,-0.3131161322,-0.0433021319,6.0398415947,77.0087834158,-0.2849126817,-5.1858003005,-26.2062282019,96.766866763,-0.1227283959,-33.3350879824,-1.9154959621,-1.9401400074,-13.6411386044,-94.5727110192,0.3010948216,-0.4189846126,-11896.7448424291,0.0653059496,35.4829540985,-1.0451187779,-0.2604919516,-0.6720991092,-138.1753318293,32.7102339026,-31.7002013797,0.0056142459,-18.5016077769,0.244609998,-0.5478240586,-67.6304929248,-528.6666788441,39.3987863898,-16967.8386474244,-4.2705590444,-1.5096143187,-0.3326848945,-2662.0666769033,-59.5246408716,-46.7075222544,-0.0271594777,-1.9161341571,0.194540397,-0.3550547836,-0.1751567937,2125.7049476367,0.1343168332,-68.0046454428,19.2773311399,-5.3668808001,-76.470674723,-78.0614033646,0.3719898681,-3.2686868052,-201.5983465502,-0.431850453,461.7858781598,-0.5412292025,4.5423480918,-20.7019806411,-36771.1857702775,-0.3750044085,0.2939113303,-120.4387491091,9.3678556814,0.1232083887,-8168.6615416397,-87.5018350415,-21.1715977039,-9.8649629186,-30.6192114724,-5.1359156675,-1.5491570389,-0.5141933949,-655.6517563344,-850.7296833613,231.6030335179,0.2386568791,2.1574116617,-0.3013029573,0.3276598158,-4.3573749327,17728.8436444708,-0.3551006408,-1.4264639829,0.3276354271,28.5309298929,15.4518930958,-4.7455766183,-33172.4710483011,-27.716086305,0.1975186523,-1.2582143448,-22653.5774426526,-2.0754084244,29852.8273226831,-26.6825082504,26603.2822192083,442.5485967032,2.9532853902,-120.973787648,-254615.0347882528,-141403.2081295368,-0.428084578,0.6866107076,-0.1628539125,0.1633548797,11.4210200509,-5077.8376293122,132220.080702082,50.5887704405,-0.6246547958,2.7669143484,0.1599894321,-1.1298569958,-176.2069970863,18083.9894682377,81.9770971835,8.6253339468,-0.5331263628,1046.125947644,-18.1366322048,-4.0433180596,392.2967137738,-19.3423406662,0.3115440951,-46.7653752577,26696.6242560067,22.8555131352,639.7898851484,-16782.4796044577,0.2918116358,9.8483591101,-0.560820112,20.1247161063,-155.2128830676,0.6330877912,-0.6259195381,-1.2489282436,307.9971938809,-0.4460684181,54.1813878381,6.0844123219,-0.707853594,-5.727625013,86.4717201003,0.2115102725,0.4575221555,-24.9818988561,0.7675061194,-4.2159085233,-1.6401656015,-0.1424063436,0.3514518348,30.2098892301,-1.5364244858,-0.1404271075,-5.8466345736,-65.7777047539,-0.0427899237,-0.2193096506,-3.7211781908,2853.5138584127,268.488122136,61.6869610449,-7.0935710955,-4.2553445747,-0.0532808212,594.0110768798,1227.8540039525,-59.3481653269,-0.3550369416,-0.4996458237,-0.3141675961,0.3495196183,-1.1232076292,549.9867329961,0.324131133,-316.4408418105,3.6719836959,-11.451055495,-86.870148241,-2.1195643064,-0.2060781088,0.0764948117,101.8260650235,-0.5173804735,-1598.7828938885,-1.3867477375,-13.1154588414,-3501.2826852982,-138332.5270881217,0.2876360592,-0.2364859258,-1811.6565190236,-455.5465276402,0.3166479479,13682.9108798585,72.7294838658,52.7047727516,-1.1760552195,-115.1711935106,-280.9299464583,-28.3288341513,0.1831498762,-748.7470969214,-3061.1602925308,-45.7141260341,0.7202478197,0.6417323776,0.696914198,0.0823239011,-2.3462451533,2363.469578208,0.6431972272,-1.3467228151,0.6677542722,219.3402218584,12.0256329998,-0.9326915607,-5368.9932952006,2.2475645025,-0.3013913856,-362.7261699891,-31206.1452799569,1.5762562414,13131.4708053597,-2696.2218113608,15697.7790182495,4.4487071831,0.7401957031,-39.2984518785,-1226.7427031115,-35672.3496607084,-7.0501768146,0.3764397997,-0.6362029364,0.600824495,324.0526960082,-1447.4154590213,41552.0917239027,20.8222253669,-0.7770323772,-0.3221529703,7.8185520322,-0.7236591262,83.9497801328,-10.3879282089,-7.8772573187,0.471179156,-0.2216082102,-42222.8271334189,10.5903472272,-255.8348454466,-51.1428339199,-182.2791035931,0.2634614997,25.217717942,13987.0094596484,1.3361620101,-650.6934103521,3297.2330727952,260.5592927802,1.8084712648,0.336662686,-292.344680656,-1083.9189925512,0.7341715856,-3.3363430453,-9.9374123748,-235869.4556509437,-0.4396666651,1.2828911541,-7.134642421,-1.0373329418,-12.3205553951,3.7766717918,-13.2272369193,0.3396166141,-19.385057339,0.1071215153,-25.9924249834,0.0560423491,-0.1776196518,-3.8926003093,44.7425117418,-2518.0757171512,105.4032528034,2.0946918876,-6.5613295315,-0.9575360433,-0.3961636232,-426.9950162528,-4182.9121826456,965.0660905076,-3893.9656542274,-0.8454745593,-4.2897518983,0.8652475656,-1884.8129135168,162.291768933,-13.0437119436,0.1235314898,-6.4650057382,-24.1894557904,0.3191718379,-12.3999344002,-34867.6272494055,-0.5118931771,-100.878820544,-139.9431689952,-22.5638704254,3.6302421592,0.864525017,-0.0862998631,57.2526318965,49.189633576,-0.3635111313,-10197.2528739704,-159.9749075616,-146.5367146238,-2233.2980897786,3258.73861069,-19.7327436495,0.5773649967,1368.7384386077,-57.2078836874,5.1338251283,-5510.2177172753,-28.4526715121,-65.6590627813,-218.0026499276,-19.963605057,-4027.8445544058,0.6009907258,-0.20467796,343.7853349715,278.0628623802,-12589.7847984802,0.1283709516,-12.8890074669,-0.6959806378,-0.0244469867,-13.3928959456,-28007.5536807426,-0.0051782358,-0.7098031227,-0.3829716813,-284.4718881738,0.336884416,-2.1260027778,10570.3761488244,-217.2292498957,6.923440162,-136.5416114581,-10523.6648036069,269.9207092397,2060.3095808262,17553.8173137453,-56093.6080926238,-40.8435530764,-0.2203254409,-56.2959166335,-1292.9961850489,2228.4360326341,0.1876638823,-0.2355244196,-19.0987433552,-0.0519748066,-26720.6538869646,5.8492816584,-34.3372233309,-14.0634869486,0.5921449914,3.682347977,5.7210626265,-0.0824490715,-2.8689042961,39.1064429785,-6.3795144377,-2.9103993225,0.1680815684,-7243.0786559786,-1.1680707166,687.8416340863,-174.0020077775,27.4613928106,-0.2389743395,-9.4569062516,15107.4212398605,-1.5397512946,208.0559469533,-852.3119396029,-39629.5938693966,-2.9767660922,-0.4166760448,158.8478076727,112.0739302313,0.916838878,3.4620139494,-0.135743596,25877.9632742015,0.6246493258,-68.5858720163,-1.317854278,-2.6274186673,0.7173376234,19.6388588729,-0.172243921,0.4336521039,-107.6086473353,1.0835801273,1.2122833568,0.4364835873,-0.052186825,0.7701799547,-4.0872745559,-9272.9451315101,-58.8822901406,1.2330748804,22.6426457222,0.5768488541,1.7549900781,2.5803154268,2240.5909262537,-278.8664289523,1012.4829538295,-4.8637616057,-0.3247134011,0.5023746017,-440.9716901488,25.524720778,-0.2512109915,-0.0067049628,-0.3501041626,0.3508128365,0.2463866499,0.1908514772,34.445261571,-11.2356304153,-51.0023212022,694.2005069141,-17.1359579475,-2084.8449644967,2.4609102992,-0.01362405,0.3812869807,-80.0204649908,0.5266825856,-991.5064210937,-0.0680498558,1187.013328557,-2232.281519662,4727.191040754,-1581.5757306523,0.0190188158,-5630.2714136324,93.8126554167,1.5465329783,10564.8594389742,-144.7826742101,-1.4646201724,-3.4077760145,0.0200965752,-57.8663916545,0.4859550712,-0.0297235919,-33.0198479374,-1270.2218266962,-866.8360046279,0.4725399079,4.0494501525,0.2131040279,1.4506643323,0.5230367929,-16441.424959064,0.2467591191,-1.2454567957,-0.2950193852,35.9207896732,5.70070939,-1.5366983993,-8686.6092965436,38.8636009452,-0.3371238868,-0.0027923173,-12950.0526252734,0.047569092,36035.4294398511,1257.2693979343,14164.9161298444,3.1054007049,0.2302291961,-167.7891704276,-3145.9000468094,61527.4466492604,-0.1986970499,0.3360485722,0.6756133576,-0.0238430196,9321.028403876,236.1603045178,2397.1714405544,7.9603301941,-1.5825784392,-0.16769407,0.0693239052,0.627481108,2.7693159159,1.5227181862,1.9362586166,-1.1156827822,-1.7416345792,-0.0878731204,-0.1754721848,-0.0593423076,0.2912301927,0.9624831258,-1.7244486799,-20.7853616354,8.2545490325,-7.9807090177,-22.3133534881,-118.8181225504,59.4702101325,-2.436592442,-39.3301112836,176.0715134996,3.2616116695,-504.3792658897,9.9694381633,5.8243026743,8.4831215974,1.250413543,0.7977790343,-0.18696976,1.9926544837,-0.9098622204,8.4374722371,1.4200331646
   -1.6823207775,2.6989103284,-0.1006163656,1532.5818217131,-8.7174924383,-11.5146237684,0.6752537496,0.9093194419,0.2716636928,1.8893602342,0.5171408563,2.1811545218,0.8502847574,-12.3590042863,2.02934809,-0.3346221459,1.4653296171,0.2213054853,2.5177492673,2.3290474104,-1.0429536196,-0.668024224,-0.4588867253,2.0859996975,-0.6749035738,3.167877217,-2.9888118549,23.5670693783,3.2607960994,-1.5653755035,2.9667603194,-4.3037797095,5.2362942764,3.3573412936,0.5335885033,0.7078377634,0.176921386,2.6058312763,1.3831302824,2.7921587018,1.0342081591,-33.750107141,1.5042250028,1.20955531,2.0600925424,1.754674102,-2.4082849638,-3.3009236902,-0.6316075383,0.5362504793,-0.3117624997,1.5739931344,1.3715330018,1.1458002228,1.4028674047,-33.5232787595,1.6673803299,0.6354490643,2.4425309394,1.0673576365,1.4622472839,1.6478566511,1.1207230854,-16.3064245205,-11.2520683643,28.7691108869,-10.491001827,84.0239212427,-4.7218922968,-13.6984445351,79.2039614138,-13.567323215,21.7585465884,-119.009834583,185.2393837449,6.0716969069,-19.6792039972,-0.2588700366,1.1630920155,0.9378103023,1.0330118396,2.8776748744,0.6831468353,-68.1452244981,1.7371034383,0.090042512,1.7840755114,-1.0144582486,2.630864191,1.8042253165,0.787263803,0.8648124717,0.5982203783,2.1188118256,0.2883218508,1.42593394,-0.0485099421,0.1948404926,0.7231910529,1.3954397905,2.2819234092,4.9431382411,1.9327678359,2.2441016364,0.2901094253,0.2211337697,0.315355375,3.1960830841,-0.7899933147,1.472652746,-0.6491297522,-186.5195298897,3.4127131812,-0.3036182113,1.6448794754,0.4308255039,3988.3836526223,2.2317450249,-2.4312075456,-0.309746005,1.2122028766,2.4664488561,0.0135486805,0.9262842495,1.2314550604,-22.7280343794,1.9442974065,0.4409527163,2.1005879484,0.6106908279,4.6658072837,2.1216996974,-0.2397872588,0.0239852861,-0.3592492002,1.2570394633,0.0134717947,2.2568442684,1.1193498173,-4.252259874,1.6380056209,0.8040035952,2.0160015376,0.2659324769,4.4871604892,1.7685429043,0.770963191,-0.0792453678,-0.6527120107,2.5591629321,-1.8277866136,1.9362297971,-1.265183799,-19.1211555601,2.6115800114,-1.7975717537,2.7770381984,-1.0279353263,9.1643201602,4.772797063,-3.3384930807,-1.2116651281,-2.5769153207,2.5996685147,-1.6566457094,3.0195595402,-2.2046109416,309.1742892211,2.9579842859,-3.5489539974,3.1742319025,-1.4356931872,2.877562199,5.7459744755,-2.7931878352,0.0006573267,-0.2284298015,0.8751745719,-0.2379859165,2.2373500281,0.0961588181,40.0201351453,0.8899000139,0.2985432791,2.3849286417,0.5384938845,1.4328918006,1.317867769,0.6058178437,-2265.8442473171,-2593.8696481572,3112.393596209,-3126.9134387194,2106.3171242716,-956.457070524,-445.0449077203,2618.2405517246,-1302.9709478825,2265.9676749522,-3688.4360359528,2026.1290240556,678.2739892877,-2263.0091974157,0.0523726862,0.927441892,1.3980230695,-0.3561244521,0.8032396484,1.6554558458,-56.8569843588,1.367128599,1.7355062944,2.3481531441,0.0954762429,1.1709056632,1.2829319244,-0.9177826839,-0.225653749,0.5434567761,1.5797515926,0.0328798101,2.1210064232,-0.5526000822,81.0681705377,1.4848531429,-0.1628876242,2.2464870036,-0.6949196962,1.3826003683,2.0104917043,-2.6677551231,0.7012375812,0.8377277279,1.3873222958,-0.0497665539,0.8469058027,0.5921883061,166.8322642801,1.2488628007,-0.5899598398,1.682960664,-6.7338689831,-1.3346391423,1.0692878355,-0.214481598,-1.2462169972,-0.4132931046,1.8710106405,-0.0400551909,-5.4065510876,5.6017269043,-2.6269070638,-5.1024455669,7.5049458148,-0.6497275413,0.8496187631,4.818552611,-3.1839650373,0.3271700141,-1.5437090401,-1.6338530287,2.4936609247,0.1464833799,2.9477829595,-0.660191894,2.5699059485,3.6031915633,-0.6530531728,1.8357003225,0.0821967249,3.5187907556,2.7349296165,-0.6104039628,0.1552808726,0.9744902161,0.9602538928,1.7068459697,2.4284828435,0.3136886609,21.0439013767,1.729968354,1.1283014689,1.7175117728,1.2184205386,1.0386815175,0.2684014937,-1.7993464494,-0.8597237269,-0.6078662707,3.1145214941,0.019037079,1.5084698657,0.6192203622,-707.9933291612,1.2929441079,-0.5088419273,1.2842356702,-0.5958438146,1.3350595279,1.8034955608,-1.0729665584,0.4181937915,1.8597034317,0.6075769589,0.1880365543,1.3780091423,1.876661189,-1.5572066719,1.340456196,1.8542132941,-0.5031316091,2.4460836353,0.7996202743,-1.0107887725,-1.6653568776,0.4625280508,-1.6586322391,2.8679843696,-0.6552614256,0.8173067122,-0.6560176066,-2.7394842073,1.7909756571,-0.3075381668,2.5370697751,2.6983798961,-1.4028440387,14.0615901789,-0.4734073204,0.3449592101,-0.1608527208,1.8521417148,0.729958346,1.2716394285,0.514025512,-13.6308857412,0.7744920051,0.3795682879,1.5993901468,3.5855477996,0.5520985887,0.6831129093,1.4254865527,-0.1575604721,-0.0448425399,1.4127397942,0.7481400649,2.7726071152,-12.5243782289,4.5263794444,2.2943780928,-0.2097793964,2.9669193496,-0.3902721461,-58.1902763113,2.4879203802,-3.066451682,1.0569428076,0.8085359087,1.0010500266,0.3734293113,2.3104492274,0.2266875423,-6.3952182268,1.7733983842,-0.5081807795,2.1868434617,-0.3694123267,1.4484429434,0.4760703688,0.4741291713,-0.6582580672,0.8430009642,2.7453367949,0.3987111446,2.4872608368,0.8783328335,-15.1821219274,1.7103464425,0.8955905913,2.2849599403,-0.9597278061,3.4657314144,1.5385243434,0.0840961821,0.3659695152,1.1301194658,2.9631684341,-0.831631208,2.8429515929,0.6736060125,64.7671375426,2.3957321402,-0.759974678,1.3192774404,-289.5168952745,3.5314078099,1.8187746329,-2.4590046924,-0.2885448654,-0.3748806251,2.6914950803,0.8464166773,0.5653699546,-283.2343668129,2.4576568938,0.8754181673,-0.2094955717,2.2057981236,-0.3997826635,1.3283501048,1287.3599815602,0.0280515371,0.8241103063,0.7891837171,1.6509712475,0.2176973717,1.2377698062,0.524499231,2.4672910337,2.3952837803,1.0227695666,1.4800683373,0.8594764575,2.3318509417,2.4744138018,-1.5443748415,-19.3582970694,-60.7713169639,6.5321227561,-3.054895447,97.7062275342,1.1347703518,-35.535826653,37.2698724431,-35.6570145741,4.8483854807,-5726.4862993618,514.6154505266,1790.6725001411,-2.7776930369,0.9629968515,0.7747343619,1.3546520642,-0.6513611913,2.8603174518,0.3086489939,6.4314230256,1.2424006071,0.1564088694,1.1395319666,0.5441686868,2.8370056808,0.4630501141,-0.9128336697,1.4960036592,0.1518358386,1.3766893319,0.3996280417,0.936182116,0.5468954161,-61.3252234862,1.4400278825,2.0041130827,0.0605157862,1.0844032188,0.8496936487,0.9754537409,1.4605029527,-1.0739080894,0.3275385408,3.1783413037,-0.7191650804,2.2036678632,-1.6887218672,-365.0979861052,2.2561017106,0.369466982,2.0545304952,-0.8444813216,3.1648257081,2.681128297,0.0522175769,0.4369273343,1.2320048139,1.0296990088,-0.3804569083,1.311110784,1.1672668048,0.070268312,1.214092804,0.038031124,1.0609656565,0.0096494892,1.1643811845,-0.3946443061,0.905272641,1.0516489634,1.0895964307,1.0375028098,-0.0106847899,1.4419246713,1.1091937037,-83.0444899841,1.8982570401,-0.1787665732,1.4144614563,0.0978716268,1.6910783642,1.7597545244,-1.8243589167,-13.3406541036,-2.0010646873,16.1233523124,-13.2152396643,8.7550788431,-29.4862929329,-12.0958622679,16.2951401389,-3.6288119301,14.3722175755,1.0875390043,14.5731933031,13.132635432,-12.4290300882,2.0139197987,3.0457108249,1.3800362646,1.5772408109,1.1649213545,2.4304870056,-30.477493069,0.0707041707,1.7462739273,0.8500998993,-1.4997696548,-1.0091163874,-0.2095287201,1.9671646866,-1303.4701722772,-1246.7244188734,1667.6679382913,-4070.3707090715,1966.8262140767,0.9676749984,-2.2231532007,2522.6253009412,-481.7368334053,1305.2590773334,-2.3608164068,13212.516747168,4448.4426627816,-1303.5268781566,2.2785205085,0.5498090859,9.9391087985,-2.0222278631,10.4514714495,14.7528457268,-33.5393923207,6.0878189913,-1.0198348586,-16.5711549097,-0.8355921188,52.0778687687,-49.2835075125,6.5787421896,-2.032149989,-2.3876390673,5.5782661086,-1.4609119411,6.6954939123,-6.4420414937,1289.0226433163,5.1801825626,-41.4055644918,5.6336829284,-3.2933608179,3.9047667774,6.0521978733,-3.4020355197,1.1786073476,-0.0626164965,2.3497679773,1.0427704477,1.6524925687,0.4197450006,33.3447065941,2.7039227896,1.414863988,2.0644618015,1.3349049468,1.6851518607,2.6567277442,-0.7466705503,0.4554498492,1.4075402153,0.9183761079,0.6949138214,0.8421162622,-0.2772076098,-44.5974981498,1.2914304087,1.257337735,1.2461799161,0.2885332958,2.2990395425,-0.2772768324,-1.620734673,-0.0212750923,0.0411957472,1.9902290282,1.4828511246,1.5574965881,-60.651505217,14.5434227611,2.1035235059,0.2899782427,3.9481186631,0.85480565,61.6251677826,26.6188116627,-0.9348319253,-0.8215533673,-0.5063471814,2.6901769086,-1.0781771942,3.4123397818,-1.6791296408,-55.0645230408,2.5226298398,-0.804842045,2.5556658562,-2.9700444992,4.0645208906,5.1364068143,-1.2662613871,0.9350210878,-0.3502466887,0.6668617122,0.678949946,1.4943426311,-0.3550132753,8.9305641251,0.840428014,-0.3939286394,1.9507926203,0.7545669802,0.5881915436,0.6080258484,-2.2882058349,-0.08103077,0.8047754315,2.0838112796,0.3630114975,2.9499473564,0.0572000382,-17.4786851961,2.9723128876,-0.7212598319,1.7194695034,0.7255013536,1.2535839746,2.8078936617,-1.8309692662,0.1761569094,0.3985393695,1.4837163332,0.3467145012,0.7376913371,-0.1964195319,-57.9586359774,1.0439337144,0.4046933511,1.5971098716,-0.3429682065,2.4189256417,2.2355810739,0.5637785936,-0.3294445555,-0.1548022055,2.4342731547,1.1456096168,1.3935902128,0.686794728,-339.4230227334,0.7078120576,0.2341859534,1.528616847,0.3964040561,2.3622785455,1.3046360374,1.0325664889,-0.4862874061,0.0459311211,2.6059787374,0.1189063119,2.8526640342,-4.0820301213,-629.0229282873,2.8323738182,-1.0202735178,2.6709589349,-0.6038761315,6.4219930781,2.6190609908,-1.8680903977,-0.2750605088,0.1888696632,1.7628974403,0.3142166091,0.3854334411,-2.3273713228,5.6071251247,1.8814865562,-0.265325499,1.5479221679,2.0973501208,-0.2209918095,1944.7972552566,0.0986306294,-0.0644733646,0.0862369573,1.5612572108,0.4574444014,1.2917632895,-219.1556962112,36.6966422317,2.2411170686,-0.8755652401,4.0037618601,0.6559688664,0.4135759547,80.0188918583,0.6066196089,-1886.84010856,-1866.5572967904,2194.4962462473,-2473.6599575931,577.1130123605,-777.7075195385,0.4186269721,1869.5744683986,-1416.3498174792,1589.3873825677,-347.2294452582,6186.0681395162,734.2407813193,-1849.1161894677,-0.5884905246,0.7693469285,0.8364096017,-0.6087308932,0.6018095148,19.6226808166,-10.5931663072,1.5579639741,0.3255288918,1.0903891896,0.4828457094,-0.8417222905,1.2131131785,-2.4402949194,0.3940795204,0.3414133734,1.0881218572,-0.0122070823,0.1880893579,0.7447698284,5.7855343401,5.4881851325,-0.5589836226,0.6232699732,1.3457330655,-3.5359817865,0.0803461369,-1.0852631888,1.1124585919,-0.1160476533,1.1590035649,0.0213870059,1.7001144764,0.8040365358,5.604647278,1.8338767523,0.1766541821,1.8992216296,1.1497732397,4.0084172756,2.7524900793,-2.3085683509,-0.622578358,0.1363925193,2.9539869287,-0.7224737147,1.3050106635,-0.2462278256,-3.9340332841,2.8142065242,0.7929780067,1.7092150252,0.6043202013,2.9726803658,1.44265127,-0.6106483874,0.2356615376,-0.6098209027,2.7197051832,-0.1464121822,2.1184858783,-5.4454327575,-5.3026597187,1.4626802394,1.0379160409,2.6519502147,-0.1122821307,1.6218342076,291.7380432906,1.0039683045,1.2882877722,0.0823421737,2.5546591181,1.2481355507,1.2110145332,-0.2418781381,-4.8986866052,2.2315260409,0.12439983,0.5944137741,-7.5179150448,3.808627061,2.218662587,-2.6514927454,-24.0057117062,-2.7027790355,30.8900073235,-31.0288914103,27.7736735574,-24.2396248308,10.7691372496,38.3405571434,-24.0703538536,25.3120848256,-1693.0676860976,-18.1008645546,20.4859811954,-25.8727994792,0.383216933,-0.073792164,1.9545428248,-1.636213866,2.4768206625,-11.0840552665,-0.043572773,1.686138229,7.6788888834,2.4786907422,0.5724541346,24.3664946989,2.9972136065,0.2322994215,-0.7141578186,-0.4032186899,3.0474629905,-1.6743371036,1.8716566906,-0.5139222784,-773.8494649762,2.5468911772,-0.7803806763,2.4669899553,-0.6878955219,2.3019723307,3.8885175445,-3.1542540726,-0.7037410498,-0.5554078906,1.806147118,-0.0728637634,1.2691138563,-0.2291840454,17.4971964178,0.8305809006,-0.0586763209,1.1337637732,1.7211683362,1.0898915528,0.972624402,-2.1735959612,-4.0980122414,-3.834506506,5.6089457218,-3.0005629724,6.1182104673,-0.078820159,-19.2069626685,6.4519901225,-4.4751326841,5.9025283796,-3.5690885687,6.7024893099,-209.5367885755,-5.053777353,0.7148075384,1.0915654102,1.0371643582,1.1292309746,1.1826619157,-1.083444477,82.4005229108,1.6826701483,-0.8816332942,2.5541208972,-0.6073911481,1.3371436012,2.487152605,-1.9606913592,-0.9701034533,-0.4413406636,2.2442377483,-0.457884304,1.4268168185,-0.106837101,78.8879036471,1.7318949165,-0.8068991838,1.9588714928,-0.3217857848,2.8448175217,3.1512987154,0.4818863175,1.1257589948,0.8309465905,7.5042501716,-3.9901456286,0.1053756488,-818.3855212314,88.1028564469,2.1682398056,-6.008770309,9.4483839121,1.0726980964,13.8866790184,47.0978430742,-6.3402188913,1.1055030757,0.2796949709,2.1072080628,0.6954190635,1.1227409389,0.5665804745,-2.3119862835,1.795412024,0.0625939529,0.8989888922,0.4377672384,11.0086191856,2.221914534,0.1883209243,1.3227557701,0.6684323196,1.1101357974,1.0738965439,1.520101037,-0.3022618732,0.9302039489,2.1453341647,0.4714647173,1.8155156242,-0.6378336254,1.3149584553,0.6940420776,-0.1870914072,1.2753255491,-0.1744224769,2.436966413,0.2331371699,1.2436877777,-0.2656859343,10.8164568647,3.0040578791,0.7132413795,1.2246508768,0.5860710167,0.4134676071,2.1974457217,0.4264300648,0.313549506,1.0982094316,0.8983043024,0.1678411788,1.702894461,0.5522147499,-45.5210917333,2.6466548857,-0.3746690101,1.137584605,0.9088691135,2.0490601624,2.5048662464,-1.1950574296,0.7037740027,0.3174316554,0.6371043477,1.0522834264,1.8417373762,0.1085031843,1.4380655186,2.3341885349,-0.0855685796,0.7493855762,0.856842155,0.8200765264,1.7101742151,0.0793603754,-0.0347772401,1.435990496,3.4786015551,-0.2454762809,1.5227727768,-0.1260143908,-207.4226042035,1.3819847809,-0.1456937077,2.2432329748,-0.4287451275,1.166304266,0.2692422152,-1.3022618879,0.4439521078,-0.1738800599,1.6940850693,0.4612516185,2.104198202,0.0805613276,11.0858431145,1.1015076406,0.2811489787,2.0364111314,0.6654054515,5.5086521412,4.5671754643,0.9500914432,1.091393983,-0.3565166133,2.3810567532,1.2654537082,1.4215302051,0.1132207582,128.0265100876,1.2287238708,1.4129132101,2.4631091049,1.7920725242,1.2355333206,1.0221621187,-0.2759391881,0.209445317,-0.1701332439,1.7827448692,-0.8517698477,2.934189138,0.2638713754,20.0206831999,2.1854064869,-0.575699238,2.4172787832,-1.6214004491,9.7827624328,3.3134951051,-1.7600733082,-0.2980635071,0.4870282717,2.6239796623,1.164622924,2.1876030042,1.4003165969,61.7357209276,1.1053575176,0.6591463014,1.5742176496,1.069612582,4.1331607489,1.1123123737,-1.3526512509,0.624740012,0.4722096091,1.5885594023,0.908010336,1.8929765996,1.5504804244,-1.3265262574,1.1421375561,-4.4260868572,2.4179323795,0.3681069082,-1.0909780141,0.2960179112,1.0481670485,-1.566218131,-0.2992735396,3.5719908209,-1.4583913879,3.2075486655,0.3871453269,-96.7761885218,3.8649686673,-0.8715871273,2.3664112862,-0.0710292621,1.2583941467,-9.9323049667,-2.6215598589,0.8513923051,-0.866809707,3.1568160851,0.0656898662,3.0607023475,-0.6960913958,-312.7695370984,2.9076473615,-0.3843479217,3.1571652162,-0.9813978779,2.3588494315,1.9415124183,0.5422305108,-0.0745727881,1.2292133074,0.889004162,0.5819904189,2.5144437777,1.8914142414,-5.0156280433,0.3139021004,1.2644687801,1.3126775655,0.5805902241,1.9918381425,0.3000589714,-0.1975213009,0.8665203702,0.1399803366,1.2475505005,1.5520757801,0.493406456,-6.9743072507,0.2971059039,0.9380699788,1.2988219287,4.0417369441,1.1693981781,3.1646160168,2.2112138594,1.8939325967,-0.6174256723,0.2533672735,0.4835318307,-0.0155496338,1.5009502288,14.024358652,-2.4363877129,1.0055958791,1.5771598109,-0.2563119042,0.3456107576,4.0802204728,0.0576697858,-2.0191667427,0.8809485961,1.2232407841,1.7494707473,0.0158473427,2.337162321,0.2096008602,-32.1150880507,2.5187694691,0.4929287969,2.2341490486,-0.4758605243,3.2556057097,2.5879429172,-0.8470751026,0.3135397615,0.2014912136,1.3571763212,0.8233335642,1.51760183,0.7542591569,-30.5841658609,2.5852456054,1.5023663456,1.2861034022,0.9538989696,1.897532861,1.5757957897,0.3676394999,-0.0194183357,-0.2405773814,1.4204764335,-0.0298350437,2.4856228436,1.0958302727,-96.4313946064,2.3583419626,-0.3274997537,2.4005313361,1.1374103296,24.4922655237,1.1477631416,0.8141289388,0.5668417559,0.5448100015,2.2539652653,0.4613467172,1.369644908,0.4918908802,-8.3157290605,1.4714925183,-0.5008678278,0.6854228184,0.0630245284,1.3560962396,1.9760103485,-0.8402956384,-1.0466580879,-0.2640692348,3.9742082522,-0.8937954605,2.0363153365,-0.9117095622,196.1472809372,4.0192188448,-1.6112179104,3.0596975695,-1.9269344663,2.6363649964,3.9129096628,-0.7856228674,1.1385999567,0.9961451586,1.4327244833,0.2461445496,1.7168274316,-0.3018748495,-42.1917590406,0.3979372915,0.7046566776,1.1006313945,1.824582166,1.3991216145,3.0820592658,-1.9888586647,-0.9123898089,-2.038407896,4.0252324529,-0.4064048935,3.2829783527,-1.5566684468,-1.3729574789,2.6166891739,-1.2959411678,3.5323500153,-186.3763053457,2.6869442911,3.0672877857,-3.3441758102,-0.0490913144,-0.6525145605,1.3209693661,-0.8300574939,1.904797336,-0.5316291471,57.6604867518,2.1352293304,0.6224320001,1.5111653334,0.2558727343,17.0443221664,1.5239583879,-1.0853434026,0.0616997855,1.6553354821,3.8901046866,0.543762479,2.8310347419,5.3406502914,-20.0634529591,0.8807662269,1.1358692878,1.9835304889,0.2117383575,-20.0551024341,-8.0170821341,-2.0921851632,-2.7038235202,-2.3362340589,4.503356319,-1.8827078269,4.4045798673,-1.927296824,-1809.5414508241,4.7440670959,-1.8042485547,3.5866406807,-2.5822826433,3.6501087374,5.1227161579,-2.4986777801,-1.5672352056,-1.3937600133,3.1425254826,-1.9053381667,4.2061927213,-0.4467741537,-25.9365938646,3.2230364407,-0.7105529642,4.3628879243,-5.458276003,3.6040230292,3.8937168395,-0.6782175295,-0.0220551874,0.4399394077,0.5086034381,0.7255728195,1.1418075956,2.437977487,0.5259749339,0.7177089567,2.1759583754,0.9798682158,0.9033754858,1.8094357134,0.9583059607,-1.1504362839,1.3463893103,1.543988993,0.6680321433,0.435070983,0.2182551206,1.1526735956,104.7545465553,0.4300879772,1.1815213925,1.8635405271,-0.3398320473,-36.9753497477,1.0918137184,-0.206099533,0.8101887331,0.6997600566,1.4290092135,-0.0526900989,0.8203466789,0.3120171759,-4.2749021561,0.6140859869,0.2015194048,2.04016606,0.7608193077,2.6321690434,0.8759726816,0.3085704436,0.2907006094,1.4054887258,1.6653953777,0.9611612551,1.33144128,0.4549467583,-1.8327244945,2.0033373,0.9822643666,1.3660654808,1.1709067954,2.2543170017,1.3575218705,0.8229075458,0.0309178983,-0.240348994,3.5547771467,-0.4240913054,3.2362922127,-0.6183149905,-699.6878799052,1.8389760641,-0.8748366438,2.6835542805,0.6667738362,45.9204087089,4.1613607757,-0.0754182171,-4.0196107442,-3.8007340846,14.6138199875,-2.6738852035,4.9264048733,-421.3827575496,-86.2113237509,4.9464252382,-3.8912988395,15.759068451,-2.8499235067,4.6678227344,5604.3348697976,-5.8884275813,0.2950195183,-0.2243449243,5.8543342271,0.3507987576,1.9182318674,-0.4005839648,-19.9403132649,3.4745370648,-1.4225399388,1.6015881565,0.3794802055,1.1282534,1.4894166808,-2.4940077358,3.4251271235,1.5043255594,-1.5495325085,3.8074647147,-0.8424552782,2.7592279157,32.0656318833,-1.2320128078,1.9614197731,-1.7315767836,-7.4261002931,-7.1405228452,-0.1980668475,0.934773378,-0.3964553288,0.1715508261,1.1691293637,0.4713768236,2.023538597,3.2086939606,-8.9557540585,2.3900864537,0.9365901579,2.1960064737,1.1405463349,1.7008686938,1.5561876093,-2.5881336871,-3.4469853537,-3.7371432551,4.6304466031,-3.6366752125,6.5833956509,128.7359591478,7.0194330748,5.96782577,-4.5110886861,3.6999614898,-3.8637933912,-4.2457851888,-111.8947433945,-5.4790675459,0.2434160692,0.0067449967,1.2367517211,0.5995654165,-18.221657222,-1.3311066412,6.8266466745,1.9177284791,-0.1865329759,2.1252563691,918.1348646005,-68.9267605231,2044.0481719894,0.424663517,-0.4910080954,0.8099027449,1.4369153781,-0.8401572454,0.8556917656,10.3609631851,7.8274423021,1.2612549248,7.1741166715,1.5802211544,0.3301977014,4.3426688147,-0.3251127634,-0.6275795896,-0.2415238497,0.9011173255,-0.6104208446,1.3120849126,2.153431305,0.8340846071,-3.2603997995,1.10916696,0.0607085797,1.6655689052,-0.7905255996,4.1392880372,2.4073637158,-0.906499771,1.2870641701,0.3541036956,1.8826234652,-0.5120716443,1.2616599048,-0.1719175442,-4.5269413018,1.3685463974,0.3509320161,2.7616051135,4.2388591751,4.0807534071,1.0964449155,-1.3574414834,-0.089859211,0.9842526118,0.8276694132,1.5521404026,1.686066389,0.8299287036,-9.9625469332,1.7331948928,0.9949201423,1.3884665184,5.0156697239,2.0113767238,1.3906344031,-1.7923481633,-0.3910417496,-0.2210138115,3.347447894,-0.0857705164,-1.9477866477,-1.1505188615,-69.5290843999,-0.5288773478,-1.7176676249,2.0208542518,42.7285335973,1.9119805841,2.9031626793,-1.1589199583,-0.0899136039,0.6924031739,0.3399984964,-0.3178605428,1.1363554268,2.595536897,1.5433974631,2.300612688,1.6095663816,2.0170218543,0.9083047428,3.3954540035,1.8451729059,1.0017950874,-0.0890463578,0.1251350428,1.2782204348,1.2250882053,2.4257596769,1.2641505728,24.974164363,1.6879008074,-0.0822530975,0.396262099,1.2802072481,1.1166840394,2.0468436492,-1.6514086804,-0.0658017621,1.064842344,2.8458902235,-0.77731605,1.3517276928,-2.0375017654,-318.9861069501,1.1134612835,-0.7927747469,1.5747449278,-0.7149178031,1.381791824,1.7551038629,0.0136720919,-0.3708255712,-0.7673379116,3.4741890417,-0.5404595812,3.0698159438,-0.8156013841,-52.5051869553,2.6204034642,2.1553526684,1.7899396302,-0.3400096581,-1.0783782028,-48.8328484446,-0.6452074478,0.1960534863,0.3276452597,0.802797921,0.9308423435,2.0305279844,0.0976858796,15.6457550304,0.7356980798,0.5301841991,1.5987947602,0.5644397538,2.3847546675,0.7339110152,-0.8448257385,1.2253304348,0.7718012593,-0.599565901,1.7660203538,-1.1306003961,0.672444993,49.4427326954,1.5221209073,0.4572518958,1.039315982,2.0651299988,-505.3896998804,1.3459475378,-1.2033561744,-0.4517938806,1.0063593269,1.3860806566,-0.3450422583,0.899544889,0.1791481514,-0.8720458208,1.0792929059,2.401947164,2.4709017769,0.4442834946,2.3207249437,1.2166864165,0.6522670697,0.4618214891,0.7554716158,1.4706354381,-0.8600619814,3.2427909306,-1.0967316419,324.7527821726,1.8055291192,-0.1586394381,2.4889762125,-146.6915066796,36.2167670286,2.8539998135,-3.1379153157,0.3078878407,-0.8250046977,1.452594211,-0.3812453099,2.571614512,-0.5572894011,71.2090996823,2.3955879291,-0.6041576657,1.4152078933,0.4576779324,3.0451747972,3.2971722545,-0.1310004398,1.2182285917,0.2631355478,1.0188859225,0.2163787792,1.2717111878,-1.4967213788,-12.1469339908,1.9583639971,-0.0387359019,2.3013688092,0.8479722566,1.9923484616,2.2865907942,-2.6143013586,1.101416209,-0.211534874,0.5242815864,-0.382716568,2.3109461973,1.0415481379,-1.8112272569,2.2123304901,0.8545306125,1.8257841225,-1.0358780176,1.0264650431,1.6147294353,-1.6108605119,0.8212003829,1.4733813654,1.505821097,0.841353142,1.7175769175,0.0150905294,-7.4623793264,2.4679199956,-0.2757648042,1.8217871009,0.9529032039,10.9736060268,1.8728310911,-1.4246003643,2.0999094612,1.501638822,-33.7735600267,0.1907023769,1.3839028514,307.9981406187,8.0761960184,-1.3241562151,47.9741134109,-282.2708606392,0.3999166759,1.0228057718,-60.4628511697,5.6492082662,0.7455934758,-0.2462175008,1.6418629696,-0.0778653894,3.3587831305,-0.0907286213,-215.0116237467,2.887710935,-0.531113521,2.139744701,-0.3615272421,3.1803032354,2.6304123078,-2.4069094663,-0.0700399433,-0.7221302207,1.1933948676,-1.0249535823,2.0789873745,-2.2950729451,-303.2305226361,1.44405517,-0.1860721851,2.8788265911,-1.1267738815,4.5793622141,1.1687807457,-1.6925367854,-0.0647781077,-0.1859499002,1.4398112707,1.1083439859,1.1348213874,0.5190380712,30.6655514281,1.9786188657,-1.003217471,2.24234207,0.8446414849,0.9113774679,-1.868543439,-1.0573221806,0.9397989013,-0.2084996115,1.0565666217,1.4702952582,0.7130493117,-0.3131520943,-11.0895322659,1.2872078537,0.3008631857,1.7863414485,-15.3912428141,2.323990641,2.188964162,-0.3385926249
##end
biasActivation=0,1,1
[BASIC:ACTIVATION]
"org.encog.engine.network.activation.ActivationSigmoid"
"org.encog.engine.network.activation.ActivationSigmoid"
"org.encog.engine.network.activation.ActivationTANH"
