encog,BasicNetwork,java,3.2.0,1,1429552685779
[BASIC]
[BASIC:PARAMS]
[BASIC:NETWORK]
beginTraining=0
connectionLimit=0
contextTargetOffset=0,0,0
contextTargetSize=0,0,0
endTraining=2
hasContext=f
inputCount=13
layerCounts=31,14,14
layerFeedCounts=31,13,13
layerContextCount=0,0,0
layerIndex=0,31,45
output=0,0.0012072262,0,0.0192264221,0,0.0921312297,0.0096395677,0.0728685029,0,0.0283156931,0.0299439923,0.0242102852,0.0308928538,0,0.0772166972,0.0260250376,0.0339981723,0,0,0.0738216049,0.0755505213,0,0.0218901606,0,0.0485908516,0,0.0140512836,0,0.0824942938,0.0502886532,0.0760283197,1,1,0.2430468838,0.2627841483,0.1981951224,0.0018098341,0.9999998499,0,0.6734305744,0.0945387603,0.9175607659,0.9899958502,0.9999999152,1,16.0554582586,4.5009250969,-5.1397757292,2.8587261149,-2.2918474114,0.6921720121,-0.055551516,-1.3829962405,1.0520797272,-1.4524249988,0.3553430247,-0.3747530271,-0.6205763011,1
outputCount=31
weightIndex=0,434,616
weights=-7846.1069974209,-451.794692867,-6.2550184323,-5.143077992,-58.0053182634,-7.4682415324,-0.5681336162,-80.2674891835,-0.4781955374,17.6392900082,5.8925956619,-0.6322126873,1.7658448424,-0.3655405617,8.936028344,2.9447983513,4.9786218778,-20.1538315291,20.3010202846,8.3375506861,-3.1382150118,-5616.2778980029,0.5117404842,14.0717688908,-0.736133192,-2.2092204791,-11.2743594542,-2.9514426684,-7697.6116429658,-1051.8241641085,0.274905275,19.118216601,27.3502678297,-3.310350428,-0.5391669921,-6944.2514715573,-3.9880986154,0.9105766167,-2.0921335263,-1.3508272398,-2.3951256892,-1.2872481624,8.7687176923,-0.2573027162,-54.0708748501,-0.4096698671,-10.5021745049,8.892579337,-0.4241715695,-18.0928997406,-1.1771546702,1.0007955342,-0.9678753619,-0.7312426908,6.3311087448,-0.7254801046,-0.6485243261,-0.4359175801,14.6515152799,12.9292474082,-2.3126555143,0.4193904316,-0.6747415594,-2342.441413164,-0.9772935639,5.8202539939,-10.6658854801,-0.9991434357,-137.1500445035,-0.1612660469,-18.4361085078,18.6522147645,0.1522346263,2.324602317,-4.8210229704,-281.3429596125,0.4613149517,-31.8255899547,-0.294648265,-13.4134368662,0.0426703971,0.6332404841,1.3217418202,-2.6697734814,11.8210892775,-4.9914670415,-21.1420124475,-0.2665690295,-34.2938776219,4.2077904697,-1.2380069527,-19.0307045672,-0.0119501442,-1.1339977319,-0.0050893674,0.5122761902,3.4662110866,-2.0794318861,-1.627226915,-0.9590483637,0.0362194756,2.4087591079,-9.2336972685,-89.109609273,0.1919070745,-276.1069903594,-0.3894170568,-0.2860318664,0.0444922126,1.4764176492,1.6333218778,-1.6460170016,-114.9713659333,-62.0043648186,4.0653904169,6.485046578,133.8860480996,-5.4198236374,-1.1920817394,5.7135359977,-1.901466699,6.6568843608,-3.5221858839,-0.4440243586,-17.2993108085,-0.3824756165,4.4621607045,-2.0807073359,-1.7208276813,-5.1800691475,-0.714265686,-2971.4796293033,-1.6323046216,-41.5447784625,-1.3725577063,-26.6468960085,0.1619067639,0.0778283498,6.6002889773,-0.3682434038,1.9823067747,7.7687990818,-39.6053085445,-9.4355139118,2.5393057118,4.700974263,0.6817132167,-55.7358619508,0.2711150502,5.6626682931,1.9768888813,-0.9022779781,-1.7986760261,-2.1570868993,28.0519029398,-23.6130364884,-19.6617887572,-2.427629873,-12.5566448146,2.721794926,-0.0993308461,-27.3750628263,-0.3188844306,5.9395472329,0.7471421223,-0.7910926215,2.0791042704,-2.4638311689,24.2586224169,-20.5433126799,-0.3381467483,-14.513016366,-7.421904227,3.9089174724,-1.184746417,-33.7502927989,0.2675432227,-1.1179525413,-0.0217032888,-1.0345806104,0.5242272181,-0.1710914188,-7144.5190705758,-1405.2960801162,0.7354342109,8.461178401,-35.2872761971,-9.4080880385,-0.4972142386,-5.3742818884,-1.9603590593,30.2443997436,-1.18906849,-0.2007031179,1.0772266253,-1.7592821986,-2.7494930735,3.4823658365,-0.2805300994,6.9940491872,-1.6162364629,-11.8017346248,-0.3325336369,-159.425419675,0.7005763029,-9.3144173908,-1.3418192805,-0.7144974309,-2.635815692,0.6739778424,0.5018228441,-0.8695987259,0.4052249825,-8.412271728,-27.8075057296,-8.4751959834,-0.5981814269,-7833.696662798,0.5032133869,-3.1251141399,6.4787123306,0.303334975,0.9513208172,-2.2572637747,26.838011196,-21.6224442344,-1.0593618903,-6.3023577314,-7.2760602201,6.8941748391,0.0198824045,-10314.8893503713,1.1976546138,-30.0432629432,1.7609562849,-0.4406887473,-2.6810899313,-1.7037706497,-1.1688467257,0.1036715608,-0.3552386746,3.8261589273,-203.6137841517,2.5688081427,-1.5019256696,-31.7794686239,-1.3814346814,38.1999896727,-12.7753825397,-0.6588637864,-14498.4073037782,-0.1456817508,0.0065971815,0.9292032005,-1.1044905886,4.0013131942,254.9453406016,0.5317596015,-1.6626928078,10.878050162,-1.3469933886,-4.2800353384,-2.8111283949,-0.8220051825,-3255.2735896064,-2.8004521773,-1.0214687637,-0.2531943486,-0.0423589199,1.217917554,-1.9239340152,-38.1699439461,-0.7374695374,-5666.4301455968,3.407415753,-6.4840383056,0.2790199854,-0.4865967211,-1.511439191,-0.321156462,2.5790833611,-3.5392275785,-0.3476055403,-0.4703911261,-5.6463659201,-40.2847239452,0.2221080114,-3736.1845161682,0.5933218288,-2.7573543233,0.1354810328,1.3002121817,-1.9873718451,0.0706968153,-2802.5401922962,-516.5240675258,-1.4351409131,-15.0667503633,29.3753313423,-1.2903657116,-0.7828721836,-24.0793368482,4.3354663022,-5.6205933449,3.3511141077,-0.7400704467,-2.2686463479,-0.5335918983,10.814101532,-6.1335687334,-0.6318603058,-8.8390590074,-15.0351510387,5.3293087423,-0.8468103278,-5349.4716938779,-0.0941639556,-12.5205806912,1.0210989074,-1.117199259,-0.3374763515,-0.4330508477,-298.8055203877,-197.4156518675,1.6095402643,15.098351214,431.1419797369,-18.508769075,-1.0957171298,-13144.3066225155,-1.3510269975,-1.0457225311,-2.0591767422,-0.346139846,-48.9755640732,-1.2793339651,10.7034892605,-4.4368130897,-2.2698009607,-1.9813858683,12.0072604736,15.4599935511,-0.3186820483,-11976.5613844322,-0.8856291773,-61.6401323772,-0.9068962116,-0.0210477405,-1.3791619194,-1.6019958013,0.1984758334,-0.2734813885,27.8870161513,17.41962194,-133.3117399127,1.0560446657,-1.1248392985,-6568.3606032984,-0.9442162075,8.2464017971,-10.0884052232,-0.2024114488,-12265.5114073219,-1.305537139,25.7688337847,-20.1507555082,-70.3624628736,-0.973290542,4.5067364653,-0.2557977125,-0.9223100754,-1598.5136588776,3.7740893596,43.7674989489,-1.0431946804,-0.6974092215,2.7713109931,-0.2852627649,-6693.8601085063,-1203.2086463132,-4.8185089231,-4.1605947251,-128.9014380102,0.1466797757,0.7524499421,-4.0962798234,-0.0447347441,-25.5073053493,6.8557730536,1.081237159,7.1623823483,-1.4817432603,-0.443922081,3.8073604477,-0.3086437487,-12.7616141064,0.703083457,-724.3839052105,-0.7379942833,51.4158431904,0.4641800107,-41.0552359486,0.5507567697,-0.456928559,5.0503530898,-1.9687720816,-796.713987635,792.0817898929,-1.4626886105,-1.927523784,23.3467688193,9.1596359452,0.0042352734,-13549.1586556022,4.3354157519,-67.3860645241,1.9292475401,-0.5067597091,1.8502135762,-1.75991634,-3.4134165726,3.55415923,-0.5762475677,-0.0980263073,-8.704118065,-70.332777784,-0.3957941217,3.7026078482,-0.92962861,-1.7756657842,0.7798505679,0.7033089271,0.7276378903,-1.5698662396,-0.6307682242,-0.0949353971,2.3618141402,0.4875458733,1.5172596568,0.7779098372,-2426.0890088888,2.0587805921,0.65218187,1.9711072902,-0.8006981384,0.9648459095,1.0942931015,-0.3502987551,-0.7335025067,-0.2175670825,2.9287278073,0.0757644733,1.9121612564,-30.4828063307,-4960.6264724652,2.6106688591,-2.0015770958,5.4333516221,-2.2575775626,2.2523863481,23.0422902768,-2.0301391066,0.5268018787,0.658374971,1.857503117,0.9267509276,1.839583145,0.5920800019,-2.1012756685,1.2903348981,0.8137737179,1.144979136,0.4686645652,-1.8360198379,1.3894009921,0.6289354664,0.9965402319,-0.4099997703,1.5761604737,0.8103022092,0.5107467998,-0.1196540879,-0.3469401123,1.6164649458,-0.3343478394,1.4540668203,-0.1540990196,1.1416482244,1.8750838213,-1.8218231999,0.6000218791,0.6187872186,1.6163487371,0.539537952,1.4725068534,0.1139866572,-14.0125085566,1.4776759176,-0.0936828362,0.3431903105,0.5194128742,0.3110781381,1.6728062151,-0.922877235,-0.0568741628,0.7783729462,0.2814416795,0.1921049016,1.168533717,1.0536943273,62.934985422,1.0352663425,-0.1477099318,0.8505201977,1.3630010088,1.7695029578,1.4909247387,1.3658178398,1.457256243,0.5740299889,1.2169029134,-0.1203661555,0.5196285577,0.2095228454,0.7034340674,0.4512992883,0.393049162,0.3608197172,0.6916693822,1.1046661022,1.3337604708,-0.8543138147,-0.4410228888,-0.4680940999,1.0346041491,0.681368699,0.5410250055,-0.684067308,74.6294273395,1.105932476,-0.402671197,1.2877195042,-0.1902920811,-1.3323149172,5.4118480241,-0.3370460537,0.8541209553,0.3638937196,0.7761071571,-0.6269430104,1.5688187304,1.5702312445,-0.3470110178,1.3704656142,0.2694810984,1.9547017288,0.6249585819,1.6120963092,0.310838024,-1.3309453929,0.8871152841,0.7412574945,1.2629802957,-0.2382295418,1.8025011723,-0.6048250362,5.9987962598,0.7615548732,0.459448509,2.1940603896,-0.0617438399,1.3554365469,2.0770115558,-2.2080125528,0.6108037445,-0.0070222095,0.6142582893,-0.1478019023,1.5239752343,1.4220456684,-1.1726540632,1.6162698679,0.684881796,0.8154755904,0.1855130179,1.38066216,-1.8829585355,0.6396096899,0.7207795202,1.0406353479,0.950802254,0.4604661624,1.5427988487,1.0329323575,-0.9370109306,1.8338528467,-0.4802491897,0.625946997,-0.5896400591,1.6236404531,0.8222737093,-0.0432771521,-0.3962044441,1.1293428253,1.9911869367,-0.1230200806,0.7062276443,4.8062123949,-121.0997515236,1.2047800018,4.0709689982,0.2923897546,-0.1121822349,2.1830702042,-29.2967614079,0.1968806558
biasActivation=0,1,1
[BASIC:ACTIVATION]
"org.encog.engine.network.activation.ActivationSigmoid"
"org.encog.engine.network.activation.ActivationSigmoid"
"org.encog.engine.network.activation.ActivationTANH"
