encog,BasicNetwork,java,3.2.0,1,1431854072276
[BASIC]
[BASIC:PARAMS]
[BASIC:NETWORK]
beginTraining=0
connectionLimit=0
contextTargetOffset=0,0,0
contextTargetSize=0,0,0
endTraining=2
hasContext=f
inputCount=13
layerCounts=31,105,14
layerFeedCounts=31,104,13
layerContextCount=0,0,0
layerIndex=0,31,136
output=0,0,0,0,0,0,0.0351229794,0.0000301113,0,0.0000000001,0,0,0,0,0.003273391,0.0044429506,0.2517841023,0,0,0,0,0,0,0,0,0,0,0,0,0,0.0150172452,0.0003899678,1,1,0.0012306644,0.9708564448,0.0364503577,0.1196468429,0.00002828,0.0000026082,1,0,0,0.8875582815,0.5934726131,1,0.0007953317,0.0639405657,0.0027437738,0,0.9999999997,0.629488999,0.0006181579,0.0005024148,0,0.9889925527,0.4636227677,0,0.000112061,0.1918214332,0.002055351,0,0.0022342614,1,0,0.9999978054,0,0.0765244128,0.0286559774,0.0350059826,0,0.0001448974,0.030303337,0.0296838494,0.998835642,1,0,0.0000553258,0.0000688998,0.0369922084,0.0652278165,0.0000598947,0.0370026089,0.104983026,0,0.0000002653,0.4470387698,1,0,0,0.9988384246,0,0.4259611552,0.5481767106,0,0.0020685244,0,0.0014315921,0.9895247418,0,0.0001305831,0.9999988857,0.0010215133,0,0.0889084544,0.0001421184,0.0000001359,0.9748904185,0.000815372,0.0000127186,0,0,0.0093039468,1,0.948379963,0.0000000135,0.0000152309,0.0000037627,0.0027663837,0,0,0,0.2224130888,0.0000000001,0.0000078773,0.9489099188,0.1667047451,0.000656627,0.0000184842,0.0477547174,1,0.0008787058,0,0.2654065518,0.0000040439,1,16.0265977005,4.4942568426,-5.1413820426,2.8512953422,-2.2778816368,0.7002045598,-0.0609554941,-1.3833430533,1.0551084855,-1.4554502091,0.3472206836,-0.3696066704,-0.6185762263,1
outputCount=31
weightIndex=0,3255,4711
weights=##0
##double#4711
   -189758.5835369852,0.6350159032,-2.3302226106,73880.7960078266,0.0084658948,85.6453797478,-8.3372796991,-2189.8790066446,10574.4616174986,0.1525712752,-2.1022585652,3.9392578972,-15.1408921774,-1176705.6149570267,-42.8673947583,-170142.5364135273,2.3537850963,13.684585218,-1.7242713175,0.1253589569,-8.7659353764,-175698.9727234403,-56212.9429073753,0.801115262,-1.7386784171,73.5551679805,0.3078296007,-5233.3184992841,-1.2913197643,-62633.657548911,-5120.6342757619,-7.0303934551,15.0950224796,-0.8389070544,-0.1797287896,-11084.7097536609,5843.6271969256,-0.1544019045,1795.5893378165,-1673.0692056368,-3.6764681398,-16.4265826562,-2.5213543267,44.1300022424,13.6432886323,-2.0710061153,-482574.4283448781,-122357.0027124676,-68.1510294102,0.6266647091,-410.1585952147,-12.8405580942,-5265.9535707744,9944.2745156289,25064.0774578522,33.2406927406,-0.3448625268,-2.2691196108,-2.4820942562,0.6246366221,0.1393055167,3.9545037023,-23.3540514497,0.4315011179,117202.3382069369,-4776.2763046527,-697374.3728868597,-29.1203727057,0.5684385295,-330247.732374782,13.2047182335,-14296.187348068,-1.5232597406,73.0309293933,-1140595.0324496208,-104038.1585379265,0.1173448548,495.0880135422,-101.0048807816,0.0544373357,-144.4141732317,5290.9160035476,0.8175539102,3.4770425059,4342.8028318558,-365.2889410278,-2806.1040301767,-6425.9783664378,-626537.2401106352,-1.5082582856,-44211.9576386791,-0.5954628816,-1224.1686123846,682.7673507044,26.1541350792,0.4723534884,0.2358481698,-1250.267340139,105.8495627689,5.471179461,-17894.0906192947,-1.8275982174,-35.2909701308,-47436.087766959,-1.8211717292,44427.1410930695,-38.4098912863,-1621.2548646249,-65507.332114312,-2.0399733848,22903.2607794245,7373.9257812139,-1447.5130681965,-72541.0717878467,-3.0948884004,2.3580240945,-1636.3858494285,70.2641197789,-15602.1541609422,-413.9841820663,70246.6722628682,1411.2750268278,2641.6824941001,-3.1054373306,-16.8766531813,-584.2913770356,18600.2131652251,-58158.397803624,-17.6127615316,-2.9309682022,519.3903390586,-17.778142425,-1.080650101,-245.5760684596,-274008.5987061667,225.8494289789,-10554.9542669402,93.2946597707,2.6877864125,-26.1901731423,281.1196226128,11138.4641933694,102.4380872726,10144.6148249891,7329.5490121541,16.4035095432,-26970.4310438417,-352.0048815249,755.2109497913,-189.4637605319,569.3994252657,46893.1118668956,67892.6840866184,-2266.9959668098,9823.8232397819,12678.9243343516,203.5805269285,12503.9585416863,-3206.8972632336,4097.2295001715,10.5756869984,-16.6851852613,0.5791768196,-2.6302982259,550.3961314632,-0.2814369209,337.3697120963,970.7487189586,0.4920825075,23768.4064793353,-2075.4580368218,12613.2055800265,-727.3143578599,-6.7081600591,-112811.1491315781,-1001.3489674888,-220767.7035263812,-1224.0601503913,-255.4711007327,20150.3929913246,29.7862659782,1777.0634126893,14392.5859048989,866.2176704704,-0.1740524731,-497.2953214265,21335.8551209309,-16.7232679096,52.5972578732,-236970.1794204193,-11581.63804113,-4105.3383905166,18446.2767483895,-3573.3729647058,-41474.6349089837,-140398.7064807605,0.0536748497,-779.2153412278,-63595.9683083832,-797.6233614375,11504.1028252918,1.0041013463,46531.4230030343,-10.2049382926,-1551.6867115545,17158.442998979,-0.7638020362,-121.1388643849,-4634.0382979378,-17.3972807548,-1238.0579297084,-7.1539074217,-254239.7008761762,-1025.7418101335,-7.184503689,9715.6828185583,3543.711379048,12485.4195454218,-74001.5445063127,-7.6457369578,-1.7064154422,14401.6286525124,8063.2800102817,-462.1315969841,111491.2094809065,12557.3686035646,158.4248630174,427.4864511468,-1.6806695763,-7.2490959086,-895.2748622204,-63.4331237821,-1048.1583927675,-7.0191127149,-2.2743952246,190.4427524882,-7.9747536572,-49.9455644737,-8.000627497,-177333.7046280132,45.7276835642,-141.1683830213,-14601.4914749625,-8.3299555019,1.8791732385,-959.0435336654,-0.2418418303,-1.3460667198,-4864.800123146,-2.237523251,-1315.4316854511,-18.1439120546,-33.6033135411,4823.8331494062,-16373.4986460964,-0.7719187101,55928.6133365839,-397.7459253553,-275.0533762111,6915.0960341797,-67.0038806895,-739.3649190374,-132.9338733442,-6052.2899887271,33367.4289134895,80.8739181297,-7.2282032371,118.6114467176,1.9552103119,-6.8379945291,0.1415059817,-8.0184974061,6772.6321385892,0.3934877093,-1.0390555733,-31.7571095846,1038.7822419566,7.4528430618,-1.6809879587,-190068.2475853373,10049.2447311208,-129209.316678373,-6.5293641959,-54.8884647395,-35445.2593982161,5617.6869093966,-3.8939057177,73910.2077461885,-5226.6391777973,-0.43325808,93.4523821625,-67895.2120841407,-6.6571016771,-1497.183995739,-63456.2309649453,-103.6976598621,180.0108310436,-52.8609912808,-1867.7993188363,-7.4679002477,57606.9670834345,490.8631177064,514.2551200754,-41619.0154111092,-79651.8635696518,-5.6789692618,-22.9415951251,-30.2892880716,-4.6031461092,163526.8331942563,-223.8855145243,-2.3213083333,202.9513855081,-170.154101448,-9.5055810264,-51.7365522137,8.1598940882,11.331764671,14890.0977149673,1.1898368762,-11014.8546403427,-0.694672729,6109.6561939696,12927.5802621265,-0.5593757235,-0.8731664684,12.3493178346,26.270739963,619.2304009413,7.2037664365,-53477.0803702508,-0.035635724,5.8799110315,-4.1049529766,-0.2076359409,9.2837824174,145.6470289101,-83469.5302544121,0.5352496744,-3.71571019,12.3592397335,0.0827473324,69.3485165505,-0.227296918,-98894.4676227958,-181538.8936938674,-4.2144149502,-0.8090728838,-0.7599969121,-0.1308074759,1187.1430274977,-2644.5734805663,-0.0175881737,-1158.1837456844,-1.7564699854,21.4914136988,1.8516708544,4.4915737239,-40.1337260544,6.1893194763,0.4844208489,-423.6676789639,-32002.9140345713,-3.7270660937,-49.1789275309,-1089.7760177316,6.4167414688,1262.4367882899,-216854.7528804279,4284.1588797055,0.7874921371,-0.3281703303,2.4753953783,-2.013825495,-0.5435476448,-0.2231233028,77.2807218314,-24.2905421205,-0.411609751,-1177.6094517871,-1809.7986007608,-3977.4109678104,-1.735561789,-0.388005673,-375428.5734034227,25.6938203656,-2803.3813841141,2.8340005389,-19.1902175626,-87183.8556646727,94026.4532763197,1.2705514846,0.948452946,1753.9604928948,-2.9973404859,151.7346404483,-365.4714332216,-0.3940107352,4.6641500469,10542.4598378183,18.0542792402,2849.4041260733,2167.828810573,-78034.1591044674,-11436.5789805388,-133120.4893699934,0.1922467415,-375.3182146732,378.1143923624,36.0075077662,2.95348106,-0.0801625442,-902.6250089772,0.6256812255,6.4880469898,22851.4833523949,-1.9756717369,-0.7592781457,140632.2431136053,-0.4872000882,-1.6342764204,1.2439682722,30214.1508763745,-7.2813314304,0.1375230808,-0.5806626907,397.9436038458,5799.4353073295,247334.897852862,-0.5428505433,-1.0910405849,39634.6104158786,-6121.4059366336,1.4732913184,-2533.3388507524,-0.4289866059,75.7134064489,1.4206813486,-0.7143780173,-0.4315782668,-2.0785980792,-33.5641513742,-267.2260733912,-0.880608313,1.692574632,-168.1061250811,0.3674883644,-105.3929235574,-1.8540031804,1854.3647811325,1596.9091955019,-1906.3261433868,-0.373140563,-4.9852993408,12.3987158608,6811.1900972411,-0.6396892677,-1.5986511817,-5671.1993754143,-0.1928220505,-1161.7435885981,0.7463695538,-1.8960985208,3503.8324364655,790.0045827047,-0.2758703224,-5.2541229035,-34.177571744,-0.6739372853,12.1906891701,268.7478291246,-1425.3450343623,0.9614957571,-271.3972112136,-19007.8708462699,6.9550517608,0.0224294561,-23.0715934096,1.6142416571,0.4198169983,0.0686317541,-0.5720439383,-3647.4398845437,-0.2339583118,1.5214043876,185036.690996758,-80.2996548698,2.9142011337,-0.0176978133,-12540.1198662953,-21738.3377868685,170483.183670671,0.4988862274,-0.141065441,1378.9651921646,-34534.079015056,-0.4841145056,-3348.4250870322,6537.7503666807,-0.4322720395,74.2341145297,21456.7511382678,54.0476374097,-757.841517302,-80061.6349010903,92.578284638,49057.0340356641,-11.0763296543,-40097.7941230743,-0.3873627449,-3051.261030439,20.2298700607,828.3875737027,1416.6593247722,-274372.0202740172,-45.1458074205,-0.3835116394,-1.0164025371,-10.1403798885,-2.8560569047,-0.0548257162,1.5992706446,4.2773016991,-14323.5565516744,0.4660549652,-5211.9269731099,-45.5917203029,-39.713213637,1991.4332953152,1.6785144189,-24411.9932806893,-16.5124144402,-1230.8005571921,40674.7505852622,1.6457740041,-2.8056588027,1402.971380321,9.8230332586,14093.3917282671,46.4418151371,-84369.7844864782,1.4063612427,66.3611943782,-2.6429999457,1.0213360481,8.0527201838,18348.6478337203,1929.8315343705,-103.6640934579,2.6950413717,-672.5663560676,-69.8782778174,-2171.5026818465,-0.4662277346,-125600.4404820059,7319.4393700001,-151.7660931885,34.0295773241,-2.5966457892,8.3155056046,2799.1733770067,-42481.8278436505,0.5894335773,5108.2585690778,12223.4603632453,1.0965541506,-3621.6254141103,-44.0051850881,5.4466712128,-62.7061023206,-36.5623201199,-206671.5599681822,-6453.6234251995,-489.4126912581,-44.041032073,284.2551616141,-20.0024473955,-56368.9688601959,4.384690461,140009.3183967369,-46.2182068608,0.8075184721,-71.1116753933,2.7089771849,0.8575664376,-0.1525787756,-872.9559597059,0.0831073686,-0.1951777852,-1171.2814521123,504.5194380993,7900.3979776911,-8.3513516185,0.7120360864,-305813.8711929865,13.200236469,28999.6259885045,332.9504668625,1202.1219848853,121340.3329117511,-1651.3080166609,3.7599639512,1648.8075988577,-534.8979725447,0.2939851577,100.1217290609,-856.0587894767,3.884187379,2.6207948813,29770.0324838548,-34.4168341859,-44779.8752630248,24051.932656493,-7669.5936875861,-314555.4461134782,-37919.4189117667,0.5869303986,242.315511317,-1629.8887320496,1888.4578417993,-260.763470753,-170.0027079837,25730.1452673232,-1.0377697587,-36.3759737237,17321.8374876179,-1.2381025842,-63.9330116774,-0.6249855131,-0.5247912737,23019.9544459011,-21.1615774368,-0.0206157155,33407.5805281294,-0.1228045111,921.3963992503,5.9365610985,466.3655156745,-388330.071284284,0.4306236961,-1.2713691101,3.3834533838,0.3517247862,108.6017767619,1.1555733677,322.7824919246,-2.0514140491,65.1332234573,-3.6669104898,0.4411833723,-31.0327126838,-469.2271584906,-29603.8267425897,-2.971458254,0.1638490444,115.0023560399,-0.4109414599,128.4829674725,-81.0756969107,-103685.3241748667,-102098.6917669721,2337.1025294239,-3.3537839217,1.0819874685,1.0360425131,-131332.5656473204,836.332424276,1.5023403357,994.0736330926,46.6722262988,-3.7234106782,176.1581848508,1.1438010088,0.0778468909,-0.5513023412,-1.4616325332,13130.4959973835,18412.1094415328,84.6297134156,14.1740589215,15759.2880632652,235.123970584,122.5291516536,-76591.7926891499,39509.4029952142,-18.3946391849,-0.4874240517,6.4855821481,-1.3304921559,-0.5117837869,0.7082226705,-4.2638678847,0.230970673,0.5444712037,17350.8624876253,-3654.5406535806,-39341.9304027268,-1.3305574082,0.0682423805,-235916.5851470128,-0.0934205273,14448.2473283504,0.4474455345,7.8524700925,-75544.3618136343,84693.1338810327,0.6897034524,-144.9400188284,-188.6842400028,0.8215918039,382.148166798,-1177.695973061,0.1919494168,0.1723267037,23743.4586513411,-1052.025774451,14069.8009333913,1203.1291340591,-693393.970766056,207.6221310182,-139448.0512563943,-4.5678900764,-838.588337927,2111.4699127515,4.8413661939,39.2219562035,3.5808605002,-627082.9477193987,1.8123221048,0.1796966141,9829.2978941521,-3.758785391,1.6034581195,-1232.368996096,-0.197285406,-138053.6417574126,1.1728525124,89.6174638216,-36574.3319186981,-0.5091865454,-23194.1563855191,208.7470044141,14.0762609278,-181651.7947411276,-0.8064150024,-2.2803498341,1.4837305018,-0.4057742208,3741.8484443887,-0.6759212703,-78092.8454428032,1.2523594325,-12885.0091685526,1.4497889355,-0.6801401602,-24.6313085239,-296.1010768902,229.8672572047,-0.0439479237,-1.49263764,231.3443974731,0.4804113986,193.9274934442,-3.3632969562,-5188.3462405144,-8.0277540849,1190.9956827141,-0.3818114152,-1.1203081699,-0.1359202854,-0.9509041407,395.7049389868,-5.9392936327,21.6955715486,-2.7650061876,0.2268155572,483.605771871,-42.2264656827,0.2188331744,-0.7416970543,-29.4004493018,25794.3163720341,-25748.0632278243,-51.1579988278,-192.4539701679,-68621.4180337011,-234.8963273278,-7265.2728732912,14049.1203867103,-62232.5839443272,-89.5203593236,-0.3500983757,0.5862774761,2.8314407988,-0.4720116449,-0.8065679624,274.3660595187,0.1113050856,-0.0358335939,8279.5021124826,-35.1253664008,-4228.6609507955,-18.42547102,0.170760436,172936.380616405,-0.6993118001,-20765.297838217,24.0787112355,-88.0818109742,-5282.0912850435,2897.5121132261,-11.4253844651,1572.046590238,-31552.1998264899,2.0416789267,-335.4829072406,-61.2304825157,0.0981433745,-0.512749321,-234723.8556564687,43790.1537609726,9658.6857610428,7529.123183259,-218.9324375759,992.2331667773,-998.5046805458,-1.4533291317,-242.9829690209,-494890.4869584757,-761.9597804362,-2.2101883203,-1022.3762864989,-522870.6141108832,33.2576912957,0.1894312799,-2055.3950190307,-1.981220704,122.1996401932,169.9564079334,-1.9559436666,-58350.1028282757,-1.1224635393,-287333.6123170143,-1.455766306,0.5037657308,0.0247538144,8098.4037298263,6328.1936871331,103548.4231522999,0.5345814874,1.6610839114,-74159.8835669147,-462.7602316257,0.8957849456,-190943.9054977106,449.1660106913,-11.1106641824,-5.6606552739,-0.7540702054,0.4149129547,-1274.0031482901,-24.0457750325,-647.7569639528,1.2236229778,1.8171382623,-149.0031592941,0.9180477914,-1.75829154,149.3946681662,593.4533712019,-7769.829314043,-62.9589648089,-0.7430925875,4.7596680356,27.0086958224,-31.4415443131,58.3264773271,-0.7891347056,98446.8455621853,-0.4156646609,-4258.0071337582,-103.1091464146,279.4276628562,-2371.1475771014,-264856.2809553862,5.0819001077,-1.3522407224,-12262.9375696931,-6.662637155,103.5732458013,259.4171202126,455.7397777106,-0.3599295012,365.7347633037,-203873.2909239531,98.035842497,1.4377675666,50.2716726434,-1.2548298615,1.3229198652,-0.0688175549,1.5647063256,4585.7507233125,0.2814733442,0.8625006661,-217464.0992947122,-70.1541793774,1.8014280095,-1.3214125148,-32539.6608484602,-368985.6228737109,14033.4452950792,1.065327924,1.0998725674,-5089.1544742484,46247.4499054466,8.8909697703,-23473.7140316743,3025.9708648397,0.0014817567,-11.1371649536,30504.2678656314,-149.5016314444,-254.2923855312,1263.4088969186,-13872.6523521461,70274.2210569861,0.6598510925,15429.8923851884,4.1078618667,14815.2093865876,3.4873357585,486.3809769368,2150.6245702926,-43095.8785287428,226.3325902001,-0.9127630436,-0.8023650252,-0.4196734739,-211183.478621934,0.1240502522,0.0761253816,-49.6596128533,-57404.6643863443,-0.8942748182,-34512.2287543775,-3.8395025656,0.0612756413,-8028.8255215233,1.8009461451,-2.3099354609,-109.1313094109,50132.6048485363,-19454.9025625722,0.0172611335,0.9751841847,-1807.9842562678,-0.9935106824,69.5985193111,-0.5999877617,-5.7695913222,-1.8867957466,607.6968267052,-6.584756485,0.4048393722,-43.8718917029,271.1066522951,1025.7502197966,-12.985484243,-0.2926080169,2.831128057,3.2684933199,149.4393490439,-1.9391339236,-13840.7908729433,334.3205515498,-5837.3220177925,-0.9967374132,-3.6149377013,0.3343838119,398.0225923594,502.5973766559,-14.3126514523,-520.8273024,62.0068447872,2737.3413115182,-328.5468043427,-170.1573102476,-0.5318323637,-0.4424431955,-0.5901888042,-3093.0571096064,-3517.1508808648,-324.1001614132,-12.9988999845,-167.1523366531,57.7443604726,-0.4225744078,-129082.1385611139,44810.2303033823,-62.7305921726,-0.0067007242,2.7396986142,1.6259259215,-4.9390300509,0.4661848847,246.1209320522,-0.6788918578,-0.199170415,-3178.7834923987,-11873.1956204779,10939.8845193714,-7.8736245064,-5.0162051037,361455.3821478888,-0.2303802274,-1596.3584032644,-423.352059298,-473.7187210803,1234.9762534539,32791.2977795057,-0.0785176842,-5387.5966060717,-528.8219217815,0.3521146093,-325.6892539529,-644.3294792251,-0.1519051262,0.0526059129,-16887.6785451865,-33956.2432086317,-4189.118581436,-17.298012411,26340.6880096078,22.4797109716,63143.1545090122,-0.6419473111,-1196.6332854914,-34291.0028955404,-12.0241766468,-18.2542996334,300.6153733831,-121412.4047843974,-0.8115860069,-1.3007697275,-1081.3268564451,-2.2858979294,14.4902623594,15798.6991626196,-1.8492936044,-19719.0707619768,5.6654480508,-3.1609143425,123268.9838211893,-0.6332674903,-3831.9691079787,310.8737319757,156.5954592706,526581.5358519509,-0.5119797135,1.6535527682,-110864.2403441256,1.2223272485,-23211.3858518407,-7.7111340192,-76052.6478238003,-0.6452487168,77.3729932295,5.2806022852,0.3997428389,13.8417032017,140845.6742030126,-81968.1871843777,1.4865618274,-0.9128194046,-34.6753837312,40.0929770203,2.4488339508,-0.9007902095,-121531.6693218374,-180202.3127584119,7132.910195649,4.7337585119,3.1719807583,-2.0515034217,-123.2886804005,46694.9336203599,0.9550491505,-11080.6041246004,11282.7440419384,19.0123240913,2.6053043181,30.9317918282,0.9370300573,-3.9277948671,0.4395541059,12778.3505805892,3868.6077577092,771.8659891903,1.1427685981,39382.1873755321,310.746843345,-149745.095343717,-27371.5710155264,349.1276179854,66.5761184449,0.3904617976,3.0973720774,1.5507477757,0.3415192428,-0.2196632494,46.0489457369,-0.397770126,0.4330887719,16560.1164359772,-258533.4694791491,-555853.2570022186,5.6486634349,2.1874735937,-377194.2251028541,-0.0986296054,7233.4791131864,-39.4014897911,-22.7755908472,-3203.2415810118,74587.7638852546,-0.2819167,45.2092644475,918.0465847758,1.03346399,543.8631132734,-4298.5307480852,0.226247451,-0.5959681672,70105.0864464532,719.2934458897,3491.6369545486,412227.1387030146,-171000.4032496707,-283386.2254788204,-12487.1686588203,13.8067937982,1814.8950585807,-4208.0429713147,16.2263298677,-2.6418421262,-0.2970617994,8326.7918353495,0.3989773206,4.6543930526,21774.3152702229,-2.0653344739,-117.5936378331,1923.4050222858,-1.4903341432,30629.6096016297,2.2621281871,2.7762633344,-1843.772841622,1.6626569187,5.7045526772,-0.2435031648,176.2343387114,-14243.224046695,-0.6799769537,-3.3435605626,3.3305610359,-0.671550943,28.3810376175,-0.6595621861,-40907.6417614718,2.7723683632,88.1428507667,-2.6420044509,4.4306586863,53.7181435599,917.5343620203,-41287.6001381,-5.731717395,-0.201704994,88.2434595319,-0.1471748815,-632.0447531267,0.1795588397,-49878.254721924,9360.7184420152,1.2721012343,-0.7202375084,2.1866336857,-0.1574289579,132454.5538938425,-203.7001839519,0.4516426746,532.1523092209,0.3199959483,7.1757034038,-43.9264008162,12.3043804533,0.0613825746,-0.8378135714,-0.8020693316,-90566.153234429,-29490.6418829313,-34.8794859477,77.4469900201,-1359.3739316346,122.1887745229,192.1426768328,-195700.9658631805,9843.5530067701,0.7129904419,-0.5025958645,1.2660722642,-0.2405974417,-1.0598988909,-0.2690086969,-67.2223950536,0.515074509,-0.4125733448,-8052.6992244074,-508.4181801568,-139.0443773773,7.0609646449,0.2233965234,-522946.7833525305,-0.229597991,20157.3294067439,0.6185330927,30.6458242667,-30211.8059714204,5521.1099644117,-0.9597607479,-22.4633887505,1317.7215435843,-0.5837478106,461.6761336496,-604.6823601775,0.1264151384,-0.64196431,12984.2169576451,12005.0045905503,15652.6775757762,1741.8179266724,-347671.5708586241,-40.9960883066,-135703.3738656633,-2.129078229,-258.5703953089,1518.772530962,83.5300994416,3.1610412631,-0.1841805671,24490.0145498227,11.2904365005,-0.7105726087,3318.9005721451,-1.5832703363,-1.568960866,46476.8062172039,-0.8213455709,-169339.8214992706,9.1127796039,43.4721842391,-20238.0453899657,5.2777405897,-2989.8830439206,-2412.8724834864,5027.9122178364,42111.5982388966,0.0825571406,-0.0197308397,-178244.3950407312,23.9859390076,973.2936248367,35.8913639817,-6582.2322033659,-1411.8074859254,149.4859875843,-1.9479762011,55.7061620063,148.6940078284,-1240.0514603234,-3427.3625827896,-35.4979802333,-1.2698907245,389.0645177469,-19.9050999732,-14507.9769553488,-0.5791043345,8124.0132305795,-9839.7566840976,-180.0940164056,3.6057722791,1.4261876141,2.1492478985,13644.4156507797,4084.9188531976,0.0607927045,1540.8716307654,-2840.6896962818,1.6058431599,-9.7971037113,-6.6573490827,1.4545351717,17.6565057538,-23.1348708665,-16759.6156209884,-3549.8510337853,-58.0940974979,134.0947127467,-7668.0846914104,-38.9620068931,-9009.3221046173,-27655.2367346435,14966.5120460109,-117.3238788185,1.2154376473,-35.9526456034,0.654917732,1.428615401,-0.2942564568,140.2854058064,69.9621002337,0.2510482712,-6259.1018699146,-1941.214299467,5962.2829949856,-2.7840505122,0.1840218562,-124689.7784451094,42.0069362924,-8640.3531379349,16.7136762654,-197.9249533844,-19659.3845014608,-2750.9548197172,1.1140191251,-3664.4100395508,10067.8330328986,-0.4865463668,-327.8754941863,-5134.5742154781,1.4257772259,59.4204782363,19463.2113827772,7279.5509219656,2546.3077084226,-8045.3442176313,-131062.6239097016,6287.2639743765,-94767.0727875438,-2.6984199765,-1324.5514691014,-1063.1614654195,284.086675306,-3200.0470353968,0.5346878428,-61892.9858976354,-0.6517624075,42.4762324554,11814.9046291956,-1.3959809259,-94.6650925485,19872.0059335922,1.2296787293,25762.046074522,-1.1049485553,-664903.2051468637,11228.9980026489,-0.3207849133,-17720.7415232707,7301.1916562716,985.2599512651,74368.1506928422,-0.3230103356,0.264169838,-801.9083236632,-3438.1849269139,0.2244710437,-34397.8829529722,-3034.6764208078,10317.6389199097,104.0125175563,-0.3824226268,-0.4003729597,-431.9120405976,-31.6570315404,4120.2236584364,-0.3358378792,1.3274168992,660.4298957151,-0.4645498576,-2.4306505829,-39.4626625799,17870.3706259096,-4962.013130505,-42.5190208201,-3.2175426468,-0.4394291323,702.4393676313,-35593.0110702856,-0.6906275568,-11.520910374,8018.1452304316,-0.519287712,-764.9840377883,-71.0486015002,-21.1929644339,-9291.9671773698,3065.9527604103,-29.1262415935,-210.0887802816,-2104.9125241425,-2933.6752840533,-1329.9897407508,6.3514498223,-182.971942859,-0.1118695301,-15416.3899440726,-62.8487314222,60.9390069105,0.0300204522,-265.4428962517,-2.9678650374,-0.9563730619,-0.687197025,-0.6044992589,-699.9276529376,-0.3887655155,10.9762755185,-42856.337368715,-481.2474901886,-7.515363196,-1.7399090091,3599.1611364934,9507.736920061,150338.1110180236,-0.5333447449,0.2579636027,-12145.5642504931,-2018.0656504801,19.8875531474,15468.6788890556,3804.2555676015,0.01043852,150.7249110156,72766.2383280379,1397.8031162879,-2087.8511184361,45454.5649628681,-28.3883518867,-2688.9470108755,0.786226446,-128521.4502353028,1.9704589176,15124.254521096,-15878.5613313407,488.1230150396,2893.8591827191,54681.5056835497,13163.5795527141,-0.067418167,0.9124873471,-1.1247968027,-658092.5682166929,0.2035572316,-1.0584422488,37.2213408144,3810.9958171405,0.1805051825,27932.3459854683,0.8998035775,6.156267281,-343.6081868143,0.8408562179,-1771.9820786807,1.8812261221,-48772.7071719189,28763.6882589738,1.3337536538,-1.8976621811,0.9455773169,-0.2964058842,196.8182898835,2.8179050601,90225.8112660434,0.4447977552,250.3081733663,-9.7369571247,0.0285155077,11.14586773,-8194.1579005925,-13961.7448014593,-20.5048929006,1.5773500085,72.1578798804,-4.9460971306,-60.8686254525,-1.0754867308,393.8089985369,-560.878945322,-2183.6777296145,-3.0039802357,-3.1582343536,1.0563179051,0.7629868636,-1157.4173523292,-19.4137417741,429.3914351033,774.2176471491,-2.2547186864,403.2642306826,-58.1002015207,0.5112854847,-0.1609755749,0.0223137442,-48900.2680014459,40701.0465474437,27.3875500022,325.2498507914,171336.7468903769,-103.2573755963,136.2217074957,-14468.9712147934,-98977.8021818156,-80.0357732979,-0.2260758859,0.248677654,0.3906415906,10.9771554464,-0.475586709,18.7304091212,1.145063705,0.1002258901,484.1445528232,-26.7887691401,-60631.9385506259,-2.9974747978,1.0447921767,13873.2560111169,2.5741260461,38429.0745758875,5.9054568238,-78.6622160071,6453.1286445223,-13805.0198440619,0.953489779,-43.8658892488,-12651.313064039,-1.1509188465,567.3552402483,-248.6451995468,0.0946036176,0.6514983701,-2133.9381324365,-9882.6181323932,-3750.8563490161,4214.4352493529,-59.5569736683,-256614.4550557575,-153.9740134985,-14.5064934071,917.2290193357,-412969.9206622069,-113.5258902348,0.3675815891,16.5212752799,-144702.2401241024,-2.7013126471,4.3519417303,6992.3135657745,-0.6804206566,28.8131070243,-12089.42180927,0.7497461504,-2.2747650866,-2.7990857013,-40.7001490207,58698.3059451434,7.4268603704,-14126.8213209617,-3.8637919942,-3738.6522825194,-10784.8236407915,-1.6298200168,1.7477791806,-33.8379566692,19.213822147,1909.4509800954,22.1355807884,-15449.8606605144,-1.0466224558,1525.081727243,1.1988560161,-1.3954807054,19.8276655492,5481.8285066927,4071.2159133394,20.5222349144,-1.9075841946,-1.3079253559,6.3175831642,-0.3977795697,-0.1148227428,-15006.7660300073,6.7976805082,-3.2220274585,-21.8841083287,5.1652225253,-1.5992057628,-6.233193026,-2058.8199958497,-0.1096102122,-6521.28387782,589.4152475511,-0.5260002237,-190.3886085163,-0.0888147979,-0.2318802671,0.4607719914,-0.5549258018,-33682.2862232981,-15919.3373765008,-9.0378215027,34.6375507486,-4911.3147823741,-27.3664160923,-3683.4780006131,-5045.768090401,-46780.4003466432,48.2144228085,-2.1736853482,-666.3593852265,4.669198483,-1.2094199995,0.3026854273,80.9221981031,-3.9208056288,-0.2209469174,-14262.5591248974,-122.6209825148,121.9647812897,-0.714378464,3.1680715387,-1.3592434614,2.5849170376,-30001.3531966668,16.7073200509,-162.9601343466,-7391.9599514498,-0.5558129129,-1.976645432,-3.2972787432,-3068.3798206333,1.0028326537,177.8096619337,681.3378710393,-0.8836868561,4.6079694334,37900.5193604818,-2441.0351851848,-342.6939422895,6045.5180334292,-84.5680361556,1295.0560106618,-223.246671414,-0.4647275422,-126.443605963,-557483.7259931858,235.5717031782,-1.2928724745,6.4234405241,94780.938335051,-0.9284279621,-91.9360045496,4932.082367429,-0.3987969495,-0.3297332661,-4.3192110399,-1.9128750611,34402.2211388173,-0.6090410995,1.2279755441,-134181.4151063965,-0.4219835789,-30041.918578261,-7.7929162985,5514.2986431978,2754.8954043077,-0.1087750604,0.8825507734,10.5334532044,-0.529491409,6010.4924833017,-0.2924141416,-186685.2089867799,-20.8814622167,631.2691786318,-3.8424617449,1.1353048443,6.1911625793,24090.0253733614,-10375.4214045289,32.2980648903,-1.4714644819,22.2609310209,31.9001470404,0.7272906633,-2.5276632892,-233449.2039972044,-4.8535539242,-122.4473535614,0.3260281771,-0.4363347488,-0.1203365405,-221.7926863688,-9444.0484919969,-1.6082915269,1587.764544018,4357.0996394279,10376.8765815271,-17.4288868642,9.8025589713,0.4191257296,-1.8625340179,-1.6110988163,-30748.5651512706,-17103.5870978785,-56.1253959603,97.7058512687,-69050.9778234752,-67.7851287618,-12990.1007794071,1981.5970320145,-14965.6526688953,-8.582047786,-0.3775052989,302.6463729136,0.0280444154,0.0439775918,0.1364927447,97.5610036839,3.1617125683,-0.7572992766,15298.8673821067,-47.5044809443,-49974.8025475422,41.5917096428,1.272581362,-283524.7088264353,-0.812263083,25282.5364647431,70.7087264212,-779.0032310173,48933.7940620752,702.0183590941,-0.2276238061,2867.1291827195,1639.2866417957,-0.14366809,165.5440443256,-1209.3054740757,-0.037750308,-0.2172544575,-106246.493787863,9492.2727975246,820.5855220253,5885.3966799758,-3293.1380545675,5251.4969727,-206772.7230768701,-3.5922768037,125.2094738001,-39259.2008665118,343.0434481982,-1.2017947765,-1.2519736597,91653.1901508888,0.0217124231,0.1067059763,22776.8214082697,-0.3618597207,8.0440860189,227.915194088,-0.0691631382,-356.9838613039,-0.8868045255,-72880.5068848971,15.3328444866,0.4137534669,0.3688463597,-7.1988487635,3240.1749732291,9572.2508544985,-0.3688250612,0.1357033588,-1034.9393853442,-1241.2740286277,-0.9115058505,-254977.8839480762,-0.1283864325,484.6687466588,-125.2216324223,-0.8974417585,-0.4174623296,-2.692196991,13.6793722709,228.2337084684,0.4431785624,0.2181460501,-80.9317968094,0.1736616935,37.9818978413,0.0887571776,-152292.9006931931,863.4826026967,-0.4187156465,-1.0053050255,-2.2930888027,2.8751623662,-1884.7741736765,223.492202966,1.4706227526,-31909.5068409031,0.2701921264,289.2294053362,-0.2724524943,-0.3969785751,1028.7211964863,-19058.4304693291,0.1461441457,-0.6523395902,-1.4871962869,-1.0336272672,-3579.9836867793,-37.968866684,-346.8259053889,-0.426238642,8689.9294640046,-43648.0713810709,22.5765772168,-0.3870939564,6.8970084708,0.0319295712,0.073339758,-0.1845760198,0.8651924072,-1809.3902667762,-0.1347312133,2683.9398273967,175516.921971183,-51.8848538174,-5.4531168446,-1.7608834389,-4432.7834831563,72077.8377326144,46269.2662654454,1.9726543999,0.8504589823,-36194.9540303566,113381.1362914026,-0.0799901271,-80191.1586199599,3753.773716012,-1.3053630711,19.5445004158,9144.5494173132,5.8191059235,-272.5061712295,-85431.3363047877,665.4743938494,3395.4870829659,2.375677092,-230638.6459303261,1.0443827442,-51405.9364417288,-2.6289142499,-821.875554475,5178.7020287092,255164.7744221551,81.6921647521,-0.4328116452,-1.2813382756,53.2655340078,-2.3054156362,-0.3462201425,-2.1031671763,2.3053100622,650.8074319618,-1.1201468232,0.1160059011,0.8190376831,-184764.8816995174,-3.0726874127,0.0122449313,0.2936231036,1727.5504282054,-5.1196308811,-36958.7807963689,-1.2405860381,-0.7152299259,-4880.0647130698,-20.7091079026,-0.0847402136,0.4037085519,-0.2210631803,556.5409620748,-41.7083263687,-1.1189667203,-0.0925644841,-3395.1591352257,-128.7536858039,3029.446030647,-0.5820538713,-0.1859780498,-849.8862786965,-0.7922018279,0.0226374435,-0.5115679871,-8314.1217469985,-918.0894331866,-3.0105554169,-0.6226948099,-4.3065264038,-0.5149711577,268.113191004,0.211738417,-1.6853975927,-3977.5675693172,0.010620811,-0.4255621443,1.0430210459,0.5035129906,-134317.1104913398,-799099.7572277237,-0.5253122904,-3.3439609834,-420.079089244,2167.9622405094,-409.4798705693,3.9933095066,-616.2441589034,-0.7490604496,124.4169351339,-1.7947684063,51.8398315595,0.4281816904,14.5736391437,-1.7884561776,-0.5867064281,-0.4384720826,-0.07320216,-13751.0803669502,0.3779174371,0.7693857148,-15130.795238115,-206.6205141424,-4.4418948829,-1.2563256627,100050.7077131567,-0.2311028378,2714.3925204541,-0.8313977368,0.3593902492,-1657.0535955854,-36130.2254962962,0.2186882685,2978.5153167594,6.2322905676,-0.6832654685,-6.0005103969,-3196.7295244066,-7.0737925602,-74.8626878891,-5.8530266533,-2.6778422749,2637.1648127155,-2.2208697668,-2649.8278824606,1.2087389579,841.7660195797,0.4761869836,-125.7644450077,-26.5830177145,-0.7721414643,-255.3310745504,0.1737745523,-8.6876394418,-0.4786180224,-0.4848863836,0.438456767,-0.0887961434,3.9149654851,-3.9621967682,0.3802656041,2265.5567169075,1.5474221528,5.5572218785,-54060.6092620132,1.809560583,5121.0504468432,314.0974014605,-2346.5563504032,-50993.71002146,2.4457673782,-0.6469857412,68.505138309,2.7898927516,-11810.2634028127,2.7416619083,29112.9176093618,0.1640199311,-18663.3985815238,-5.3204025072,27.2854307361,-23.3103907439,150012.9750055271,-102499.5252217251,6.028962319,2.4944388128,68.0304960098,41.7931830863,-34.4600246538,-9.6803397038,6897.6275771095,-0.4117374135,-279.4168502063,0.5566656265,-6.2272914287,2.2339407387,0.3336897953,10964.1377634963,-5.4613806748,-2073.1232458556,10797.947360126,-0.0506230948,75.2469941298,-17.8385730519,1.902036457,1.6698415947,16.4509047935,-199890.3341633595,16092.7936851667,234.4126213261,1.7546955798,-5883.6690469378,-6.4472160113,-143573.3878470166
   -11592.2716967685,54009.5910481162,48.6499293383,2.6591393466,0.5814373972,0.9993794488,17.0134522783,0.1264504415,5.9446153684,0.0539913772,0.3999764873,37344.4195082089,-18.5818863324,-153899.5087856433,-5.7573702138,-0.4097442969,81753.0218649735,1.8337648742,23552.495069755,18.6792521025,71.0611302736,1835.8873821764,51302.1181108834,3.3134799123,-25.6915792628,1417.9667294231,1.0336797673,225.4602243035,2987.2972360999,1.4993680986,2.0535643691,-2288.2491914899,5417.2182784907,66.6537470699,49269.7874821712,-23.6511823866,59259.2773500916,-153.8827533414,-4.3724471809,573.1558271244,-4140.6449110894,-174.5294573421,-2.6874191085,-237.8541166387,16848.7209247557,-9.4382932223,2.1641017038,30792.8068783092,-0.7039395805,0.5526580543,2466.8387696423,1.4497568189,-522.2014984837,2.9347676586,22.8421295398,88025.6261053409,0.6639075266,-1653.573273589,-0.4085424717,-5100.5091445252,56336.0897123246,-0.0353302983,0.3979341763,-18.1999372674,41.6297207131,27433.1525943769,-7.6353389344,-2128.7719778324,0.7106408982,-46.8845653018,-1.8153423116,0.0592964041,0.7278649052,-39538.4628455828,-15540.3561229779,-27.3052985602,-0.4788107534,26.0046862601,-38.2088145147,-425.1204815394,-0.7637781092,5525.6417112048,31433.1519219219,-1712.6442304899,-2.9926643131,4.7664760197,0.5381925524,124.8666889844,-24895.8258762557,-0.1009777021,4108.8762363661,8301.5299869295,0.8819965772,-98.0316828755,-47.0142794496,1.2722854905,-56.7104201623,-0.5547705157,11878.9751537085,134.2430214146,-627.8997182707,-3.0914408317,72.7369672538,-74.363999047,-200581.4471760421,19181.4271864013,25564.7447753645,20.6510347136,-0.4223360568,-40.66671306,2.9372282561,-0.5932855122,0.2778579752,15.7390718068,-31.4645938798,-0.2738016621,3116.018354162,6903.7577276028,-108011.5891437065,-1.6680923914,1.1308260199,-405594.7501075937,5.1519205219,-57853.72167376,48.151563992,85.9397661799,-130763.0980025593,-1.9383792158,-1.2146921245,-8734.8357934452,-894.0808520317,-0.6747026116,-47.9754077783,6658.6030384287,-0.0309915664,32.6709921622,36849.4862350918,-1829.7203645966,-50232.0171613562,123321.6460856833,-80361.2835108849,-369014.4233248121,-189126.6240801023,-1.0255389543,-947.0082667879,5191.5860196978,116.327556998,63.9605986494,15.8687525736,-618932.0086433893,-0.250835852,-13.8283519949,-183759.4020018993,-1.4213649843,4.0892477331,-8857.7492304408,-1.5138165497,-87744.4023157728,0.0046633086,-10.1971826424,127920.6675734932,-0.514662215,-62.3232000003,-4.1804404962,7267.2998392239,-532623.1547110373,-0.7053333346,-3.9446577023,21741.4376887113,-44.2386536563,-520497.4978547713,0.9839888445,29369.1338197802,-81.8211035106,75.1677266545,0.3363700411,-0.7077924338,-26.809535133,-342572.4584029646,1440.4387636055,0.1031787649,0.4032009754,12.4137087567,0.0602556916,71.5023983117,-0.4702559925,49429.1556161796,4664.8715162197,-1629.9845590862,7.758177404,5.5558776037,6.3422506388,1081.0554050806,22545.4468054466,-10.0842045241,-15.397271768,-1616.9683977699,166.0314230156,-777.0188314525,-47.4476431901,-0.0052780764,35.2649033287,-0.941848954,11013.1234954932,11097.8841920507,-854.1621801616,-6.6729751613,-5088.9058574621,-12.5950677692,34228.5099119678,5168.2280514337,6667.8204935006,2.085009951,-0.9616366479,2.7606007061,1.8890921577,-0.5474627001,-0.6902785756,-6.9280172244,-3.1772176733,-0.5375524725,123701.4259369227,153055.8478438948,49624.9363397427,-5.333252434,0.7963112865,-12227.1739936306,-3.1930396716,-28256.8237238014,-5.4369708239,-32.1383513234,-21645.5841973969,-15475.9857540149,0.4738418921,11.9380452424,2702.3615671199,-1.0472315479,-185.3642499548,-910.0484008873,43.7209116994,-2.274840292,-33210.1153667832,35511.7498012276,-95577.536064626,-292400.4687195316,53728.0788246314,7.9262058106,-24893.847466238,-27.8134188877,-333.0316888581,-2405.8329932424,-154.1911601946,-106.1813394512,-0.0455492445,227110.6566245421,-2.9144445827,75.5875909723,9.6547502375,4.5803653733,-4.2423309237,53361.7739991674,-0.256828986,-50969.1055052585,-68.48584267,-11.0696068221,113538.1544302379,-0.5500200825,-1735.487881162,-17.1756802661,-10693.6058078891,-95019.1869795794,0.9682593598,-0.142451284,-13883.1091655804,-0.4180737641,9219.7560583579,-26.0464020283,-15902.6054243516,-3.5759358207,452.3014793643,-8.0454507574,0.7628689666,115.6952591823,-9311.7669432521,-800.3071652645,83.6703165592,1.0798604475,185.034529917,-103.0320078019,-13.7981088552,0.5338281656,-32169.3567672175,-392.1707688596,-820.0964418685,-26.7225825031,-1.6847042422,16.4291191347,-485.2740544247,-22523.8039457996,-1.7335116576,3204.0825889154,1215.7600443959,3916.3844473397,183.0640974028,-51.2651575105,-8.2358757416,-11.6931423411,0.290249635,-15052.4305471325,-44979.0453217435,-30.4934165026,-0.1012925045,-17384.6514236971,-91.0412742159,-38780.4289446835,56.4668417537,56074.1963810097,-1.1951603635,0.3324650354,25.4236322298,-2.5545170396,-0.122378062,-0.1053382333,33.7276128727,1.2272515481,0.2942517668,-28682.3603482154,-35732.3313337974,-178080.8843177586,-1.3878205746,-0.4048620885,-67828.8742473376,-27.0954045085,1688.8225745006,0.9617939263,-202.935937455,162316.1964816013,-1012.1155335105,0.9176823466,-6167.8340194148,925.1327841756,-1.5228529589,165.7555595831,721.2088452605,0.2005699609,-0.0875941425,-95498.6204453076,2428.5089131014,-7949.0141458765,25774.2026149734,-1796.85035071,-96104.8560020202,-128029.0844973706,-221.6921400873,-19.7827976037,-21490.4392372376,71.6081945592,9.2695652904,3.4216952669,-19866.7189883567,0.5097202998,-11.5434129031,60307.5737523991,-4.030264045,18.6191680441,1702.3351235759,-0.8905312807,-52060.3998058657,9.0973945119,-215048.9306472201,49.803774,2.8963231775,405.6282293066,103.2291665104,-163.827548259,-204456.6587498069,0.4037600576,-0.8829107359,-40654.1740572975,1.9111106811,-0.7937284816,-146572.7420950278,-10602.4742803518,-0.5827915291,823.0068591932,-1.3355606628,2.3347950549,-363.7946629762,18.8841497017,-1823.975679674,2.8216195489,6.8930547564,-528.3180030783,1.5310528151,21.9181397925,0.951369416,-138.9971524236,224.6904421469,-0.6107353312,-0.5681990163,-6.9450004934,2.0850206562,1288.0687037618,0.4578044959,11.9975300267,100897.0651883091,-0.6325683101,-1.0414840023,85.3481512713,-6.1642885525,1092.7506394185,-178.1347700555,-0.2512926196,-66.6579726038,-45993.0470587904,2.9385365755,-5194.4446518245,0.1295649904,-59.7256524736,0.6622522878,4557.5781495417,210527.4973124373,1.0920900226,1.724359741,6.2335412605,0.0430097167,2.2891080752,0.1273166748,2.9622455619,1883.2828075285,-0.0497848811,12753.3444692524,68.4985631943,-178.237935828,-15.6701907864,-2.3355341086,32483.7006321145,-10516.6843459341,-30127.7875942901,1.4878075679,3.0989276632,-11901.6972433977,-2590.7426436484,1.035386074,1015.8771295671,17066.9808529675,-1.1314708867,-88.1134155991,-80159.6775904269,1.7249648636,-125.9482668705,-82022.1408314353,1021.9642704798,-22924.1573177112,-2.0691683045,-1239.0703486653,-5.9303338699,134880.3388448502,3.684546347,-327.3639759437,-154144.2611263753,58145.8342280766,-5.6928533129,-0.3015890645,-3.4754430677,3.4705405019,-559553.6894161878,0.0310152084,-1.7257695854,18.5767189094,19206.4589244855,1.5915647482,34821.1745596829,7.5669671694,-1.7787269943,-42401.2828940463,0.5392877217,1169.1530172124,-14.942436872,22412.4296438924,74150.3662705873,-0.3137153149,2.1032080798,0.4717839272,-11.9472944497,644.8631271941,-0.5353788574,3188.0114046173,9.1490957056,938.5079332327,-1.9879095482,-0.6017158003,14.9873675975,5219.2852479759,-1033.5731857074,-15.8926548889,-0.0324164165,-190.893615,-0.5234674182,-2759.0313363028,-2.0815593103,-392840.3597074809,-407.9495906906,-31.6044455822,-1.3555989518,4.8614982122,-0.5710727224,6.0144680606,1656.1425890906,-1.577011072,-868.1119059285,12.9459673507,20.1283599486,-61.249138954,0.2061567711,-1.4281707447,-25.7823712493,-1.2262952531,1754.8484036598,2221.8133344909,-271.4970139637,-11.7130862025,33.0252745221,14.0591628422,654.5751417776,1509.987710683,-77935.5000606531,145.3309610903,0.1736983169,-35.9285403061,0.9451541747,7.3408009946,-0.1463091185,-45.6683906523,-1.6578579163,0.1281043353,1339.9534753489,-36.0492346864,15422.2331174095,-6.9322321708,0.2571702543,-160179.3236569472,-0.4515107566,19.0517547466,-1.0147454923,-32.3619754589,180.9039724329,54079.053318236,-8.0335584262,-4.7855469937,16637.501143382,-0.4268315534,300.8032266454,-49.2456400914,0.1735552929,-2.0653309346,-295482.9106597172,36218.2967971742,54443.0628636391,2063.0515906013,-2824.0600838006,-26.4492551643,-125985.6647626786,-7.4538950032,264.8377821957,-165178.1571902036,144.7326884231,1.7248438735,-7.7196413036,90790.5018616395,3.1257818765,-0.602283335,-17.3304849502,-0.2358856609,-3.3300597129,34961.0334420987,-0.3047050006,953.7882088951,1.0601491331,-41799.2464040726,13452.8122773992,0.3454023065,4506.5833118943,-590.4327084987,-2743.2381659151,-76603.3964612519,27.0684211979,-2.1755649892,-102195.8573335959,120.413700057,-3.7350850617,-3932.626284458,-21.8667858016,20.9733897293,-45.643640246,-7.6351179426,-0.0885375897,85.1451462224,89.2559912947,-3955.6736039705,-0.3863876459,0.8060891995,208.2708291744,-0.2050289713,30.6712086857,-0.5775001717,-1541.3748766771,-3192.8169173984,-5049.6251236223,-0.4674356056,-3.8294854663,19.2264918698,-3101.8292147937,1.023330793,-4.1412252765,72897.4562155778,-0.3840839728,-5.5111656529,-53.9159677075,-28.3822281873,-2489.4703908849,1053.8277540812,-0.4494650454,72.0686197072,-23583.0787079524,770.4696983632,1259.5184694596,-433.3950001287,14.140160443,-2.2993093615,161.0362241216,-2263.644777755,-40.036024165,-0.0381953235,-5.1876101598,-3.7557392169,0.5715105577,0.5634572071,-0.2441117606,-573.5879344802,-0.5977852249,-2.0051879952,-266057.4967604546,-1394.6077128391,-70.8001961462,-3.8710130759,275383.3093590282,5993.0870496488,11459.2189603058,-0.5041462439,6.3939977809,-10138.4863176727,21254.9593513138,3.796159978,-43606.0509545486,-3854.2634449852,-0.299521042,445.4616254271,977.2846961917,-10.4991722237,-3360.8699245144,21544.6724701143,-5.9656271068,-1953.6167427904,-1.9855882614,-14852.4210768358,-2.3939523357,277.2751901693,-0.5793285711,333.9905994863,98.9397446466,-2054.9622615777,-1082.6435460182,-0.7468872871,-4.0054841335,0.0504414426,-370967.1746901982,-2.5905024995,-1.5895070443,56.0330063984,-2728.7774262217,-0.6928674792,15314.5048180506,1.0166300499,-0.4905693206,-14684.531201983,0.3523329976,325.0739523369,0.2892739343,-12249.2677623095,46830.0418777127,0.2764717137,-0.8193201513,-68.7260799865,6.4549705032,29229.2020808624,-1.6250313134,346.3060671186,23.9131968216,-7.6796298805,-5.0581875941,-0.1024091965,28.5592987415,134027.3224430823,1913.9294660794,-4.7491452941,-0.5009759546,-4.4005557089,9.5445784657,10219.4728807697,-3.0495040251,-245587.9322732653,44946.500119394,-13.4120938495,-0.5161275346,-6.9417915122,-0.4711805529,-447.5398963967,15180.8677659303,-0.4362479242,-672.9603544898,-32999.7337981322,1645.6859001107,-109.4741754378,83.727794947,1.3477893754,-10.5995405678,-0.8972711787,-6279.4673587645,45795.592377266,-488.823299025,11.4722332529,8061.5941918508,-1166.6591188706,-316339.5424032275,19779.1319046482,920.3785023324,28.0166570911,0.3004447102,2.4113344856,-2.7282870022,0.5965930681,0.2342408662,-3.4650474141,32.4947686695,0.643886209,14604.3460093441,-3015.8582939201,-361566.6489125689,-49.4807297699,-0.0641488201,-18442.3244875431,-1.1938242074,-5063.7473469776,2.5693690189,77.4623195276,101625.3133381504,-23674.2688551699,-0.0353836549,-0.5257339295,-2042.6175017906,-1.0464220933,293.9019056225,233.8072531983,-0.0005732469,-3.8087541572,-23134.4587218414,-760.1670391196,-2559.5470809288,500828.0217453169,-190996.2079915066,-263309.3879626648,-146160.4054053905,-1.7809392217,669.6333221956,5059.5662742373,153.3982524615,19.9357006998,1.1807281319,-178.9906712899,-0.7045855656,-1.9860460815,77912.9574513135,-0.3273782682,-16.073711804,-128210.6339126131,-1.5235464531,-1212.5934378469,0.2572488782,-83.9593007249,-13624.6583273421,0.3297078375,-62.3880184259,-0.2237789528,-529.834038328,-18038.0717583143,-0.2322204857,-0.8840783458,-299864.5765090823,87.4311096014,643.4429886092,-0.5847966517,-113.9196286848,0.8724358756,98.3366769746,-0.7713098747,0.4848798832,-10.0696810089,-168.2891543275,3448.0698674086,18.6459279251,-0.8600716912,16.8909270878,3.183306282,-5.1355020544,-0.4315755506,-160828.709335054,-4358.8461004096,-72.7230827689,-14.737863349,-0.0981439013,-1.1248685539,-693.6652754528,722.3769317177,-1.0873567809,-2363.0894417383,-2.2216555597,-508.7844451826,-586.7808510356,-66.72164527,50.4596553632,-31.9426135355,-0.1410639521,2291.4905678444,3223.7145727317,-2033.2846021355,-0.0724632025,-546.1314165865,-1327.0636258383,141.4295332217,-9966.2199731574,12751.2037701556,6.3936541782,0.0669637111,-44.9252072756,-1.0537518567,6.8722495155,-1.1734351833,70.257503906,0.7461371547,0.1943395916,2143.0577174964,-343238.9999208493,-220.8821271894,-27.3578162459,0.9972988237,-153440.0862714178,3.6284320508,-57782.5196062655,1.6361774997,100.9724407901,-89993.3117510006,-0.54502532,-0.3109015456,0.2291709431,-2259.4749144075,-0.594265665,79.1683360503,-254.4031136045,0.5358963499,67.2389117668,20384.71578742,-12.3330834642,-1225.6287227159,2892.3190996185,-372270.7617802965,-264221.6656520191,-68867.4902405512,0.7771462858,227.8720459213,-799.1078350565,-90.6705343314,17.6139891625,-25.3504143498,-28016.9480204943,-13.3382842045,56.5661236425,11999.5085063451,-4.6876147825,-0.0886702042,-16912.1300411984,-0.4530554105,148913.1863028693,-0.1616212383,5.3778952086,14600.8380743462,0.6695664871,-11949.0908392694,-7.1246913435,63.9974098429,65482.3856800452,0.0815156225,1.8929391122,5.470172815,-63.3627554906,-245.523198264,-1.8080735008,32972.3221414469,9.3063037212,380.841952574,-0.2637670592,-1.0135191229,49.8904547298,3924.799168079,-21562.4262374284,-0.9010162827,-2.5105358884,-13.4633133865,-0.8974874368,-0.9889560688,-0.2922251796,-26207.7120316197,-147537.8548184016,-0.0598447073,2.132191074,3.7478657253,5.9182859493,-1124.6251729186,6142.6424268691,1.3124127981,-1356.7539571393,75.4584368139,-0.861606808,-301.7505577783,-1.4995607443,32.1452023346,-4.3938958724,-0.7411033607,-141943.9600144881,-1016.1674360726,-8.2807470102,10.8193412614,106038.120702684,0.7619331428,-1000.7510927626,-367.822577057,4030.4518308709,37.3665271226,0.1637113296,3.2361552419,-2.4488633008,-1.1616187738,-0.1253981724,-226.4948951959,54.4513031408,0.2132703217,582.6612016151,-4659.1487362466,-1184.291636001,-16.8317080806,0.8109961108,-421894.7895982869,39.8531722523,30102.3789174797,-0.3308452428,-55.2333996802,-88964.9969853582,48743.7396229891,-2.4327933306,-1519.4916045318,349.8946991237,-0.3379940707,514.9931419463,-314.6787020708,-0.9572594512,-9.2348626717,15278.71384813,-32.1250212833,-19930.4113552377,3571.1488606753,-412042.1046713939,-968.6968745741,-168233.7304062542,8.3241900762,645.0119414762,2107.1408191973,274.9325382647,-268.2963884538,-0.3977423838,2228.4163822057,0.33068768,-4.5806221919,15746.1509907915,-0.1624008228,-15.1203483384,-122.8976006554,-0.4428525645,-5010.1895206448,0.215048385,6.0963009163,5426.230368381,-0.8070388355,-1372.3680142528,-18.871502797,35677.5429824441,-448216.3377389927,0.9351718844,-2.3015772444,32880.9167166465,2.2489863482,22762.6847213775,9.2809667405,-17528.8769807717,-8.1695922618,163.3106797202,-2.8398199936,0.0772746531,1.0638393107,169077.2099297761,-126982.9013643783,-0.5233868727,-0.3545295185,197.3711070552,8.6088296802,25065.1347203867,-13.5884210734,-35890.4292232588,32579.9520830145,14236.0615495881,35.1051238483,4.9413251667,2.4408815315,5.4570616428,7298.5845942221,0.2484028474,1277.5595498676,7931.5772923227,-2984.3910066554,244.0103989946,-95.067067633,0.7606512028,-27.1955432327,-0.8779266748,37409.819241742,18566.1159791564,577.9947275171,-1.2873633165,12588.4920794584,-502.8785168488,-245339.2680471121,-12109.5636253845,-2237.1723608445,-8.6098306798,0.4706514396,-172.0737415727,-1.2898186915,0.2810528458,0.6130618139,44.7734308947,3.5034932943,0.5022630534,-26421.0161579517,-57370.1423483826,-80828.6870980622,-37.8787108162,1.3028021071,-167967.4780286875,1.6488181282,-11315.4073958406,-40.8017356441,112.7606314903,112718.76154827,-16710.6907266244,7.3050017706,-19718.0771386296,-2715.4321015489,0.1744197801,-102.205599774,-215.8658441739,0.1155904477,-52.5598811312,-4100.6561848858,29796.9812651802,13967.3609708865,334799.4141013919,91679.6397817147,-386413.9894797152,-52206.6644178172,-5.9804444884,-992.1761279459,-8082.4478531232,83.525171439,-837.7812133283,46.1403999367,-360168.4005546996,1.6854284611,6.6919221361,98497.2630548621,-1.20777877,3.4135156192,-5799.200624541,-1.4863347924,3692.3800464258,-12.9271588419,4.3995235741,-12908.0634120901,0.5875687939,-589.5567656751,0.5894704576,-2564.501222717,-29795.5935204823,0.2204626302,-0.0780447957,2.8014062166,0.4403887809,-51.8849681384,1.1759989887,-2840.8953397283,0.0489527465,-88.4064740871,-11.0134232402,-0.1184796014,-2.8714349364,-8401.4242271293,3971.3099415244,-12.304338828,-0.4519825501,16.9983940895,4.2961040342,-14.6516119238,-2.6047175796,-918.9096405748,-26.6137315952,-14.6312906568,1.3328582371,-6.6372758561,-0.0110964631,-4.0202457578,1629.8499989046,-0.307683828,-217.8384159226,-1738.5384970779,-0.8850914044,-201.2394110515,-13.2772121944,0.258481873,0.6697914592,-1.4854686383,31649.8373587818,3456.8659578955,-26.7408745557,4.5235668472,-3943.9970521403,-31.7398148694,244.0598313279,-33388.7782938442,-20433.2543992935,-21.9537233031,-0.1401695307,-13200.9806250551,-0.6006104892,0.1733482907,0.0536623093,155.6054599114,0.4038701805,0.4489469207,17066.0288702169,-14.82777246,-29129.2855724226,1.6529831904,0.8448399849,152559.2636965452,0.8475339838,-34583.2879821049,-92401.9271952552,-439.5701610252,-17724.1751679098,-507.0360687385,13.3822215457,395.4050328634,-3281.3465838922,-0.2552975838,-153.6924671621,-2619.7272424136,0.7165608779,0.7350897315,1638.0430916255,-847.9589966733,-1137.4341700869,1203.3264411995,-121.2282111642,-262596.4961119053,502.1700571795,0.9841033435,678.6538966933,-325666.8953697743,-24.413600256,-0.227821368,9310.0664648357,-524762.1202025218,-0.8977058516,1.1041546127,-25775.9402484797,-0.7926900301,-20.4522835962,-441.7466373766,-0.2641302102,0.2405906939,0.0526464682,1.7960491096,-0.0340893251,2.2908646974,8.3844741136,-46.7431604186,0.9843266291,0.7856561591,2.5438320149,0.6654060511,3.7711176914,2.1599400581,0.6220839977,5.2340857947,3.027751628,-133.27897846,5.2998013746,-48.8922476216,-0.7414247078,1134.251806008,-144.8464541178,-0.5999246929,-0.8747787387,12.0252341926,-34.58277652,2.6924918113,17.5250064647,0.4968612819,1.5173253571,1.7391311543,0.859808242,0.8474900017,1.1605550909,-775.8016054233,0.3982961325,1.1650674371,0.985554077,-0.9577591649,2.0779994587,1.4606887948,0.5292906803,-12.0136282624,-12.7830662315,-2.24980267,-12.1846470916,-10.5427159344,19.0451371495,12.0620413053,9.5859371866,74.4400080851,-27.0319020831,-0.3113344082,-3.0161162071,-206.7530338402,-3.6757889463,0.8588813461,1.1435050145,1.2022718871,0.5054613435,0.8372416445,0.3047047867,40.8640184531,2.0067420257,0.4180082087,1.6330041381,0.5359790231,1.1988452809,1.9015597406,-0.3284358794,0.3326749941,0.3151350611,0.8667103023,-0.398122042,1.7763635033,-0.3028683495,-110.2886778277,0.9118864718,-0.3753171331,2.1449410282,0.8056456499,2.2923892504,1.943721696,-0.3464593449,0.8561884478,0.0297043838,1.8420227339,0.7475355332,0.7046773129,-0.1413194015,-25.3306082439,2.0860232196,-0.1849410843,1.3689691047,1.3942866243,2.318636161,1.9141873705,-1.7216693293,0.0435779032,1.4827318445,1.3815985074,-0.2725185355,1.4871779469,1.0931469824,19.8085823208,2.3304306685,0.2156064707,1.0425410832,0.1348476506,1.0207583615,1.8123750277,-0.1603104679,-0.1735394745,0.202037787,-0.0046900104,-1.2076864223,1.2163846583,4.6734442354,-5.8544944029,2.4571668778,2.4717129836,0.276766594,0.4050887287,9.6681131945,2.2833985913,-2.3835083941,1750.1313706178,1200.3731439502,-1756.5118331349,1165.4300280308,-3004.5620699935,1723.0147052554,5295.6130924424,-1184.0565151684,2085.7574615349,-2202.1746460587,2290.4311035541,-6949.7131539019,-424.7492938147,1750.0924895935,-0.479888927,0.716143941,1.2108736776,0.6510304182,2.6070826589,-0.3352278301,-8.9592933983,1.5861415934,-0.8765527561,1.5367493529,-107.7790771555,2.6363758139,1.8499533816,-0.2526069795,-504.1285940336,-367.6620038651,4074.0888574337,-10.7637032713,5822.3541238004,-3543.1306568776,242.7290085584,3535.1142191564,-3684.1755674502,3473.9952853641,-4847.9167698368,1252.470719835,160.5724950936,-3708.8302274369,0.3136680976,0.8993561202,0.730217854,1.2677902542,2.829830213,0.5672313694,-65.3767183537,0.8940513672,0.5121900895,1.7532134175,-0.9347977175,1.4858356309,2.3762915398,0.7920757702,-0.4854442136,-0.9900074761,1.6015007311,-0.667400682,1.597514281,-0.7012915109,-643.9401954777,3.345158098,0.3508463033,2.1558816508,0.0453009478,2.4386439165,2.7898780112,-2.3706459774,0.6631278523,0.4587852264,1.3651368702,1.1097563657,1.3191409443,0.0387815362,-387.8180407248,0.7262659954,1.5169642092,2.219135971,0.3707352916,0.6554939042,1.2140260739,0.2256645399,0.5255487117,-0.3725666425,1.3500848031,-0.2976095253,2.1147553634,1.2080458191,-71.3990851027,0.9708966628,0.979900687,1.8089036822,-0.2810869545,1.2706536191,1.4114001545,-2.0930613531,0.3837608008,-0.0948948268,0.6707602741,0.7447072584,1.0524225594,0.4525567676,-8.7329518553,1.4062569435,0.5412887372,0.5656274937,0.6224504151,2.2214057466,1.1555449365,-2.0171069817,0.351883467,-0.5757090295,0.4761010249,0.8312730984,0.8669294878,1.8976162955,32.9097386397,1.9885516872,1.6738177076,1.543757913,0.0978346046,1.1081262758,1.3826051747,-1.7555992492,0.5907678721,-1.2948528296,2.6403134448,-0.7116406338,1.917150003,0.6309840809,-15.8473257345,2.4005520339,0.5804910509,3.2921139479,-0.8576938253,9.4476912502,1.9919860585,-2.4745763536,0.4403329625,1.3421757348,-28.7749535008,2.6344015913,0.6244838124,0.93683154,3138.8430595889,-31.9587902196,0.2572550414,0.946776973,1.0378362624,-4.0417787114,0.7393378256,0.9896417138,0.0957328019,0.2011672597,-0.1369684328,-0.6483996539,2.3792928583,3.8231385266,-4.4370969177,1.4057184002,4.5011914339,-2.7901703428,0.6438717211,8.3299585494,0.0949182385,-2.2431199474,-0.2820611629,-0.1004810432,2.0777816067,-0.9041925941,2.1884325797,4.8882797272,-329.1963946316,2.0312160739,-0.4427543484,1.9016220595,-0.5594379054,2.1849327291,2.5074320698,0.9381657294,-0.4302703853,0.364706728,1.2835480911,-0.0990688494,0.4095633456,0.9033412779,-5.4120447591,1.9010295684,0.7882253701,1.5679631026,0.4674381201,-29.401604601,2.4087242667,-0.9458411212,3.3030677344,2.0214787873,-19.2554675839,3.6813338356,-10.832182936,2.858694746,5809.0446872224,-51.6315596304,2.3357661173,-0.1747436706,4.0246470466,-10.0414161871,1.447860876,1.0524536775,1.2042790091,0.2694973538,2.113218864,0.6172660176,0.1049959106,-0.0665992707,14.008321526,1.8779059687,1.0469872166,2.0668705335,1.2260595896,-3.8910361376,1.6380728684,-2.1182904604,-0.1916317983,0.1899299101,1.8752750309,0.7193932955,0.6812892423,0.6380341159,-1.1722053204,-0.5810567797,1.5869229973,1.9419611237,1.0100291599,2.2605156647,-20.1255547072,-0.9203025115,-0.3148433578,0.7423693443,1.2107273627,0.2640013687,1.2012706865,0.6283918409,5514.3782231296,-196.3123578442,-0.3472834285,2.2297876631,-1.0964635944,2.2241495755,5.3105932155,-1.1215910645,0.6857305558,0.2345414142,0.7266587924,-0.3879180254,1.5151705517,0.1734048668,9.209848116,2.6121919718,-0.5855538307,2.5920491597,0.5549596636,2.1428275341,2.2062563494,-2.438894984,0.3614916319,0.7457003771,1.1292110968,1.2222423185,2.3100806471,0.3635621762,8.9291106359,0.514955362,1.3733950624,1.4641870708,1.1586996499,0.8440296877,1.9549660028,-0.1972750118,0.4435834924,0.2509710655,2.0275395225,0.8831633294,2.1038576344,-0.2019910468,-125.6135953422,1.8220554425,0.0438590162,1.1280297735,-3.1972244766,2.0280194678,1.3396751882,-2.4347369445,0.1559260528,-1.0793162334,2.9210537608,0.01892933,-0.5048220586,1.4836379381,87.3627144425,2.4466671875,1.7918973824,1.6587234946,0.6829913543,17.2190435537,2.4527462902,0.6496229972,0.4073245204,1.0153084956,1.9508158697,0.881164595,1.2318899702,1.1431498978,-0.4388380303,2.2845536594,0.8005667341,1.5239099532,0.263921899,2.3397536329,2.2080972681,-1.0237132156,0.1295231082,1.2168743238,0.2023113695,0.2819255615,0.6482541365,1.3242059129,-2554.0827297715,0.0756163011,0.740699998,0.2433785748,2.1901056539,0.4753236546,0.0905282965,0.4959325382,-0.6269804295,-1.297104119,2.3707178017,0.2516949019,15.7974564188,2.2757008641,37.1673645117,7.2160170694,-1.3375811878,28.2974644162,-718.9202206038,14.0316272491,14.6305471715,-3.9144328963,1.1381233443,0.5578488012,1.1337160973,0.3434784474,1.5808477788,1.3707322382,-48.7778046876,1.0836917204,0.1183452725,1.5619658231,1.944062588,0.7990480727,0.4395503127,0.3394032661,-0.0931940177,-0.8086683288,2.0717640195,-0.9196493051,2.4790651199,0.197336703,112.2287136633,2.5845961088,-0.3516800964,1.3525136192,0.5880178096,2.6245553457,1.5043495674,-2.5696259642,-0.5059713037,1.0061849348,0.7210488475,1.2900601954,0.7014878193,-1.3183148661,-209.0152391389,2.2667986268,0.405286817,1.450727994,0.5351551106,3.3228709295,1.6507393925,-2.2113280395,0.6567137399,0.2498185123,1.3571225063,-0.2147724888,2.1550133043,0.0350301719,2.4527533685,0.9887251279,-0.2004896502,0.3800446785,1.3112266714,1.1722045767,1.1901949765,0.2993731061,0.8633853332,-0.5276600735,1.525487104,0.283099279,0.4374456318,-5.5848212647,-69.0225692245,2.4063811202,-3.8965361015,2.0963974946,10.3493520851,0.8480117451,1.6621339179,1.1926810988,-2.1980974331,-1.069185841,3.2089050079,-1.1975616806,3.4786378487,-1.4795632818,-520.6740149378,2.0482387674,-10.6900946078,3.7070048411,-43.2761005577,4.2628696606,3.9674351664,-1.2253018952,0.0586981695,-0.2450585824,1.0696995624,1.5487618752,1.79064293,0.8490368029,11.8368716007,1.0656246457,1.3597956167,1.2598760083,-0.1549649361,1.2833589919,-1.4967023596,-1.9136637163,0.3597712616,0.9735832901,1.8182469949,1.3167544104,0.727227988,-0.2793753747,3.9847526349,2.0368153154,0.760022531,2.2309505253,1.3161587666,2.1184547952,0.7602929272,0.1407724986,1.1234255934,-0.1547322339,1.4208884536,0.0296661409,2.5851494396,0.9247467244,3.8515342745,1.8779700814,0.5060670224,1.2655687326,0.7669840647,1.877032384,2.6371835815,-2.1349907223,0.707036412,0.3744131449,1.4277650369,0.5837887226,1.8152367214,-0.0170457084,-94.804135329,0.7294422754,0.1643547102,0.9778655229,1.0178841362,1.6888848375,1.87740059,1.475451277,0.6372305003,1.7587475001,1.8254618854,0.9445823945,1.6944192672,0.9459501128,-289.2055493409,2.0820403376,1.8949750061,0.8364389324,0.4321354503,-3.6136500548,0.4426775815,0.2540728789,-1.2058645306,-1.4586628096,4.9697172867,-0.0264551942,5.6946583235,-6.0378297823,-585.5652667663,2.1536398963,-17.4816345148,4.4135436417,-1.3573339866,3.6831869524,5.0228735573,-2.0209155971,0.4979700325,-0.059935381,3.0419636416,0.7280375201,1.7765692599,-1.2885720932,-196.5864438709,1.5004261958,-0.692704489,3.0688812521,-0.6212905235,1.8408861367,4.0354555724,-0.3180622921,0.1172714183,0.9675756798,1.230879837,0.9525012959,2.0713436922,0.4840588822,-44.8104345764,2.0746690135,0.1120489312,2.499467965,-0.7582496209,1.5899153016,1.7318832775,-2.2384985862,1.030708625,0.3908842676,2.4016619517,0.6045993409,1.4551447412,1.3440057906,0.9288916002,1.6975984936,1.4767249318,2.5155143629,1.1248210108,0.9622175579,2.5450331296,-2.4898411965,-0.2283469073,1.4294448734,1.1753987563,1.3661652951,0.6530367479,-0.1519506765,-50.0838273357,1.1815143981,-2.1777640219,0.359960618,0.4799667487,0.318058343,0.7815852484,0.1522945747,0.1000613086,0.0259741737,1.9172765435,0.9692829222,2.1875781467,-0.2560740138,-152.0580660887,2.6887442206,0.0436934405,2.9420207591,0.7592909306,1.7447576181,1.301998639,0.6860111041,0.444330886,1.5243314933,1.5809084313,0.1599357603,2.3648071191,1.483041587,3.4470848124,1.0485933896,1.3051899615,2.2771553435,-3.4687633951,0.691097075,1.0131281038,0.4738462812,-0.5196142294,-0.1032317561,2.9192178722,-0.8608831737,1.0202390939,-0.3889769901,-593.9226153103,2.7042330415,0.0280599305,1.9786345156,0.1738420109,2.6435312118,2.6074506914,-0.3738063831,0.4141591077,1.1317184986,2.1883768759,0.6034631683,2.7942545341,-20.6855004838,125.3432692648,1.7250589479,0.8827982047,1.7819128416,0.2809160229,0.8757097466,22.9194457322,-1.3019028558,-0.1232321011,0.3495237181,0.9494174469,1.3571284239,2.4697326257,-0.3618198721,30.4529291042,1.82938715,1.3595628189,1.9248707428,0.8381892633,0.8731014772,0.3978947665,-1.815555976,1.3040388784,-0.4332872006,1.718975606,0.3245395712,1.223417534,0.7358457244,1.1844423911,0.7087265089,-0.0262694386,0.5901919973,-16.9674055908,1.455790818,2.0726030673,0.6703543439,29.2697604255,88.2911876886,-24.8500735552,27.8403757344,-25.2398523278,19.4885426241,5981.1324429571,-21.6873393342,64.1519854555,-24.72152513,147.2458730839,-22.5552262708,-53.6184912699,24.6746105478,-0.336991746,-0.2547973187,4.8141582037,-0.803910279,4.4327226954,-107.2289565617,2258.3043841156,3.9587923009,-12.2812465527,4.6497176501,-1.0960611744,4.4111179152,14.6066959413,-0.9508849406,-0.0296319932,-0.5869061257,2.1926115556,-0.2124744702,3.3231167115,0.6261213532,-58.1111502914,1.7121152966,0.38455456,2.8466953878,-0.2621012152,5.0415657877,3.3918123289,-2.1245069133,2.0974461007,1.810186677,0.1923396956,2.0959981546,-5.147619509,1.7519896235,1448.8234371087,0.9295233618,1.5796725291,0.9547343454,23.2308051907,-76.1215372055,0.3597456257,0.4103368672,-0.5353825708
   -1.2109338809,2.4833675539,-0.6391160905,63.7277243788,-0.0802326896,2.2036226247,3.2353056571,-1948.1671943293,19.4110277342,-1.1863955319,2.694970515,150.6233054751,-0.4631686209,0.736998735,0.6650418416,1.3205298809,0.6386601629,0.731047754,1.5088954581,114.2442873134,0.7597747936,1.3564771988,2.1130678777,2.4396630574,1.1214226516,0.7971880247,0.1978306803,0.8083574368,-0.3748041976,0.8388391448,-0.3294036993,0.6250772937,0.0074346173,-41.9600308756,2.0961874011,-0.1927120767,1.7125535075,0.4295015347,-0.1458615745,0.5599206555,-1.2255497231,-3.4378172568,-1.4600325824,6.9103957484,-4.9198096151,7.7245523586,-4.9002156151,25.9814886423,5.1145092261,-6.8880946658,7.5818783215,-6.1115525651,7.0901132535,2.560196963,-6.5553088037,0.3302101265,-0.2128585347,1.9846290314,-0.1831205742,1.0117201388,0.0353026936,-111.1572462983,0.6695780091,0.4752177501,2.2232897499,1.2391670703,0.5269036354,1.4770347584,0.0546072035,-1265.4518794871,-1254.5697221239,247.6978488972,-953.6298137433,3471.9535427216,-218.1807102252,147.1948489491,1012.2771498899,-1973.116390981,615.7278529082,-3633.3618739202,265.1076945182,413.5277924367,-1267.6774529249,0.0109919185,-0.3099001066,1.9154923243,-0.5894235017,2.3493575881,7.8104891758,-189.4370248979,1.1823283035,0.0743565494,0.688416198,0.3646445976,1.298243904,2.1813778745,-1.204995748,0.7434361876,0.6379099624,2.2998184075,1.3666681166,-0.7026182006,1.3548799188,261.4760040685,0.9702113258,12.963815624,1.5328614619,2.6715311125,2.0668867076,-0.5706597487,0.4614546704,-2.3567929845,-2.4082071595,7.3339093557,-3.742083732,8.0423463386,-0.6479712277,-841.1254991922,3.9450599519,-2.3643578006,3.0050711482,-3.198675641,26.4075976923,3.3756439251,-2.6081905411,0.2893833965,-0.4247801235,0.9666963524,0.3415961815,1.2416749627,-0.0243926504,-0.8342280557,1.0908109987,0.3260404655,1.8796649215,12.2019440318,1.3127006049,7.2328552927,-0.2581445097,1.1849293934,-0.1815051786,1.9136077534,0.7327353961,1.502928816,-0.1571162266,-206.7586132003,1.0099542263,-0.3731375613,1.4172897136,0.2062593658,1.0613354387,1.0979688323,-0.9341055935,-0.4800676918,0.1579076325,1.6808390395,-0.032082317,-0.7517182876,6.6615828667,-5.184791983,1.93238511,6.105542697,1.2329100748,7.4452979196,2.0534707744,2.3127702749,-0.2307788828,3.7732800984,3.9135973215,-1.9372601919,2.7958724125,-1.0782397471,4.1986725134,3222.0047757301,-0.4549232757,5.6076283041,-0.0256058426,-11.7244990248,1.7065392344,-0.881016105,2.7823108733,1.1338854136,0.5508956424,2.3580798496,0.6468096406,1.5567015612,1.193761883,63.2489530792,1.5396125435,0.2780929728,1.1573133152,0.2268056876,-0.0507255539,2.7725528761,-0.9918672295,-0.8365883214,-0.6469384117,1.4454640742,0.7409936783,2.6080115343,0.9019178289,-429.4074965844,2.3306542509,0.6100704125,1.1306037909,0.8678479888,2.5992426174,1.3730694543,-2.3555243384,0.1126589336,1.2960135981,1.5222779983,-0.3884066906,2.1019385379,1.683352366,23.8677898904,2.9264993663,1.2663082522,1.869411172,1.1008030598,2.1690844608,1.6292159819,-2.5829244512,0.9947714993,0.8234755848,1.3989404775,0.7955970489,2.3517030264,2.7467477988,-12.5651558944,2.1038971057,0.2583639927,1.792928977,1.0119996828,1.7244284693,1.4688660215,-1.951025124,0.961068897,-0.4893756012,1.8338679742,0.6439184332,2.3718289787,-0.3883905911,-19.2853941918,2.5225534495,1.0377470929,2.0278761786,0.5780888599,0.8939467677,2.2121178123,-1.3784317273,0.069611085,0.3766534067,1.2142010696,0.4829457652,0.3661663213,1.612664907,21.7320376391,1.3694412624,0.0634921676,2.1458977837,-0.1717661216,1.2948988751,4.2308591664,-0.0795970681,-1.7766966546,-2.6693841422,4.5015760226,-1.2898319604,6.7148783876,-1.977384991,-39.5484428547,5.3402778252,-8.4961660798,3.9848566207,-2920.2726164743,8.2562118337,6.1074812619,-4.5285225575,-0.4079447725,-0.7732614724,2.7894348979,-0.3880299626,1.0557678833,-0.4858026217,-10.131810772,1.2597222164,-0.0280945863,1.0450402128,-0.0878943186,2.218776233,1.1919493369,-2.2674898609,-0.6419818686,0.8546533842,1.4358544879,0.2480095632,0.6515245435,0.1072711872,-22.7622767553,-10.0880411927,0.625151051,2.3730369734,-0.7547320487,1.2450598924,1.0081966276,-1.3386888488,3.3107715149,3.0041032713,-1.4576248643,7.0223551865,-1.4352340972,2.5792409834,-591.5685054337,-3.3712061974,3.4826938951,-1.6110363641,5.8730230489,-65.2789631741,-6.6923661867,3.3817033755,0.6969948667,0.4523396978,0.9466256185,0.8509957065,2.7692765948,1.0368616278,-53.7087807926,1.0866663213,0.120359572,1.9157279267,1.1262148395,0.4785916243,1.2599969093,-0.8140579244,0.0834001462,-0.535068698,0.8235993704,0.7373899516,1.569718863,1.0491399967,38.3790167894,1.2153191407,-0.0049575359,2.8290966903,0.8143993612,0.3805158043,2.4838688013,-2.5402023217,0.2915734558,-0.0313596894,1.8559647144,1.1622667789,2.3998234619,1.0331136764,14.6271392332,0.957509429,0.8213064658,2.2462529579,-0.2549205989,0.5281561356,1.8060602811,1.3670388629,-0.1622712118,1.4110529676,2.4146511954,1.4317370918,1.2665423684,0.4823032958,4.2474461951,2.9760754503,0.2788077986,0.7480136246,0.3768053395,0.3225204676,0.6460146136,0.2066520902,-0.368351414,0.4608024495,2.863243117,-0.3444638886,1.4814088801,0.0671206717,-381.757759957,2.0621907565,0.4128077708,1.9883418935,-0.1440257565,1.2539838436,1.5703240939,0.5013968132,-0.4869065901,0.5045701031,2.5288859589,1.1495424337,1.8358442419,0.808798942,79.1908459567,1.7658127754,-0.7056092078,2.4985654792,0.2996285057,1.5547675032,1.0039777267,-1.3899870248,4.531720121,1.1981542616,-2.5888588908,4.8604516176,-2.0925100101,2.3266813073,-1854.4926703087,-2.7568050894,-0.7007323102,-2.5216929029,-757.5315840623,-1.5221826504,0.5707065266,3.442127983,0.2399808457,-0.9155053372,1.2809190505,0.5591742495,2.7901035701,-0.6101862096,60.3301045542,1.579249058,-0.5187259502,2.2493830281,-0.9557384169,1.8818395029,1.2908423801,-0.2296262448,0.872416564,0.0291897237,1.2949974065,-0.5264063149,2.0688348236,-0.2241029159,-2.1210405327,1.5794827829,0.015947233,0.1359207446,1.1074378811,1.8895119875,1.3670099631,1.0599086377,-0.4346490013,0.7413734544,1.5991092585,0.7810856148,2.0123444135,-0.4448618494,-2.585675952,2.8244598503,0.5581625388,1.1652838367,0.0849690747,1.0295744184,1.6792207562,-2.2129270431,0.2902914128,-0.3356272075,0.9389751649,0.0290488102,1.0007905357,-0.2644266672,31.5354940424,1.317060642,0.2416428216,2.6252548601,0.9959818219,1.0100047387,1.9011929725,0.8278183586,0.6500258708,0.5617814791,1.465991056,0.0331257961,0.9868703561,1.0904601098,-106.5458608079,3.6531864621,0.1092183125,0.9588514946,0.2240042009,1.7849962617,0.9486365069,-0.0854229138,1.1605641228,0.4674217981,1.285606423,-0.5031604735,2.5578818992,-0.583292718,-13.5109316245,0.9947415848,-0.6470690049,1.2635521499,-0.6499948059,3.0908447794,1.5655845973,-2.6195518822,0.8111808082,0.2897976532,1.085972743,-0.0533380031,0.9992121241,0.6018217957,84.3055305841,2.4270979639,-0.2427821785,1.6896465604,0.6532993375,2.12854793,1.4125085841,-1.39507642,0.293486031,-0.6340972385,1.4210483846,-1.2430958698,2.9689373491,6.4841017192,-306.3138046838,2.8328855696,-0.1627880191,1.8318688842,-13.2118682866,8.622096929,1.260842289,-3.0396437774,0.548592516,0.429073572,1.9610466492,0.2591938251,1.2195026127,0.2667809992,9.719525621,1.0082969599,1.1061738056,1.0259352559,0.4575888829,0.7049759203,0.4023649388,0.8852662876,0.9995407105,0.5725596954,2.3697442441,0.228382723,1.2739141093,0.9185602965,-2042.9824872308,2.0574293064,0.3139594489,1.5925937127,0.4936406787,1.7292763347,2.4322030963,0.4237049248,0.0856659487,-0.0141182685,3.2051458113,-1.2038878418,2.9845646625,0.1013728988,-514.4552986662,1.9248661448,-0.6276017271,3.0101281425,-0.983324052,3.1264511769,3.7671844695,-1.5322104636,-0.6433287885,-0.1750941315,2.212807619,-1.4291074124,2.5748462938,-0.4548651633,-76.3501770202,2.3036368424,-3.570603611,2.9880686744,0.7426284811,3.6779752978,2.5206049114,-0.6070742404,0.5454400511,0.5751834822,1.9144120264,0.4726706477,0.7289528435,-0.4361380383,0.5063638036,1.5561128308,1.1952089596,2.7315152027,10.9137215478,2.3813128662,0.9533263931,0.6946262562,0.2244984417,0.0992720482,1.7271349788,0.9315695284,2.2189137414,1.3688668078,17.0154585635,1.0360167763,0.1063991217,2.3953837181,1.3035246668,1.1914424333,0.8059959168,0.1880069185
##end
biasActivation=0,1,1
[BASIC:ACTIVATION]
"org.encog.engine.network.activation.ActivationSigmoid"
"org.encog.engine.network.activation.ActivationSigmoid"
"org.encog.engine.network.activation.ActivationTANH"
