encog,BasicNetwork,java,3.2.0,1,1430005745985
[BASIC]
[BASIC:PARAMS]
[BASIC:NETWORK]
beginTraining=0
connectionLimit=0
contextTargetOffset=0,0,0
contextTargetSize=0,0,0
endTraining=2
hasContext=f
inputCount=13
layerCounts=31,105,14
layerFeedCounts=31,104,13
layerContextCount=0,0,0
layerIndex=0,31,136
output=0,0.0000015775,0,0,0,0.0000798245,0.0000605285,0.0000000009,0,0,0.0000040571,0.0000080065,0.1288402134,0,0.1264906083,0,0.0000000034,0,0,0.0000063733,0.0294078694,0,0.0000598217,0,0,0,0.0000278217,0,0,0.0000001841,0.5729878362,0.0000000714,1,0,0,0,0,0.5023104949,0.1684056464,0.2305997066,0.0001756147,0.9765424914,0.9999837157,0,0.9998249384,0.0000000179,0,0.9450701671,0.8697636108,1,0.1972936674,0.1754569273,0.0445016601,0,0.9999975915,0.0000000513,0.9970629445,0.0000010148,0.0030421503,0,0,0.0000373017,0,0,0.9996071625,0.0000008858,0.0009614026,0.9999473807,0,0,0.46440062,0.5558857395,0.9989034889,0,0,0.0024159939,0.0264384203,0.3420795301,0.0000864895,0.0184866602,0.0007146776,0.0146335022,0.0000000001,0.990294015,0.1414089682,0.0000648812,0.0004712697,0.248564406,0,0.7219982907,0.9887854599,0.0567039031,0.187363724,0.0000001787,0.5214627092,0.979243665,1,0.9641586552,0.0000316997,0,0.0404557927,0.0000008155,1,0,0,0.0007439946,0.0047329342,0,0.9120698567,0.0001050545,0.0000026205,0,0.0000001246,0.0000080083,0.1022180541,0.536880629,0.001041505,0,0.9997567653,0,0.0004893797,1,0.002691284,0,0.0010310273,0.9386994517,0.0000000004,0.0005804133,1,0.3681466389,0.0000000629,0,0.7939052308,0,0.0116625424,1,16.0554582586,4.5009250969,-5.1397757292,2.8587261149,-2.2918474114,0.6921720121,-0.055551516,-1.3829962405,1.0520797272,-1.4524249988,0.3553430247,-0.3747530271,-0.6205763011,1
outputCount=31
weightIndex=0,3255,4711
weights=##0
##double#4711
   -10203.149551435,0.3733126507,0.3628232307,64.8869433786,-0.6487481619,-5093.0338337408,-0.3150899706,7.2579923839,-0.6740943119,97.7385262718,0.0986117569,9.5069860284,0.0483227216,-0.6096888638,-4981.6144028842,-0.7596180839,-0.5170607479,0.1006650735,0.0783886159,-0.8675785546,0.5089063347,0.2043743629,0.4504536739,-3.6182948898,82.5848501666,-0.4230406189,5618.096907532,66798.6345321258,-0.3169684557,-5760.0705090306,-8.8269233001,47.4188206938,-102.6092773611,-0.5840273928,-65.3012546651,-8025.6162884728,0.1886858406,39.8937665981,-106734.188849476,-0.1108426064,-0.2714878904,3.8655502383,-27.4454839804,-1.6551556778,17457.6635341217,18.9684764548,1.7496734525,-3.2542595644,82.6170225582,164.8806537856,-1.8740346549,279.5416059332,-0.6696119046,2.0348824288,-18948.2794131356,-31323.8141550985,-0.4400975135,97.1330585387,-0.5815435935,-448345.11113116,-0.7421027573,0.146559272,-19289.6180326016,-0.1189112585,-0.0316795073,0.6232167151,-0.4569444468,-9428.3255095598,-0.1713738552,-2.2622153202,0.0422608876,0.2959870877,-22.8872633604,-214055.4838646555,-19799.3299109074,2.2000342867,-25.7979297425,-0.0762313527,-296.8559553245,7174.3176674791,-34.9868901096,-1097.3437637605,3565.2898644264,-0.9833491708,0.0981882518,-6452.975691291,-613334.6471262339,4.8708570786,-10.6286617128,-4.8015614376,-0.26853748,-10834.2208994365,10.0014312959,-111274.665448622,0.3731133858,-32.0050835412,-173.0988118375,0.3039801168,-0.8102653199,724.057090784,29425.6668436495,-0.2634018812,-7009.996648469,-34.4770476904,0.3178356878,-53.7512280487,-4.01817117,0.2493291889,239.2767827664,0.9270101787,-2.5987370175,-0.2994140003,-4.0404542218,-0.0143634998,-742.7597225172,-0.2277073402,299.6504739025,-0.0783814498,-0.6398841395,16741.5167289475,0.0187719965,0.4570994134,-1.2027958839,0.2544372332,-0.1825392395,2.3356889612,82.2328498388,-3.8512691535,-32.2170010036,-68000.0998772999,-11.3546466227,-20577.4649848153,37174.7913093784,0.3005152815,784.690464493,-148.1375872721,-197.8157874702,-5.9766701195,-0.418921452,-88.2323934972,2307.0476052125,0.13553909,0.0907718188,-516643.1634662274,12.2830618144,-0.072660842,-464.6853481795,-18.8945989998,-0.7119927087,4822.5270082728,-18.8290236991,-1.0905891565,984.8647814127,-0.0107062363,107.4424396832,-5.0183026109,107.7386743572,36.9256809878,-28.2757402007,-31220.6749112505,-7798.4747203952,0.093057574,90.8258800711,71.665743458,-46.7619126632,0.1632601832,-0.0582506624,46126.6694729297,0.0623739959,-0.086138356,0.0091803141,37.1072137928,-12769.4673778273,-0.0350294542,1.5773727573,-258.4591815069,-0.5376594909,-16.9017077896,-78890.7216789517,-334.3161899789,-12.6691445906,77.0955904501,-3.371585926,-2757.982611547,-237838.1110525249,0.753048498,18402.6529763222,-10140.4210336085,-0.267595892,-0.0214862417,-27241.4818761084,-22223.8095961448,-8.7742093965,-8.2979115023,-3.2902469659,-0.6438178166,16705.664674017,-101.2781487594,-4045.8254923943,-0.6193799584,119.8856948347,564.1308875765,0.2663483321,-0.7242263616,554.5338133183,26.809791263,0.8846857161,40357.1137892063,-14.9273764594,-0.7654726092,144767.9486836685,-0.1317353633,-0.0608813173,297.4542241339,0.122307363,-4748.2780676574,0.0897408943,-370.4623651791,3.2849752972,-109.7253390976,0.6203509236,-48.0807500687,-0.5847298612,0.1012725057,-186548.3476596271,-0.7026740287,0.3848813062,30.1888967751,-0.4872127638,0.3244536984,-0.2839962471,-6.561605336,-0.5052691515,-228.788416378,-1279.8785551116,-0.0164238381,-644731.119611115,285791.180160919,-0.3659505192,1504.2006345211,-29.325351697,14.1133197495,-3.6103850727,-0.4108528123,-12395.724638493,23593.0492922567,-0.5078000674,-470.2819480048,-575226.3176355523,0.4951477636,-0.2749916415,-7.1623914967,-2.6722017953,-3.1265390716,-70606.8730276366,-2.4153757948,-0.8153335693,-27495.7544287968,-50.0607093594,197.9993040102,0.3939966915,487.1131004356,-0.363892887,0.1815776962,-155765.5720768209,-6028.0777284143,1.874806766,137.0307671487,-0.6261955289,-463722.2467300895,-17.9329578721,0.4285489204,10231.6982750795,0.2398407314,-0.0697360748,-0.4654551465,0.2683665568,-22015.9572279212,0.0296772742,1.2827201157,-0.687746179,0.1834535274,-0.9036606008,-3243.6784456929,1014.8523607886,5.9454206469,-813.0435103059,0.2100660929,-63143.6418373953,-386356.5918375481,-29.898735425,-0.2075456268,-17222.8525199248,-2.9286944147,-0.1920226639,54.7094456002,-80776.0435616965,-0.0404141794,-0.3482528627,-1295.9542739075,0.0051241992,118934.4028388364,27.3187569318,-453449.1736126737,0.3551022351,-24542.7531374705,1880.9808293289,-0.3046539462,-0.7196957329,1195.4091133031,-109565.3776096105,2.3193099907,-14.2489675942,-253.5044790359,0.1597017491,-36.4741986173,0.4630376714,0.0311848116,-102.4540943273,0.5667539888,-93.2888433422,-0.1749040979,5.4190009071,-0.4151585306,-37.4319959966,0.1514361724,5.0963398216,0.5885291895,-0.4485610693,91964.7530672097,0.3153062217,-0.543526798,0.3845361257,-0.4432128128,-2.8486830345,0.0621224848,29.6727627386,-141.2904479711,-30.3397695899,-36980.4429883711,-0.5145271348,-1952.0516946708,-20545.375830101,0.2693725657,-71639.1809649083,18392.4083675693,-54.5594752464,-8.4068593855,-0.0410935508,29.3531423819,4305.9848988788,0.2346112022,-63.1865323878,-288182.8226399004,2.5498717154,0.5166073998,0.7778963139,-6.1476475748,0.3775842479,-81.6300658872,-34.5418801621,-0.3022702484,-6397.4111227636,1359.6320744237,-15.0989304939,-2.3212970663,-145.9595922217,0.5498039464,26.2729007632,-1413.8388952472,84758.9504585821,0.0267581937,72.9706366964,-0.2264930106,-49.9907758766,-0.3568400747,-0.2621334934,1650.758480089,0.9181173582,-0.3034722327,-0.507462077,0.518325564,-1391.8875610466,0.4130654981,0.4216746833,-0.2989385335,-0.3880968311,-5.0446663028,-1837.1762816398,-20302.241711873,0.669569991,-98.1797742166,-0.6981141814,21097.2590923767,-130.807687071,3.8388683497,-80729.033801878,27407.6934331977,-23.3195841661,0.6570679335,-47775.4970496677,-680647.6523492034,1.4363282539,-2.580160032,44.0369416207,-0.4422497946,-582.4751438583,45.358899857,4458.8418925136,-0.707896069,68980.8202735062,1033.9518607833,-0.3919603841,-1.4345231511,692.3582636105,-6.6426148659,-1.9155272347,-249.5683563624,0.2481041634,-0.192728032,23250.0260035791,-0.1728134278,0.2990946161,179.5351543539,-0.2279496468,-22207.9554419561,-0.0885638132,15.332844536,-0.5982642106,-22.713413321,0.7040072396,18.8757765556,0.4439080032,0.4530263744,-288.2190798366,-2.6215124407,0.5316801576,8.6712053563,-0.5293249248,-0.4198001804,5.2819979706,2.1946002112,0.3778155731,-224.2243569062,638.1106744238,-7.5103430826,9.0233034112,-86278.3221568614,0.1988819342,8.5551261798,-0.6119842824,-8.7905787991,2299.7471507313,-0.3989924503,1964.5816787431,-100.7596964723,-0.7357290543,525.4187305665,163.3619906029,0.1047547683,-0.2467742191,22.8484486122,-0.0092062848,-2.0117302362,-4924.0213426712,0.5442097255,29.3344763011,2590.2465208575,-410.2471658198,-680.8917156048,-0.6176569548,-11.4670668564,0.3867066415,-0.8612677952,2312.9705480106,-527.8864066154,-1.9072297999,12490.3122621488,0.0551155473,3.5004877542,-0.2120918703,-0.4709101893,-13502.0305314831,-0.2715295222,0.0195016026,-0.562904673,-1.1924254341,-0.7254932009,0.2508066142,17.0232830808,0.1901664956,-0.4823129837,-0.9331755579,-128568.1443861208,-2853.8163295701,0.2657432727,460.5553734862,0.5245049025,26.6583367135,33414.8505223382,14.221373102,-0.6237749349,-0.9234468364,2.6221399815,0.1027549271,-39.591515233,-70.0102089769,4.0188814105,0.1336837031,-1.6409550215,0.0915455195,-6814.1865598255,-17.1224823394,-162270.5969753292,-0.5591847614,10933.6316920907,914.7988856357,-0.4607576012,-0.1781475323,768.4859364856,4247.427484615,0.1708697019,-0.7201384034,100.5411868432,-0.4887924184,-0.5162510013,-0.4099860332,-0.4062017113,190.2142988942,1.1056974537,1.6236279564,-0.3527573783,23.7139070496,-0.6317119884,30.9674502832,-0.1121567396,1.5463216301,0.7010393358,0.3900177777,-27334.0160498079,0.198543455,-0.3571308529,0.1197784604,-0.4885942246,-0.3922868713,0.3002797927,-45.9454848139,0.5856008815,-3.2314056223,29252.998848563,-0.6505820223,1884.5636183771,7160.267207081,0.6090358064,-438080.1485716123,426833.0390605976,87.5128140799,-1.5955500527,-0.4510318369,2.9038057423,-813.2522213317,-0.2552369914,26.2435969463,-61615.4848699922,-14.2013653386,-0.2082081644,-0.0107596062,-5.4355463962,-0.454859966,-2192.6465448093,-34.8195788254,1.0045322581,-15.3891982903,-0.3008861147,1251.4503557011,35.5958299186,-837.0695301033,0.0021427204,-6.5526872937,-95882.9582497177,20630.21549937,-0.803971708,92.8715589505,-21.0261809393,-24.5432683472,-4.5695446266,-0.0934906734,-76909.723034257,24.8987328642,-0.1850005069,0.2288340956,-1.6717786697,-72007.5708552998,-0.3623267928,-71.1977294663,-9.6735974167,-0.0644355144,-3.8841916484,2805.4078193377,325.810414873,-1.7193139874,-56.5574792836,0.0618576505,-30016.4867789389,165464.8744857098,-10.2989504296,-538906.2296401854,144182.8778889072,-7.8757058366,0.7127612754,-1158.7214561776,-279307.3692754697,2.1382484782,-2.6238669837,-17.1289427172,-0.0521129899,1048.9470225965,-91.1477106168,185.0208796949,0.3503918182,9798.4114368769,-8.8312027782,-0.1904665738,-0.7488112616,-249.4618233911,-25.8736274933,-0.2014100848,-217.8060598517,-217.0153270113,-1.0057375981,-5947.6969375642,-0.8457698056,0.5109738789,92.0275709947,-0.3574492607,-8459.7510837959,0.5809089804,63.156909334,-1.0438109281,15.3701462411,-0.2776464207,1.8903319152,0.1114866282,0.2123218176,-26527.4388793164,-0.210987461,0.1945735303,0.1618110936,-0.023646047,6.319671135,2.4782948344,11.5949035065,0.5802563464,-16.7469668402,180.3429571821,0.182719302,4925.5497108917,6168.4126214781,0.4286364215,-343926.5680400441,-49683.8757401359,98.3733618593,-60.330429822,0.6455640707,-17.0890593675,-6739.577292283,-0.0034843057,-131.5111640383,-45240.0649055955,0.6274358748,0.1616407277,0.2057496002,-7.558205494,-0.6525311707,12.9216302041,-0.8009656256,0.4990709433,1.7068330217,-0.4085133153,69.9015872661,-0.6578104467,147.2991299835,4.98090727,-0.5257993106,10311.7846576044,28347.3004886082,0.3889022438,231.4030954723,-9.3966526939,2.3463219876,-11.0219032303,-0.5374047735,-19649.4761107017,0.0099821532,-0.5933295748,-0.6165984724,-0.0606784577,-408.5710651362,0.537959939,1.7037886032,-1462.3975823166,-0.6531840304,-7.1807391319,-219987.5417933312,-1391.0450279213,-6.7837236819,37.6218698041,0.2665854975,2872.4790127227,-43.0974550247,-13.4842795061,294233.1737824816,-112699.5344796338,4.2392512612,-0.0259305985,-16588.8182804146,-617733.7931817851,0.494025695,-2.6349567714,9.3543244305,-0.46692581,-1535.0728899784,-53.8918309982,-7603.4602872001,0.6561548616,25505.5692895377,423.4970747337,-0.5074012746,0.2967244013,437.7486974962,-244.3098896791,-0.2773489906,-114.9552520654,-15.4780874553,-1.0185516696,-2443.4329849153,0.8259129972,-0.0443502566,-145.7775091104,0.6001474604,-35964.5815655642,-0.4131838851,1.0836499161,-0.1825830304,-24907.0834801961,-0.0612224339,0.4092034444,-0.4374065473,0.1231537319,151514.6695304993,-0.5188225644,-0.2590480862,-0.7294306929,-0.5417801231,-0.9658372667,-0.0935947805,-3.4677088953,-0.1973777981,14.6009865761,-1536.0593826943,0.3388845602,-36000.7675107265,5162.0005584388,-0.3631716935,-25420.7353549827,0.4596238363,-956.2564651461,-0.414665419,0.1594646965,5544.6053501183,-6649.6353604058,-0.363527137,-451.2581083197,55.6287037085,0.4650604504,-0.8565317574,0.9528601122,-3.4828007792,7.5632903867,-0.3722961353,15.5416269428,-0.1221816873,3344.508007269,9.0254771135,-1262.0248969297,79.083073608,-1097.2999213264,-0.8771567531,49.7531945299,-62545.1841907119,-1498.5155035408,-2.2543922181,-51.0015266844,-43.3269890947,-2.8400201097,55.7074051876,-0.0811667165,-176169.9392898814,0.0689974783,-0.0125445535,0.3282330388,0.064809737,-83981.4361023672,0.0499955549,8.7854570079,4.0974465296,-0.7409278844,-2.6459634754,-7256.282827633,-1449.8017518255,-1596.6431467572,-260.5765508804,-0.4696581542,15336.9750417267,-399.4291213144,28.8470832524,-41665.2756449306,-5013.3646297519,-0.4486084956,-0.2946004916,-984.196310907,-29.5154228528,-0.3316466939,-1.2442070496,30.8772764563,0.1716068661,0.0244853503,-107.816382089,767.8770520126,-0.2746781106,10101.4379028631,1005.2964615975,-0.233682608,0.4524533722,-1173.4665780006,-32039.3682237821,-0.1354361114,-100.1567590063,-8.6228772232,-0.8816855121,28213.3665578387,0.4720857755,0.002013849,2.4540971433,-1.0415307188,-3741.0887773302,-0.2382175138,103.6627633566,-1.82045391,-797.9944074894,-0.4111023265,-566.3901704027,0.4242949812,-0.7986642263,-1882.9521616702,-1.128476559,0.4556178361,-19.2990374153,0.5392014504,-0.3462872283,-0.1768338901,0.0329167493,-0.79750494,-32.0522942477,-7592.7630515606,0.2692669441,-1286.5494751815,-82461.7924617173,0.3822559864,7423.9921286485,-2.4305294369,1.3012691148,-309.3658620744,0.6081817854,-393.0745500113,-13.9783899737,-0.0960314014,444.3007483142,-8540.2538027404,-0.6125722019,0.0116090224,-104.2907882239,0.489695134,-2.6540529353,1097.6780705576,0.4578636871,-1.7795408535,-3480.9427044801,-972.4572512231,97.3730564257,1.7534382359,-32.7658691358,-0.4529828929,0.3037665502,3550.7227194149,-1998.8150618347,0.4790974721,22.9268251087,0.4569162051,-614.6214243552,-0.7752786785,0.0269178459,-2693.5201390787,0.6585523982,-0.0549593205,-0.464627323,-0.6352797022,-206.9031442992,-0.3093237322,6.6414175698,-0.5776840168,-0.080686838,0.675045336,-574566.2683085223,154.6176696466,1.6536528927,335.272287439,16.5413566928,-348.3225609486,-1072.6374080863,5.8865275888,-110.342200183,-52717.6562980632,-0.2604552369,-0.145928634,-144.2163978473,1226.7460579688,251.4253212669,0.0378813447,-14.5513892753,0.1343986279,-3161.1728978966,-43.1279242487,-671052.7742597173,-0.2306325426,-3250.0772906126,617.6152515819,-0.3697499118,87.6682696891,477.4493915683,33265.6768966236,1.9547563446,-3.0577982138,-10.2485120635,-0.3310651642,-14813.7848197072,0.7133226106,0.5146768432,-1154.016565151,-0.2284741319,-366.2389407253,-0.4069052596,-23.4271105144,-4.5943860118,1086.0325153168,0.2632400334,1.2819008475,-0.1771414226,-0.3078377894,28847.701115016,-0.4702561138,-0.3393652264,-0.3925904504,-0.5474275762,-1.1068030681,-2.340068454,-0.8345109244,-70.8005875575,2.2877978973,-400.8418088865,0.3999901919,1904.3266779264,-2725.5008142082,0.2208566932,-3319.7485472783,13669.6006469526,-502.6376723723,-18.1716986119,0.2864742052,63.8155378018,600.6862951334,-0.5082618929,5.2945466681,-443852.9270970045,3.6578859538,0.2364161322,1.1651794486,-1.4755954156,-0.8364932967,11145.9161508047,-250.2823649996,-1.5410245834,-1066.0190845618,-715.5791705861,102.2633729583,-106.0146883119,-189.0597693144,-8.9815473097,69.7343409738,38061.2153492553,16505.5763132874,-3.3462715177,-275.8187982381,-50.8929447939,-13.5406597404,-9.5339894324,0.1193895588,-18575.5803755513,40.0808769825,0.5565104799,-0.6248575923,-0.4538498668,6887.2565488083,0.3665844943,-4.2298822428,-17242.5968905504,0.3690500339,-0.3944991067,-185572.9639964908,3983.7254136728,-1.9153856887,-8.2399573479,0.5884281648,-1237.3162284062,-36.2778387041,-82.2009092637,-80243.7802309591,49133.5352193046,-0.500370696,0.4922311061,599.7664984614,-496929.6256580645,2.3556755084,-0.0463742216,425.9240650364,0.1151551867,-3558.7731777043,-2.925789765,-16.9357160546,0.3530514134,6095.6605101286,202.7921818724,-0.4714908803,-0.1635595241,-1056.2452286612,-839.735070013,-0.7830244309,-81.9665151458,32.4198886137,-1.172988142,-92939.8950694942,0.3481774669,0.2555561676,50.7181561862,-0.0251820638,35888.1906474986,0.6388747446,51.0747999743,0.3882840988,-286.0487511483,-0.0810428852,-0.5833219458,-0.4640882546,0.7007723828,69919.0658717704,-0.1339012711,0.569452822,-0.9650350549,-0.4138334804,0.163111337,-0.4140922781,2.1645607026,0.5532025369,-64.4911901529,-626244.995346247,0.1830785375,-20671.1430642893,5371.2082872487,0.4251192333,-198516.8064940728,164599.3537197764,-506.2936059534,-2.1444482585,-0.1748409995,-69654.196383399,5003.1892591803,-0.3813027488,441.5497121295,-549404.5169504243,-0.2124586771,-0.4274588185,-1.8793489216,-0.1970447948,15.3819840498,1704.6563436642,-1.1278054827,0.2254607513,6212.6896338576,1520.9554467037,43.8447682173,-43.5341978686,-50.8839966375,0.7378858364,51.526080479,-87458.4291360304,7672.8903768346,-0.2484894954,-78.5891426733,22.7595224489,10.9582522984,-2.6410013359,-0.4009232712,-3793.3919881525,2.3747047549,0.0619628916,-0.9903405648,-0.206518674,-293123.5959277173,0.5153935374,0.5309000164,220.0608863344,0.6615970902,0.670305321,-29663.9501081452,-11256.9373909978,25.8809408288,337.6852522321,-1.087781311,-54277.0459111368,-275421.8938075349,4.7571083239,-470.6200427959,-7068.9074785448,0.3524187984,-0.2754696127,-3785.9892412689,-678807.2893759548,1.2631340815,-0.5238478181,-582.704954769,-0.5149435225,-5757.8824561561,-88.6495439817,-119.5233402053,0.5428388408,13616.075157996,-72.843481328,-1.0509167548,-0.1892388564,652.5478051501,16726.6692694323,0.2115672835,-27.3853717509,-2.7007647493,-2.3963110063,-4765.271537851,12.2959786375,0.7243188133,76.6141159195,-0.4323317583,550.3506856627,-0.1347435759,48.8083066462,0.2727349734,33.1212266551,0.09204586,-0.0387758368,0.4421253252,-0.2902235526,-736.2848164145,0.0193650417,-0.2202204218,0.5286912191,-0.114720623,0.2538047115,12.847369431,-32.755573796,0.7312934724,-4.141817954,167.4092213187,0.0195825426,5066.1739095494,12408.6030912807,-0.0072445839,-12.3810214096,-4488.2286009974,95.7607896087,-63.9873827867,-0.5281768143,-33.1768866843,-9439.7352255747,0.7308505438,-159.9112125034,-28539.803490667,0.6128107083,-0.2490723584,-1.5662198148,-16.0335315554,0.5092461556,8.5357272108,-5.2179150644,4.2172859198,52.9430696432,-0.5880488454,573.3915717503,1.2629997484,472.6962410385,-2.1027390241,-54.5729235638,5172.6353590345,43775.1107744687,-9.6529011689,29.0910673528,26.6674455951,-35.3564585793,-105.7318183463,-0.5559784149,105810.3150433413,8.5768011302,-0.6822048967,-0.0938754923,-0.4722587578,33178.4124588026,0.0492362329,-1.2501801719,-16.7607786435,-0.4337926419,-15.1713053496,427941.0130956946,972.2658921152,-0.4275061615,-191.0019469358,0.3527911374,-8842.0084702915,-39225.9990391649,-38.3158085439,-37192.8012862466,-6405.6671710891,-0.2188078352,0.0319336768,-21383.5608748183,-593671.3080455775,-1.5025912562,-5.5166308858,-13.589008122,0.2022848271,-7365.5747992748,67.4580331093,-5076.0555609133,0.224238471,17885.0732267362,-9.3282863801,-0.5956573705,0.0247136424,738.558838161,49.5224138782,0.5508841583,-5334.6430750205,8.963385815,-0.1957824664,89758.9286599539,-0.6184367317,0.1307782448,287.2278036716,0.3381649088,-99.2839444584,0.1166424399,-13.1545340756,-0.3623985654,53.0981905695,-0.0041792995,3.1114612034,0.4687241288,-0.354151085,-9526.6926022685,-0.2857591143,0.4309979493,-0.2202227993,-0.385640555,-0.4091838169,-0.7200975456,-1.9107163255,0.1915912851,50.5125998125,14178.1273448694,0.2834263946,-9463.1670855691,-4703.6038974501,-0.3779210366,-367897.3265236333,29973.9253917203,65.2130087478,-41.0729509581,0.0029262307,10.7108809704,-14697.5482003157,-0.39947254,-412.0409935419,-411146.5847270968,-3.8940404907,-0.5710454805,-0.1172797288,0.5468131527,0.1563498062,713.6481442405,-26.6799287,0.9557284667,-742.2586452684,-1108.510134482,1164.2575003203,-28.2276683143,-238.2351305008,-11.7986453084,25.4440600445,29467.7844191689,3051.4102536099,0.4744473427,81.0028655907,20.0166586136,6.4423788211,-8.1710047528,-0.0709777248,-2854.2375102958,-36.1697845007,-0.666042543,-0.4690431983,0.3117723139,55025.4827560878,-0.7908151723,2.1991790442,-76.9018924752,0.5472819467,-1.3843469973,176107.0601067561,267.4637671862,-3.5047886079,-420.8702285469,-0.2962469125,-13868.0004321926,-124.3118128144,-12.6851384797,-141001.9211312681,56099.3059623337,-0.4960954435,-0.2321966007,-182.5793282022,-632223.7745624913,2.9604398755,-0.2330074133,-31.5651639467,-0.4913026132,-19.1295567259,-32.1551597985,-2418.5185774436,0.4042555084,-2204.5708667039,356.3751898552,-0.4482220487,-0.7432168875,-873.0098715397,3609.9310820594,-0.2804439315,-34.1992724969,-21.3962563619,0.3605919421,176222.0942952236,0.3502053263,0.2047556382,199.3825191846,0.2933240956,-37809.9913342395,-0.3265230428,1.2689595472,0.3631104765,-74.6092973118,0.2911649708,51.0483772128,0.4671468476,0.2464544754,-122.0400845804,-18.9258413338,0.0029523104,-0.2469217395,0.7376377936,0.0509796334,-1.1157191202,0.5175191273,0.3868558961,-51.6242838858,-8053.3114824895,-63.7088671842,-84072.1180670391,-97929.7897646201,-1.1357178132,-250.9324523702,-6.0945582221,-55.8881730146,-2409.7392135161,0.5552426889,-5074.6323194407,-4349.7040019163,0.1449498212,-183.4528180313,659.5666139398,-0.1918408193,-0.7707584509,42.6863225429,-0.0755974752,-2.9770514294,43814.6748618979,0.3272719546,-1.9456766992,-18087.4911775722,-1517.8917049721,64.0691592759,1.7586090773,11.1249080434,0.6811119965,0.5687888039,-11504.1475038688,-260.4564494892,-0.0577421042,235.5583191519,-0.2911099089,-156.1666050122,-0.5602621707,-0.6334976961,6099.8996331209,0.3961659136,-0.5182710036,0.5533895042,-0.1068373599,-3.2993354406,-0.2353217192,12.421805531,15.897150203,-0.5538119335,0.4443110398,-200217.9841387336,-1533.170800237,18.2399523984,-73.7884271518,0.5644538699,-124.8752921086,-529.9516473797,-38.5543874487,-6.4876561583,-327964.2305960366,1.1155022058,-0.6313350435,-85.7031429902,-647.5627851476,-10.9907739434,0.053239537,-0.2067049998,0.3168621318,0.2032550208,-55.5922463013,-468553.5542957814,-0.8732344995,89937.7411118832,0.5723130277,-0.0465615713,-0.8403293226,886.5159743697,-310488.8456716826,-0.0813952492,-0.7563366669,-4.621133723,0.7488974607,-45.1613513338,-0.3408548785,0.5709633376,-232.0910665269,0.339755715,1168.5926009295,0.10771516,-12.1977659044,0.0882850583,38.1411971102,-0.3340762827,-0.262675536,0.4421311456,-0.0430781913,4490.0328397386,-0.7441334503,-0.7851323411,-0.158896092,0.0707591081,1.8884213531,-0.5125987918,-0.6717603184,0.4559950895,-1.85257893,-10.7558114847,0.3148320829,-18621.7468126587,2140.9199642912,-0.4486629747,-425030.6887456687,151729.0551459852,-230.6122963039,-1.1223292921,-0.3441586717,81.8346883375,-327.4574443762,0.4242930354,-331.1033527717,-38.018496793,10.3643111021,0.2542280894,0.4739728276,-0.6219197106,0.2068306625,-953.8572034487,46.7015105068,1.6395923575,-137.0785637844,125.6801999915,-7980.2949331979,42.3442379144,476.5219353856,-46.4486351214,-2.031276868,107916.0581612948,31806.339501368,-1.2902316029,-72.1646864892,44.2821168538,5.9464592197,0.0910948319,-0.1559521561,20473.7523533217,-21.4257474279,0.0473724304,0.4856245666,-0.3443408485,-8719.5677407631,-0.6091759823,-44.543285723,-0.3612834546,-0.2564436576,-0.0476046656,277.4603821783,-5118.6720948701,-347.2558054207,-335.9001669388,-0.7635273818,-11353.8808535926,-388.8007165779,-32.3349417619,-349003.5429328937,40527.3483788014,-0.5183080711,0.0197698734,-160.8963722434,-64.6522981741,0.2586238796,0.1743678814,-54.1678750002,-0.1504649647,-74.5268174138,-20.9752779108,-200.8223071199,-0.5717197911,4858.695876088,-717.5216213147,-0.4660225214,-0.0359070565,425.8439468706,-18333.7929939577,-0.2314699553,-88.1276379983,7.597601845,-1.7417985192,7675.1383312115,-0.0518063201,0.7598486874,86.3293289314,0.8546136071,-1270.841080185,0.1608152445,-0.637264909,0.5951707624,-5245.923419581,0.4280020612,0.3191773507,0.437760681,-0.6887169023,55389.9612133859,0.3347884833,0.2249396595,0.0906310434,0.0889184107,-0.5057280266,-0.1823720988,-5.4093464382,73.2640714261,2.0542589144,242584.6615986108,-0.6276491472,-1419.5841608658,19788.6868816532,0.2108646152,10.6785490081,89027.9662159668,-68.1366457155,-1.4954271371,-0.6748301615,502.21469565,1495.2638353309,-0.0426623133,267.3843424258,-367.4007419538,-0.5604091223,0.6621155914,0.6389096001,3.8747344972,0.5638940679,1429.9530027718,139.7294426462,0.6132415473,2.0554293518,-0.1339510885,227.5428123776,-14.7780332547,167.618532543,-0.1942560186,-48.0702530396,43322.8687242299,-3136.9803050774,1.011356195,-10.1022017372,-33.101225696,-37.7048196366,0.3746348376,-0.3507586649,-229.8696385378,43.2084202666,-0.176554697,0.3235546293,0.5800074812,8583.6123209471,-0.5440934072,-7.1474186598,2358.2340615755,-0.512595776,3.3946948528,-1196.3428080626,-4047.557639417,-372.9775261251,165.4842844802,0.1914219462,-9262.4264875714,4287.1495851983,0.4023735824,-48636.61773738,9057.2192262337,-0.0474689561,0.6169850828,-86821.4037096278,-2138.0827363579,0.1023047411,0.3610241692,0.7166599969,-0.4043252186,1.3938851557,39.7039164634,-14543.9855311831,0.6818920712,18539.6216889308,5466.760735336,0.2202649002,0.5856196734,86.2246520664,24.236655083,0.5756397723,197.0438189297,-1.9985839625,-1.9429731657,84.2770544847,-0.2667703448,0.1887257423,215.3610328445,0.1669252802,-102.9624087124,0.7861995236,4.2473732335,-0.3189470139,-616.1171341059,-0.0057132894,-4.2503044082,0.6669877677,-0.2484322137,13435.7064403963,0.4097529336,0.5293612872,0.9242003576,-0.6179226172,-0.7865160381,-0.320429381,92.0674907071,-17.4463353822,14.1578499272,-479.5717213379,-0.3382006603,-22417.2902526289,-13641.598671758,-0.3816068411,-442200.8717770032,309811.1926974689,-122.3798618222,-0.0675742861,-0.1804706665,54.8973678392,2763.0070088698,0.5194016928,394.3108630468,-1140.4024747709,0.0578206517,0.1525731908,0.6383973901,-0.5707627504,0.2123310672,472.0836250827,-42.8244990016,3.2595237416,2.2109067594,-0.5150865941,226.4973990403,-7.2189728991,-73.7612495087,-0.1319436319,9.0888383304,-21331.2338498759,93464.4352679612,0.8667940318,79.5306016646,-45.9394370611,-20.5777835268,-0.020908795,-0.5414372879,-4425.6543868932,6.7040927781,0.6464729366,-0.3182784237,0.6995820301,48619.8132599328,0.1635556614,73.2110242405,2.9610671401,-0.3017868915,-1.5162442831,-3218.2401378964,-3157.0702471185,6.0611056575,309.6509146667,0.5661652257,-33075.9335825818,-441.8994385338,24.2163125268,-60938.1477126875,181697.6642545545,-0.2147052955,1.116401053,-12459.7584309629,-459.4710276135,0.6289566553,-0.2613878172,2.0602522427,0.0078405799,850.5184046202,-43.5959115461,1103.4366786422,-0.2333430512,1644.7849264165,211.8528914556,-0.3522837212,-0.5783650017,353.9066804281,5.4734554478,-0.1185291885,-62.7656965584,514.8123773027,-1.1666930754,336149.6314666939,-0.2712173369,-0.2858093186,1841.8743709126,-0.3852749378,-121975.1023973488,-0.8082944301,-1.122009611,-0.0621480477,196.5987590536,-0.707488335,76.4079920242,-0.2098090562,0.6033108419,-5261.1145659014,-4.7977607594,-0.3238398444,-1.2532632305,-0.8126752279,-14.9037708149,-1.0209495883,6.3725916141,-0.1420550075,-169.1007162966,-6570.9602337815,0.5509665143,-586064.2854641522,-6556.8578541415,0.2470546556,19759.8753077828,-364955.7394369881,50.7059819843,-94.3981358782,0.6332950104,9107.2844312298,-7861.8020814159,0.5986454682,220.5124341554,4977.1768269072,0.1871308794,0.275093933,102.1704282032,-17.969780008,-3.9332074044,107.2400799613,-0.0740824776,-0.4151727994,1.0639118814,-275.0640414885,-273.3477313142,-2.3844756585,-22.458986197,-0.6268036715,0.100799509,-202866.1648394701,12.6544642601,-18.9190237548,175.653937819,0.7532174605,-84357.8759121019,-0.6625442597,-0.361586205,-346500.8544893567,-0.6897858437,0.530877176,-0.1984346115,-0.7136684033,-51415.5622135407,0.0117166532,11.5699159136,-2.9044691385,-0.605347891,-17.9225938272,77695.8050737921,-3455.0679164408,-30.0484927095,268.9337832209,0.0257863997,-62498.7414479059,162471.7524997885,-14.1688968818,0.5546746048,-530246.9742337845,1.0577245937,-0.6166779368,-579.1259252347,-165014.5996212632,27.199300099,-8.6759616658,0.9915156317,0.6288169147,15.273780456,-12.3516878854,-444933.6999223748,0.0709459984,-130627.5197521709,1294.2651172814,-0.5585353271,0.2601463197,1365.2971491789,-4.5584009691,0.4745192978,-1149.4449374642,2.5955926647,0.1326710109,-485.4761348163,-0.0283253793,-0.1446725472,-76.9008188355,0.4990722026,-6565.9729452264,0.4005294601,26704.6761609392,-4.4428702241,-0.051984202,0.2869546289,-48127.0187711153,0.4860503982,-0.1866112658,-13.9630523722,-0.3636487007,-0.214150236,-1961.3236312585,0.1453626501,101.8537406221,-2.5264964135,5.9610495516,-0.0709942343,-41016.1389521552,-7347.5392148462,-4.9048770899,40.4538281536,-1377.8499530022,-0.0087422033,2307.9978850452,0.2898472588,78.8908299202,-357.2032165675,-0.3352973829,-382.7346797364,-0.5070890112,-0.7581513525,-53.0058285627,15.8716690394,60.6457468973,-0.6400076112,-262.9541858689,-0.6345098024,-3.5862050584,1564.3508799914,0.7265355566,2.3082738969,-0.5171083937,68.7110402605,-43.0853957439,-1.0057630826,-7.4523818237,0.2907753269,-0.2197339176,-2173.6018709765,107213.7693753117,0.1962906419,15.9463332418,-0.4308251338,7.2715703095,10.9382308512,0.4176155458,-26.5393910731,-0.1609523476,-1.011512688,-0.4225551993,0.2829996692,-1.9013002407,-0.7081308967,0.8385117242,0.2163488917,0.3664121564,-1.2254759955,-191182.8159440417,-56607.7139980332,-7.4634200012,-48.5246405938,10.4114846875,42.7196001139,-2460.0813558691,-7.9072679753,0.175236196,-113.2334493196,-0.9863201112,0.4879936213,8926.1796616432,11.2881175208,2280.1548476687,-0.4696541856,143.6653634909,-0.7894464107,0.5909879008,-9.3007274419,-2306.4132720272,-0.0584952,-231.5618410055,159.1222356369,0.3289541456,0.2058649708,-75.6810988049,-45299.0174836924,-0.6410956675,-0.1879746965,1.2473260908,-1.0643312951,2808.6371899516,0.6725044604,0.5591205053,-134.5669737554,0.5974801533,29.6481118799,-0.0385286472,0.6350115574,-0.8234793144,-3763.0516781134,0.2028479213,3.439422166,-0.5040138987,0.0863920572,40060.9292051802,0.6184054697,-0.429507305,0.2330779031,-0.6862279041,1.5880760217,-0.0277322179,-25.0475979371,-109421.487253143,0.6959293488,-10018.4074356111,-0.238210773,-7596.2318612266,-2241.2694836216,-0.4989665143,-19526.6147456026,3.0657219285,-794.9955320008,-1.3107276513,0.3704936956,58.8529076819,2597.4428637087,0.1014762108,384.4696602607,-250.0480637051,2.8042291108,0.5102193082,-0.1477687743,-1.380876803,-0.3977021641,6477.746509398,22.8908034055,-0.5802398514,-4717.6225236852,2037.2013825166,-7173.4078061372,14.7933604549,822.9703487166,-0.4094155903
   6.3813188238,-8.2314437085,6153.9041614921,0.060598744,-35.9677992259,-45.9339614604,-20.5179640776,58.5404020779,0.0708455974,200557.2254101284,-5.3535490317,-0.5463471277,-0.1881663953,-0.0208978822,143411.7322285327,0.92705389,3.3978382464,0.3196902984,-0.6713742838,0.593841786,-348.2522637194,-10480.5933045778,-54.676340518,347.6701567586,-0.4509095963,-75320.834689206,43.4043606989,34.6659435271,-58683.0692144833,-19.2815162726,1.1872997233,-0.1567776684,-997.1737163699,-4.5950711258,-0.1951781735,-0.2055534727,-858.3188596164,-0.427107617,2343.4456513867,-11.7996865587,-2057.6798369509,0.256777997,-14745.0034722663,-0.2181861823,-0.6933308808,0.8927766145,906.8358254545,-2018.2032806466,0.3974502062,-16269.2849175643,-0.2727001746,-0.0889576044,-2177.6473900641,0.0999409847,0.0076557313,-24.2603000876,0.0550526648,-1.827194842,-0.6622110415,-84.9878089547,-0.3089791158,164.1291507588,-0.4123725023,17.3654671814,0.5459829668,-0.231976037,58522.8815125845,-1.160703451,-0.360407148,-0.3714262642,-0.2000726864,0.0923815066,0.5161798218,-0.3197215823,-24.8955368662,4.3467662504,123.1106115535,0.7755336283,6331.5669252982,27995.0766395424,0.4021392776,-83189.1290308632,33232.8230163736,95.7727205318,-47.2436968116,0.2580245863,788.1056443281,140.9775595378,-0.2438036922,-155.1361721351,21479.5492070368,-0.5814612485,-0.6217498917,20.0883956699,-0.1684105543,-0.5017659359,216.3867764379,10.9831926769,0.3621535154,619.7930082487,-0.4593657287,-18.2486633228,-31.2678168865,-77.6876707481,-0.2829277002,-10.6707101724,6692.2917738732,29794.5954477114,-0.2118260464,-48.7544800057,-14.8890142911,41.7931911516,-0.5808785833,-0.3146945229,-1359.288761581,0.1127310088,-0.6173322785,-0.3901057646,-0.1049361764,-20808.0469313356,0.2631180532,-15.153446905,-6.0485863117,0.5824337791,0.8787499669,44668.2371791592,-14153.4499573124,55.8557564729,-167.6665229965,-0.4685707366,-37541.9188256218,37840.6892205803,-17.5813778642,-2299.4923929614,5829.0618579644,-0.0336619281,0.7126510313,-91441.5303947527,-402740.5262487617,19.9246151583,0.2406142655,-134.0750428029,-0.633438003,-582.0259606776,21.284320144,-63231.8160939923,0.5876503603,54801.5357091568,-43.6943459222,0.2625708584,-0.1906413088,-770.469138582,-27083.6492304845,-0.7378009753,-60.8926234968,-28.2017895748,-0.8197706403,170.1501750022,0.9515322874,-0.3358478776,113.9717471463,1.306932757,-24376.8129619499,-0.3596939469,-30.4774168522,1.5393377193,-531.2473113119,-0.710471803,10.9338131687,0.1272851656,-0.5662417272,-4964.6624829326,11.6985580143,-0.6518138158,0.9555806766,0.2363179973,-1.4365291591,0.5192412058,19.4422862556,-0.2275748231,-13.4578826935,129396.3296918419,0.490520735,-762.383576525,97143.075184124,0.6166598018,-25711.9662126637,1165.5163751599,23.5889174982,695.054158412,-0.6005875711,190.9613009723,-4155.1050765281,-0.4758666406,-31.4714865856,-1264.7398827161,0.0608574238,-0.250411885,6.7742589431,-19.754297798,-3.0920770682,2292.1898208005,-26.1029215371,-0.2924525394,-35.5583165911,-1253.8629124856,914.8553222515,3.3884019588,809.4933992108,0.6977912183,14.0979441112,3780.2723789208,13131.7299359989,0.6126169494,187.1614671465,0.9817062078,-149.1346421964,-0.5386380105,-0.5344126748,187392.3359864581,0.7296618259,-0.0051193775,0.1107645067,0.4656092471,1693.9214774154,-0.7340758611,11.1968429734,-32.2224859882,-0.6358989162,-18.9234197273,15645.9624071564,-1344.0019201936,-2.3080660571,-1.123779545,-0.1105713696,635.1843984891,-85.9930240359,-10.4348940747,19805.0538635125,-42.9444422668,-0.5734383803,-0.4625691567,-18638.8907266894,106.2341501833,1.9832514257,-9.6091422314,-29.3092405847,0.2747276367,6531.1557497639,41.3294069285,-352506.3391670506,-0.2960492769,49.0026979049,2269.5332899888,-0.0672583846,-0.7743054858,715.4550921428,-15113.1420083093,-1.1927894691,-6300.4126037013,29.2446048122,-0.3783165402,-25963.6419359612,0.7293861315,0.5479939674,612.6598786259,0.4817206498,-28664.4200532806,0.1545429408,-1.8428736118,0.8461190357,-98.200368554,0.7942002848,5.7733182694,0.6667900642,-0.1172537397,11514.7421786173,0.0107259474,-0.5098357668,0.5877657993,-0.3420792806,-0.4523940087,-0.3354580868,11.1582530283,0.1735699637,21.6198519348,-22192.1854888032,-0.3299115203,-49500.2305473314,13202.9481959375,0.5489838036,-221352.0483064488,114059.9547827345,-28.7563034971,-1.4472317825,0.3352338784,-59.483214823,-0.4855022572,-0.381617111,-70.3783631025,-571633.7297681636,-0.2101433909,0.3748132532,2.1985644898,-0.7644738471,-1.5691207032,205.5734778713,-10.1046445614,-0.1298684436,38.0891383374,-106.5012797587,197.4545099414,-13.2557515978,488.9862969274,-0.5596716347,-32.9263207309,-51665.6557481156,24657.2689094479,4.3122737162,134.2789937906,-58.800315681,-31.2668167117,-0.9276482439,-0.218823069,8482.2441251055,46.9230252047,-0.3184419845,-0.5224888723,0.5736795321,27275.7464062088,-0.0632075441,65.5537106632,-6.48824268,-0.4106242867,-0.6998630388,-1919.8084660304,-1277.1596959938,16.7936151929,-208.8968476754,-0.2172914052,-31743.4729556873,-187740.4247722359,20.4784379033,-469746.3998930454,75944.0823284189,0.2206704524,-0.4369916914,-12499.9258360871,-166960.2474226187,-4.5404765136,0.0172187538,-576.948185271,-0.4253316703,-8.6103644468,-14.8875441594,-19609.2963391573,-0.1939127072,-9413.8869774973,1113.2591848056,-0.2844054122,0.1444240463,642.5278876037,-172208.6619821698,3.525621413,-2.8834738779,-0.0830920467,-0.87766547,24.9833937041,0.767567757,-0.6369409022,20.3063243485,-0.0965397048,-704.6842492284,-0.7154002709,0.3597391329,0.4231520621,-3046.6467802067,4.2164428803,109.3478147119,0.157313194,-0.2192973512,-2376.6807154264,-0.0358278645,-0.5472005794,0.670087389,-0.0419133722,-1.4397132319,-0.6243177418,-3.6573419136,-0.6548564146,-1945.5749531393,-243.6362815222,-0.3629386751,-545353.6748170361,-31346.3909482272,-0.8440406904,-7575.4605584533,-0.5394898552,-121.8036976539,-3.5401861138,1.9262769791,-328.0057754334,9082.0965182903,-0.5415650913,639.1101151419,-1174.6278004088,0.1820239842,0.6195426618,7.8359600592,-0.4863419667,-3.2204147697,14564.6464781059,-0.2067070915,-1.1924291055,0.1624679788,6137.4193935466,-624.4687446377,0.519821267,-20.2506646644,0.198289953,0.2146568093,-29096.8728943903,66.7166101363,-0.2200777472,-82.9412777049,-0.5693835444,-4.3460029987,-0.8697826831,-0.1064176281,-35200.1158553344,-0.5742588064,-0.1521821375,-0.6799643047,1.4386658771,-12.6914973753,-0.526412453,-0.5910560265,0.2720348245,0.6278091734,0.4178129764,-2708.4740738142,-1252.1780286984,23.7282553422,610.8906851508,0.3188922479,-18.81436989,-1043.0137150241,18.3514877978,0.2015795989,-267.4017260663,0.8573867638,-0.2673671214,44.6097731328,-38.691465147,-11.6161988764,-0.4736155489,-0.5687773189,-0.0428754892,5.0281530825,-36.0834336736,-77811.124815691,-0.5761035893,-3913.9979376203,0.2785566204,-0.0840799822,-0.1327799454,-35.9241789544,18.6326488496,0.0629480495,-4.7002142511,-2.5246133344,0.493772265,-12448.2390398506,0.6200390628,0.5308584481,-45.4548112028,0.7352711167,-64.3299858795,4.1240226558,12.7442403547,-0.2872136891,-2314.4476331135,-1.1006430266,-14.5880749424,-0.0676178183,0.7011379243,16621.0580845701,-0.4231472319,0.7337944237,-0.2941374208,0.6285640879,-1.5476221931,0.2827043269,-0.8789551322,-2.0742155477,4.0284042815,-30586.3179089161,0.0013695214,-8077.5130255634,5447.132225316,0.4984795785,-282660.4833396742,11451.8798108972,-193.872086151,-1.950239459,0.4566444305,196.6419977024,-3163.9573791235,-0.0939898013,-141.8793636816,-1161.2138257689,-0.3209793358,-0.3791673067,-8.0640583957,-0.7960925738,0.3678131892,-10930.1597179572,11.3458949718,0.7041205267,1.6666704683,33.6855409206,14.0818920858,75.5079593833,-255.8084987242,-113.4866535869,0.867728746,-52620.0887657604,13280.6922772872,-0.7288443457,-210.9755423098,-25.5368691023,4.560234159,-4.5211160326,-0.0119507104,-302.4950577954,0.6362659441,-0.3635458223,-0.0988680099,-0.1285196079,426.966100167,-0.4140598192,-25.3629088608,-4.119481438,0.1456806219,-0.4779352456,-2835.7318422719,-26.4194447367,137.4503565263,-100.3620978874,-0.6909404602,12195.2022553601,-1025.7956113015,-6.889666219,-30840.9787079434,32560.740096466,-1.3321816915,0.1278707247,-96445.7318555732,-215.2582313844,-9.5769247468,0.5195202402,-0.9309530072,-0.3245506007,-0.3791673531,-86.6187010464,877.8260322551,-0.3506875209,-112740.5118362803,-95.5070655647,-0.3720192433,-0.0975061357,1.9000596636,438.9489339935,-1.5168165331,4.0585909299,-1.8766327719,-1.1173453575,253596.6791408148,-1.1913677838,0.6762516769,23.5307316007,-0.6061507885,-93616.0060711779,0.4205064407,-0.2496795683,-0.2145454366,-62.4823878598,-1.0555327445,8.1444356482,0.1849464894,-1.1546114977,-824.243514288,-2.3829516735,0.4891099804,0.3334716003,-0.9124712907,-4.6185898734,50.6239004048,-1.2272857542,0.4430048696,-20.7446795941,-10606.4580294127,13.6375898715,-393945.1778650511,-313378.9255358935,-0.2958763486,18010.3237092721,-152220.0671145286,14.3806422634,-417.8328823982,-0.7494204509,2408.6973741969,-1988.264522157,-0.6821019242,857.8539275125,-1119.1977011133,-0.10134586,0.3537867911,-37.5938876693,-2.6384653063,-1.3074091451,-16820.2980737026,-4.3813143371,237.6559396178,-6479.6354236379,354.4507252178,-308.1488653607,-0.7638133165,21.6178509398,-1.0931267357,-1.2032661277,2290.5489230968,26605.6401064578,-0.8042329625,10605.5455298326,-0.3632859396,-2001.8785523424,3.0882215157,-0.1900822904,-4719.5694443664,-1.1169495759,0.0504193762,0.0639491338,-0.372783928,-658.0827064311,0.5373726111,1.1596348017,45.1616348502,-1.1921997938,-3.227358697,-165669.4354358928,-5731.0692115836,-0.6529746698,740.0304298918,10.8265573693,-1535.9731946801,19160.0953709668,38.6529858047,-455.5879252235,-278.2869648079,53.3029254838,0.3516028264,29.9756336375,-24.823232832,-32.7594755418,-2.1124012997,2.0101048457,-0.5141315104,-34873.6926589665,-31.6838997175,-565457.5246465275,-0.4191629692,111006.8770350963,176.0841370238,-0.8374110767,8.7401625071,265.4298150305,20556.7450080456,-0.6055266492,-14.4760673493,16.3590736571,-0.0296897508,-190227.6217447245,0.3802896411,-0.4442828662,-371.5773717538,-0.1012788193,-709.184336397,-0.4920526367,8.3453301917,-2.2356876674,-34.3071817748,0.5300721217,-5.6040372687,-0.6150609871,0.359537997,25371.5040703005,-5.610856037,-0.6803911209,0.575728765,-0.4943157648,-1.2047713908,-0.2653794387,61.592488923,-29.7429072492,-2.8501022301,41029.1559865695,5.6907646868,38.6741622448,8236.8470548569,-0.041966312,-15531.9336876902,89934.8323867202,-86.8963859475,-34.0105174676,0.4953817565,893.8944530444,4380.461532273,-0.2178584555,134.1641480987,29029.8204468513,3.2855019559,0.5663552064,2.6919901105,-11.2522354843,-2.4621091209,4185.9362726186,-17.3535522468,-0.3926713881,-29743.4839349979,30.9619861073,-230.0058164782,-8.5364637144,413.1706429581,-0.3202091514,7.6261412765,4421.5647661851,-9536.2298650856,-11.5852599112,-182.9192155607,0.2510407748,10.3196870763,-17.8523114601,-0.7033282152,75449.8692050757,2.9913827749,-0.0379690221,-0.4820617697,1.4180547462,-146408.8152334488,-0.6556554588,-0.8988590794,561.5718722617,-0.2170272056,-9.6101416151,4566.2550298382,307.0296868628,8.6468889111,222.4166798997,-0.4359842339,-62439.8689408466,14366.4491457228,-45.1990692691,-108693.1504031261,39096.5398095447,-0.0274033595,-0.5809254755,81.6822556405,-437805.967269755,-13.7919025209,-5.1204345484,1718.5583633437,0.248768426,214.4290425779,36.0931214093,-34734.8015714398,0.2093343151,7772.6969062663,-422.8389790623,0.0953725568,0.1063467174,553.9010843286,-176327.6165447915,-0.3492189599,-9487.9371676304,-0.0376677947,-1.8114583776,-226698.3115031932,0.1055500085,0.1561278059,136.8746655075,-0.5528154441,-101.0976316471,-0.1306068139,-52.0255371135,-0.6554911875,-136.7837172348,0.4377221224,37.083302623,0.6529393534,0.4646414637,-4360.1191953029,-0.3138326586,0.0002615421,0.3392021742,-0.4446060753,-0.305523581,-0.8096281361,-0.2185306888,0.2921634445,-19.3229432462,-317257.4866104295,-0.6862090825,-13197.6978551753,15545.7278947461,0.3094670039,-422130.1863350779,51952.0705188199,-10.4790407092,-7.6265363841,-0.1657857761,-35.8122567882,-26994.0880701171,0.4442192766,-600.4321237717,-569339.3278951268,-0.6634348739,-0.4554055928,0.1458783332,-2.8640351241,-0.8507588311,-2059.9127263611,17.6674244107,0.7641215156,3782.721312722,-2620.8558145642,554.5301118619,19.2354672514,-286.9594920425,-0.7671324426,16.9421970611,-30878.9923438228,5568.513496289,-0.277225807,18.9669239369,-0.5719740055,-9.4054906246,0.6077862274,0.5463401363,-190.174737373,0.9273124543,0.0647838662,-0.6479917457,-0.6880331445,-9055.7302699249,0.4690621589,-40.3656932866,-0.1128822597,0.1559521757,-1.9265826203,-2216.9439525968,-0.4530556595,4.8863674273,-547.1970990119,0.1236276401,7965.210307923,-155669.6289118803,-29.016884708,-155961.2048724875,21765.0242575868,-1.9855569843,-0.3866741723,-41919.7707534688,-269007.298208516,1.7795226876,-1.4432594225,0.0774255559,0.4168125846,-230.2616848866,-29.9769607188,-1011.0050555878,-0.1465998464,-112673.038575552,-149.4731757401,0.2431754123,0.0096371308,-243.1123157401,-174155.20095864,0.7175975038,-57.2650693098,-22.4007004807,0.0067278577,41900.6076815972,-9.312381818,-0.1184390778,219.8714189747,-0.5070507127,1.8091831705,-0.5114194263,-0.6538367871,-11.4407978743,24.1509012251,0.1814970383,0.5387961904,0.4563321536,-0.4852349287,-36104.2707135074,-0.5591443038,0.3385365817,0.0424340005,0.4158351338,-0.7151463917,37.223877034,-6.9017413768,-0.6020298558,-20.651949592,3158.0271626834,-3.9284093218,-5295.0341640312,-318.3034036779,-0.6465711052,13436.5781852076,-34921.9206419289,10.7484405512,-5.6228823689,0.3038590848,-11136.009416843,-10.3384554448,-0.3817632917,-202.4432339607,-9108.3100820132,-3.286926606,-1.9740713108,-35.7996869487,-1.1380188563,1.5929536043,-88.4780458126,-14.6013012878,0.4651515339,0.1378461469,-0.3460033657,378.7212132273,0.4803634929,-331.8073738268,5.4841914532,-3.5243784045,-580.3216312426,709.6320636367,-14.0169900189,208.2342851047,49.6197182358,21.246787693,-57.7726399004,0.4902392163,-5414.1925143927,-3.6505007849,0.4092544794,-0.4863669417,-1.9175901088,3018.2198243426,0.1688227339,-2.4070147814,-6796.5066507403,-0.4687098837,-0.5338411919,124.9173741936,1497.4545875464,-14.0330830972,-248.9213662592,0.4077558208,1334.5579710384,-11178.8197184564,-37.6028789109,-78604.6267921734,-170606.3317997072,-1.130666021,-0.5925502837,-103525.9343770943,-632409.4106320554,-4.8552184868,-0.8142995315,-614.4772465511,-0.5177846289,-607.4795325369,68.6229147399,13199.4676541472,-0.5127630042,-84241.2994983628,4.773902531,0.2646650441,-1.1313996719,113.0442283161,31.4949585769,-1.5487298822,-221.5172861391,-12.849134262,-1.9989890896,-27.4289226962,0.2946560401,-0.4353332812,42.0787956472,0.1134774803,130188.069716098,0.4067290027,2.8740560377,0.3550569146,-2395.4905453189,-0.1645443963,-23.1678027212,0.5162107452,-0.0045936649,18709.2127590234,-16.3594524603,0.6196271128,-0.0648860865,-0.1873552748,-0.1184444284,0.5395362861,0.6299276114,-0.2556833119,8.2362656898,15732.1689564038,0.2076043548,-1281.0336762243,-10339.3982726645,0.3569966919,-10392.6130192606,351907.0261139798,90.7744123132,-519.6753127855,-0.3953272158,12086.8959306134,-1458.0149362196,0.1591809153,123.6573766157,8821.1931821839,5.2958790012,-0.6668206038,-14.4234055745,0.5000268186,-3.0910166806,-8.0497383398,-126.1000751561,0.6429980523,979.7084187257,1545.0439283914,-4443.7520974996,-49.0820113441,456.5136368673,-0.7036313883,105.9421865985,39474.2688420509,46162.4348360011,0.1458067772,-144.4210510827,-1.3329156968,34.8782042452,0.748433775,0.2327562921,8031.0020779029,-24.6470669931,-0.1860707381,-0.6873412466,0.2038514127,-199008.7691644936,-0.5810262999,-49.5997099553,-7.9940128391,-0.6836513777,-0.7173120379,241.1194651208,-6738.6682593728,235.2777345271,10.285630529,0.0554714023,-210338.6494078879,33.4708879934,-18.0500323667,-868.3999847135,2701.20897689,-0.0974010217,0.3983167035,-6274.9536253967,-4673.7332066365,-3.0123443726,0.3078537778,1004.1184119537,0.0033611588,-2215.2025968552,-26.8788255813,84.4401804159,0.1138647185,6871.0150386541,635.6597388083,0.0298913697,0.503468748,619.325309018,106065.8576240619,0.4209358099,-33.7086980503,26.3296386427,-1.4595051013,673.5236924551,-0.5462196324,0.3222915706,88.4869110752,-0.5194651635,-7.5733717854,-0.3698856521,0.3278040261,0.0380093356,-333.1054404902,-0.656158766,1.5514765197,-0.1925782547,-0.5157775321,60869.8987705288,0.0300259484,0.0950616809,-0.1850450285,0.4039214175,0.1407501566,-0.442585398,-5.4109170335,-0.7670606575,-0.7290514855,1561.5838681814,-0.0914465679,45895.8905391499,289.0801274319,-0.5166078555,-404477.9433588453,216713.7369026172,-154.0553609355,-1.0808317157,-0.439263387,755.1959934072,2228.2789277293,0.2620223215,166.4354397032,10.8765223964,-0.2358086668,0.0429107779,0.2530743668,-0.6333369284,-0.7070315966,534.1662051096,-179.8881903071,0.8654561895,0.0769097374,0.2736290971,1258.3541646429,-100.7578408467,-32.0326245225,-0.094742391,128.4996902494,147.3074647997,-9525.0616370788,2.9592292062,2.714606412,6.1775066521,12.0728999151,-0.69380471,-0.613124996,3789.8502102582,-32.0954024679,0.4117184296,-0.4208462063,0.6566582892,-5532.0250203921,-0.0539248988,-20.6787160414,0.6979273899,0.2544156726,0.0344576806,-231.7178691578,-9.0592755737,-693.8924744292,158.9621170779,0.7132086841,-2201.4646414535,3422.6781962839,17.1835739774,-362651.5018024581,24059.1951969111,-0.4266573963,0.5738369721,-2660.2693667099,-1299.0212784221,5.9925927597,0.4139254773,0.3808571495,0.1319478998,-0.1169348734,37.3549803268,-17034.4361319363,-0.5886067009,12304.7935020605,0.059358677,-0.6532375507,-0.7178088993,-123.2278350859,-0.2065223655,0.6426941441,-9.693948601,-4.4370325554,-2.0268974057,-0.4881818456,1.3646436229,1.2665254379,0.5931842911,0.6035998876,0.6969525378,24.9581776272,1.4877342617,-0.4426044071,1.2581220926,-0.1732859186,1.7634003079,3.7707897185,-0.2452124079,1.0068208172,1.38081425,-4.8381334543,1.4098346322,1.7859254331,1.143772,22454.0435074024,-1061.9973841575,0.8945938675,2.2179525572,3.0098045953,2.2954580797,1.0061364125,1.0628496821,-4.2997074634,-4.4068152067,5.5901702935,-4.7709424675,6.819649013,-3.7404026772,-245.4625907894,6.0353784962,-3.4480495675,4.6112897025,-5.8799050835,8.433879053,5.9048183223,-6.4734491183,-0.7352691368,0.0067053535,1.1984812854,0.7196611571,5.3304898467,0.3575747058,24.5691714207,5.1518701894,-0.0910513698,0.9927385798,-0.2842756366,1.0903612707,4.8222870838,-0.964990983,-2.0650961208,0.0222214136,2.4820518247,-1.1011411743,4.5286494535,-1.0255851436,-471.4692943479,2.1118463108,-0.2783875753,2.1533476114,-1.3816977308,850.8111686053,2.460387748,-4.1554383234,0.1252492709,1.0207201846,1.191003294,-0.4924342516,2.2269925055,1.1868846303,54.634399841,0.6878299241,-0.0428629482,1.1435876781,-0.272984064,36.5015718493,1.3475522408,-2.5537563361,0.9727750457,0.2140250435,0.9583451285,0.4152142478,2.1497083445,0.0665702563,11.1564517757,2.4237138544,1.2425115466,0.8429718986,0.2797421157,3.7845024771,1.8684777718,-1.5857375492,1.1347120503,0.9018606107,2.5605561719,0.0207541899,1.2778345551,0.1069221077,-14.7486908015,1.106369777,-0.6367218838,1.2069325693,0.3824209257,2.641498528,2.1584050639,-2.5914225805,0.7562817107,-0.4821410648,0.7460820979,0.7223532844,1.5500827223,1.1436658012,-0.2639709033,2.4983701031,-0.3610182983,2.3923775973,0.2374398793,0.7238806358,-1.0337950268,0.1938241204,0.8636249306,-0.5627505155,1.5271135893,0.1346765856,1.5905612623,0.4491583887,28.3770509202,1.1133402561,-0.567674316,1.3663014431,-0.6585425169,0.9842442055,0.6741942231,-2.4625230842,1.4197802655,0.199072334,2.1002424641,-0.2550261143,0.9942804617,-0.0863649429,21.535843151,2.1461165367,1.5287830883,2.0605488626,3.0093417094,0.8061362145,1.4224869259,-0.4357353764,0.9446049888,-0.1498690159,1.7189540464,1.1869960012,1.8233970921,6.8132061211,-104.600567292,1.1860946497,-0.3217957961,1.8187653053,0.6297554745,2.2273434386,-1.7761630609,-0.2429452714,-10.9013866816,-10.8745191206,12.6870619839,-10.0181746812,12.2340894302,-9.6810131511,-305.6890854948,11.9237925525,-10.2980746007,12.5677245672,-14.1610298972,12.5067460575,12.8338297109,-11.4314827137,1.0494979833,1.4628479629,1.7852138094,0.3598889069,2.4700548711,1.2211273571,-1.6866404271,1.421796348,1.4343007076,0.7392167605,0.9744656997,0.7988725876,1.3899863276,0.4313955543,-0.3218388319,0.5688892404,1.5260975794,-0.3085338492,1.938745041,-0.4307991388,-198.400075533,2.0668338284,0.3943528253,2.637506214,0.1302185966,2.6378278951,4.1705019032,-2.9832527178,-0.4236450703,-0.3608201135,1.7095180527,-0.0870701549,4.0938307357,1.3385187861,41.7428951943,2.6582879074,-0.5320346992,3.9639114606,-2.0963952415,3.6040072299,2.1825988822,-2.574870791,1.0271297163,-0.0340810955,1.1147552474,-0.0658926243,1.2499356022,0.9367971085,2.9154305724,1.9264521358,0.2490231958,0.9038075423,1.0544065953,1.7411595405,1.3130299273,-0.3886242963,0.9423175776,1.2499625577,1.2746997505,-0.5915402316,2.345185152,0.9413589241,-19.9149591912,1.5475894298,-0.5614508108,0.862810839,0.3581106714,0.4559642414,1.1625469075,-2.2475773806,2.7780767144,3.4099586637,-6.1402970114,4.9130268676,-1.2555756669,4.0393427375,12025.3494658993,-2.7023932619,4.4340212012,-0.9294019536,0.628662653,-2997.7898181593,6.7941221109,4.7319335754,0.1247370436,1.7177991099,1.1595505269,0.7602489493,1.2134444473,0.7760378204,-0.2182159991,1.4744422371,0.075719586,0.3143698923,1.3974370355,1.8449950248,0.556169067,-2.1633723539,0.477999973,1.3535452153,1.8351682206,0.774675776,1.5613477391,1.1775471181,2.8652700238,1.4068826541,0.2072018592,0.8439621003,0.2957191586,2.3072692181,1.0089376203,-0.8346977654,0.5070178484,-0.0796270254,1.0076932906,0.9446004638,1.1797199688,0.4609956319,12.0417509816,1.2230160331,1.710460281,2.0104307314,4.1035779571,2.0929347163,1.7579224067,-2.0871976044,-2.0579192565,-2.1154734515,3.4870548089,-2.0447754888,4.0287157347,-1.9149797876,-628.3673739486,4.5217495706,-1.1172405191,3.9192482003,-2.1389413724,6.3979320689,4.8303402536,-1.6540299927,-0.9492808911,-1.7878087348,1.7673567078,-1.4526836321,5.0076133041,79.093626072,-64.3562640016,1.4465387268,0.2251883472,-6.8047273762,-2.4983314359,5.8349417353,3.4526944458,-0.2863510841,-1.1041037949,0.2135890185,2.0333814661,-0.7772896954,3.1433367289,10.0227475413,-359.4664483543,2.530601839,1.9280234371,2.0757697202,0.0080333288,2.6944813862,1.5651021831,-0.5840567307,1.083741294,0.5056972267,0.9801020747,-0.4790706705,1.2226233217,0.9975869133,-30.8606418629,2.2565219582,0.9700020102,2.3766385368,-0.1235958513,1.0045353293,1.2942701686,-0.2687203654,-0.1197667931,0.1054877653,1.8248920916,1.1402493209,1.7340356319,0.0586528867,-113.2405867557,2.0373431263,-0.0568748237,0.8404014431,-0.5348411771,7.7388375462,2.383382996,0.0773831076,0.4827308554,-0.2601637938,1.6764248764,0.2306099904,0.784886138,0.4935395406,-67.2662669352,1.1639090726,-0.0105513209,1.4839317344,1.125464008,0.2692265094,1.5455604402,-2.2577641645,0.1517156044,0.7091211194,1.7472681491,0.7398752273,6.102308856,-1.0537434031,-845.785914511,2.6377691806,-1.1993835393,1.9091012835,-891.2927674443,2.6682406696,2.8904054378,-3.1179202255,0.1186457728,-0.8454766142,5.2151807519,-0.2433779247,2.1929559948,0.5654380489,-1758.2270375511,2.0138526375,-0.4193173973,2.3765943437,-0.5022811011,127.2790678159,57.803462483,-2.6376596551,0.2067127093,0.3254403584,2.012517772,0.4628739323,2.9691256063,1.118248097,-178.6215894936,0.9996471306,-0.1958160645,1.3443876726,0.9790361681,16.1981235343,0.6403743614,-0.1904125511,-15.135495592,-0.3539427738,2941.9265604039,-14.2574159882,7.5447751796,0.6190003167,35.2337819515,3403.4153851209,1.0997507226,7.3862669761,-0.0272738316,5978.1943067155,1.5887768497,-43.2159140979,-1.0111389617,0.4313486618,1.8934696824,-1.0147246868,1.6701040531,-0.2726294598,80.7186053724,2.8580404769,-0.6625722856,3.0682870831,-0.6645908977,2.4753651525,2.4924715743,-0.1235981649,1.4194470493,-0.2348517758,1.2678708318,0.4481829662,1.7886104937,0.3254555148,11.8034367765,2.4930088618,0.461736154,2.2868506014,0.8246089936,-14.4374678927,2.2806542622,-2.1307778492,-0.3409681582,0.335938651,2.2556822333,-0.1168973387,2.4973476956,0.9764476748,-207.6428540466,1.9045067056,-0.2544280289,0.9950196541,1.2146902007,1.5191769639,0.7748330226,0.4315550751,0.0894714563,-0.0233413691,0.3471208612,0.4520335869,1.5639676934,2.0237650884,0.078578709,0.8343581067,-0.2952458186,1.2676213694,-0.0168277115,7.7592443273,1.1173482236,1.3150681595,0.6947488024,1.734754455,1.6849962074,1.5674161885,2.100171407,1.3058781017,-0.2314893988,1.1769755241,1.9324604468,0.9422983012,1.5544224314,1.9041907331,0.7122120451,0.5325718621,-0.9158670225,0.9231453389,11.7838432571,-7.1114618034,2.0841399915,1.5419913275,-4071.3141801572,3.561533759,-0.0489266869,3.113619383,0.9703579751,23249.8227430119,928.2272946244,-3.235807502,-0.1333818585,0.402352045,2.5702447331,0.6978963279,1.6962080488,0.6549709809,86.171794842,1.1737371669,0.018992148,1.7242200429,1.1405124131,15.1607060519,0.9454489477,-0.6446816625,0.9756000075,1.0919900504,1.3853593402,-0.1181172062,2.2767140555,-2.2472774838,1.323084761,2.4555355602,0.6935765472,1.731529915,7.0132256246,2.8437132556,2.4243017414,-1.1570557711,0.8690353847,1.3340529997,2.1471375038,0.9902849059,2.2710783985,1.2258519329,-2.7094054662,1.2556146328,-0.131677781,2.4936791917,0.7637803836,2.7926186592,2.2409447736,0.3407953206,1.2159397901,0.5423229431,2.0642850114,0.792850906,1.4447733849,-0.5272453867,-45.6316749119,2.5623567329,0.7124811134,1.0163350288,0.9499645293,1.2563722994,2.3680171013,0.2088481226,-0.0783797129,-0.5169636126,2.5647909569,-0.7776092823,2.0070645985,-0.4594130112,-68.5572150438,2.0581858058,-0.9347254865,2.3543320701,-0.7471210005,13.647836646,2.3737694099,-1.052790359,-0.2649226904,1.4040738576,2.2283938059,0.340064668,2.1089578166,-0.0852681826,13.1560865748,2.0006047247,0.6887028599,0.4846012937,0.3791457456,81.1758552015,0.9666425752,1.2748163102,-0.6229542745,0.8479815159,0.7050080795,0.2063977833,-0.1376474335,0.8474549302,-9.1504828822,-5.1942137433,-0.0871775283,1.279747237,1.0719233415,1.1189928286,2.6178039044,-1.7850675195,0.213559525,0.4612539499,0.6613192672,1.5526789276,1.7914178752,1.4577766481,72.9969558289,1.8537909246,1.2889382053,1.3271847993,1.3558936332,1.2525996256,1.3418422652,0.9567365447,0.1632236806,1.2957362691,0.963504193,-0.2831877161,0.9157662606,1.150060081,-3.3746812235,0.9169609988,1.2422181794,0.8982294042,-0.2763389549,4.0798885538,0.876889231,1.2075306477,0.7222784121,0.6138435316,1.892309964,-0.5732014591,1.4898841113,-0.4475245477,10.4941640058,2.0325435276,1.0371944864,2.4184803746,0.095802051,2.1259568463,1.4982447826,-1.1178919513,1.0726178838,-0.1878861874,2.0136477417,0.6197808554,1.7922355801,1.5291403473,-1.4383231407,1.7993313351,1.1061702918,1.3989074547,1.1317076771,8.1441061922,1.6662559231,-1.7602205935,-0.3369185977,-0.6574108105,-0.8540557494,1.3964187419,1.6303714198,2.9227191207,14.8156333748,1.4158564481,1.2797282674,0.3067515716,-0.2319123011,1.5514453257,1.6149674048,-1.996380148,0.8579120053,0.9089167308,1.022106164,-0.1553467185,0.9651158426,1.1595468011,145.0274089271,1.3815226967,0.7654968597,1.1087717765,0.7621789872,2.5679213491,1.4396418222,-2.610967868,0.0842607459,-0.305494915,2.5916053415,-0.4193892583,0.6218041961,0.3230272758,-30.4751509634,0.8800113748,0.1352945399,1.6046142019,-0.2576213924,3.8940670156,2.4922560183,-2.3461542791,1.9920695783,1.9026620804,0.7709858789,1.9839566946,-0.2720410831,1.5575989768,674.7478891591,1.0433268138,1.2656854431,0.8658506101,1.250008417,2.112155434,1.4679103698,0.7779038845,0.3439859949,1.4409718559,0.5457155889,0.0150307311,1.2788972767,2.0598414338,120.1828322678,2.3164608792,0.6964915834,1.5316302554,1.1257928164,0.6290208001,-0.6753569682,1.2433470195,-0.1271431366,1.3590140969,1.0902859667,-0.187306679,2.0623023559,0.8598633033,-63.7637581504,2.2773519991,-0.4383174644,1.1940087656,0.9122074149,3.1788425271,2.2132689017,0.5956104809,0.0687901587,-0.4882815568,1.4339392473,0.3986855288,0.5578769291,-0.5667926166,-1.2676150759,1.6969131025,1.5084114316,1.828897299,19.0551587629,3.0320651589,2.2671644881,0.4528126849,0.8016763118,0.3010951239,1.4851708937,1.2952188931,2.493209603,0.6992702524,8.6778245268,0.9370108554,-0.4178247266,1.9829599122,-2.6245595205,2.1118643805,0.5350057276,0.9817318785,-3521.7201385619,-1.2900828039,47102.0570911361,-33507.09403075,14.1706059507,-0.359412407,-19606.5331601231,53439.360948942,-0.2855366286,9086.5199484704,-5846.4268163011,54976.0515715331,49695.7417057582,-3520.9077453755,0.5107243218,2.0906304922,1.8313268416,1.7981772431,-4.425582782,1.1668370524,423.1802930862,1.694519389,4.558043615,4.085621736,1.2731889374,-4.5454527141,-1.3360420109,0.6719094891,-0.0902552504,-0.600174926,2.6449013732,-1.0047674953,2.5560451493,-0.8718263073,-853.0982892788,3.0178185097,-1.1443117856,2.3580222456,-3.0075156515,12.8333427427,2.258953369,0.2491449556,0.5569597919
   0.4088357623,1.7371939389,1.3364968859,1.4752743903,0.582832155,-0.4702015537,0.3383592565,0.8949044763,1.4984863512,1.3516813504,2.3892161972,2.1223573202,-2.0992311648,0.3566280043,1.268048315,0.9258610801,0.4562733287,1.4700601098,0.80832784,3.1092339969,2.4144968456,0.9522034844,0.7787566591,1.0374496664,0.7440793008,1.1504063779,-2.3710742113,-0.1918550722,0.9081125872,1.634792788,-0.0254622051,2.009876193,-0.3143270665,-30.7517612626,0.8257199961,1.3081767258,1.1877714096,0.3164375384,3.5347063718,1.3312518743,-1.4243138914,1.2755774088,-0.5455283841,1.4701206957,0.8217219379,1.2495743927,2.6517963306,197.2471756028,0.6686439976,0.7930683282,1.6439229871,6.5824052207,-1.5232920195,-0.9110299515,-1.7431646566,0.6943572006,1.2959520524,1.2386411071,0.518692166,2.3090875715,-0.3014995766,-11.7238580451,0.8779224303,0.9767031908,2.0205032258,0.334860938,0.6270065301,1.3890284046,0.7049527448,5.0939624733,11.3169384549,-3.4738482894,4.0196381705,-3.1198151835,1.7102286952,-13.5637690915,-4.0169722071,3.5604990312,-0.2773407455,13.3933809139,0.9772302868,1.597028686,2.0843091044,0.837630411,0.0822630273,0.9560447882,1.4623264186,1.4855734523,0.6067348867,-12.0046142757,1.5780076991,1.0511205984,1.6850500837,1.9435973093,10.9480758453,2.3780849273,0.9365761206,-0.380902702,-0.7423903808,0.9491095365,-1.0377636899,1.5563123166,4.8150887009,-366.5080815118,2.7479712404,0.0756850721,2.9560749613,-0.9591424051,6.9966835174,1.9279873476,-1.0097854138,-0.2504521535,-0.2516433293,2.2268973438,0.2095836536,2.4580766298,-0.1022147413,-3.962317373,2.2751920707,-0.7874083518,2.2173582613,0.0317176808,2.7909371808,2.9898357636,-1.9967444165,1.1373932874,0.5948233929,2.4150677471,1.0733051298,1.780035626,0.698641266,13.9488546485,2.2481159746,0.649394608,2.5902640388,0.3706406817,2.0272988238,2.2728685318,-2.1627777966,-0.2037550208,1.0933048625,1.6956516955,1.1575313161,2.1939387663,0.1615789136,-17.6506290356,1.3622402342,1.251516666,2.1339610514,0.2684173622,1.7600369196,2.5857990475,-0.491344098,2.5635416695,0.3825464512,-2.2604924548,2.1334945008,0.8097130324,7.4807996,379.4121351014,0.2677525346,2.4537795387,-1.6675953057,1.0948698778,-0.6326952978,-1.7593188275,-0.2029389564,-0.4077137347,0.3351827719,3.3241418677,0.1676357157,1.320226981,-0.3715265007,-26.9906725431,1.636734063,-0.0139240753,2.2877805742,-0.9758513641,18.0735727367,2.6790404917,-1.8508060318,-0.3570647475,0.2032876619,2.4330020409,-0.7763709276,1.6215840361,1.6657169431,56.5778524172,2.3821509525,3.8141492589,1.7011166058,-1.2588179852,3.7417729514,-4.8741637508,-0.86035619,0.6421830435,0.1348911388,2.0231802598,0.7178389435,2.3581416171,0.6540975645,-0.6887408802,1.3581165071,-0.6891283046,1.7067945731,-0.5586051311,-8.7395263799,1.8367656644,-1.7148657322,0.0152449496,0.0784947756,0.2091346641,0.7770367865,1.2735361435,2.0208760321,51.4037532978,1.7503576755,1.0638854152,0.4287945563,1.3268152769,0.997137556,0.9874608753,-0.2782081807,-1.0199254136,1.1601090274,102.5321734233,-16.9418273571,2.0190091335,0.6324086223,-2070.5185511946,2.8894770303,-0.1798655814,3.0952721669,-0.0632049059,19025.6401067479,5532.3681577296,-2.4008749288,1.1493949715,1.2250889863,1.4278151716,-0.5853499375,1.5790576871,0.5466078202,-14.2417168088,2.8508881669,0.3799557774,2.12581656,0.7919628777,0.2950570731,1.9068279428,-2.5243540055,-0.272894051,0.5415426931,2.7549161995,0.6456883869,2.3090822737,-0.8760918966,-395.125630129,3.0476157786,0.6092136751,2.1960273315,0.7839369708,2.4514060843,2.292583255,-2.128189559,-0.7156659765,0.5715886178,1.2823277464,0.1413595403,1.3991584991,1.7775719739,-203.7855423342,1.6349483814,0.9058747348,1.6783996141,-0.1930199303,2.5569760025,1.1042448318,-1.6341036697,-1.2291083725,-0.0823408332,5.0951122505,-1.5536723853,6.3776302629,-1.7548976548,-2.08875999,6.0061505721,-1.1958029012,5.9856550353,-2.6287076939,4.7062631062,5.0532165741,-4.1896682829,-0.2333537534,-0.0610846282,3.7181349205,-1.2216298929,3.3745157079,-1.9139897601,-544.3140916403,3.8147607536,-0.6487617034,3.5819746543,-1.0811599741,-11.1491298525,3.6795684744,-0.8026584035,0.1795887924,0.6981151044,1.389963736,-0.1476089536,1.9940036967,-0.3065399515,-149.554151889,1.6376615784,-0.258632261,2.3057323117,-0.3730080188,12.1322567929,1.5173431825,-2.213660645,0.8446735961,0.0691408681,2.2185254038,-0.1957137387,0.7212442879,0.039292809,-0.6537316586,1.1851383571,1.204795962,0.7389865595,-0.4128364505,0.5766814693,2.1022099157,0.6182616266,1.0102868493,0.5997980229,1.0879633449,0.5728861691,2.3035105329,0.6855921253,-11.1732306169,2.2410878752,-0.3051659189,2.5455687332,0.6542239297,5.558595771,2.5062542525,-0.1105820414,-0.314091,-0.191023405,2.635347573,0.4677804528,0.7278722438,-2.989543333,-4.0582301325,2.5201313693,-0.0057451083,2.7378364131,68.376565862,-3.7245798002,6.3686747526,0.4836531967,-1.4623368153,-0.8316217813,4.0226464059,-2.2483404852,2.5558452127,-0.7443128634,281.2145110681,2.4113686577,-1.9411831408,2.9441880478,-1.0831177175,2.6509275935,1.6354166671,-0.8315514906,0.932411969,-0.0911506156,0.7030713515,0.0749158743,1.917822222,6.0685739679,-66.92027949,2.2234680334,0.4917159069,1.5338683773,0.9703402164,1.7626673924,0.9568621428,-0.6668784427,0.0529618457,-1.0622425422,3.9502698429,0.0640041725,4.4045646609,-0.813680633,-136.391199157,2.9807543375,-0.1619456148,2.9144307818,0.2075130868,17.8580161132,3.2341970212,-3.5445811699,0.9855292824,-0.0956989649,1.4631838708,-0.2861385688,1.8523310405,0.9014478596,15.5088297017,2.6279871129,0.7451023357,2.7445267268,0.8994219229,2.9361108806,1.559735582,-1.607545443,1.7246946714,0.1769792937,0.4836700528,0.8903041789,-3.5238343163,0.3156597201,-210.3361492737,1.9205802093,2.9979305185,0.552505933,224.1680712489,-660.8029530745,0.5895083462,0.3357824252,0.0155427101,0.3833580745,0.323704267,0.933197522,1.1034537786,0.3546545789,-15.1457374738,1.098271399,0.0252369021,2.1429957423,0.0417467275,0.7634696342,1.8451583163,-1.4307107864,-0.4143572267,-0.5961792882,1.2342327386,-0.6450089839,1.2625022614,1.244800715,-1801.6114428181,2.1477915218,0.0971403099,1.9355508144,-0.1700421314,5189.8395489509,1.6755010597,-1.0342273337,0.916228626,2.0321513916,0.1815199877,2.0105159769,4.4767496441,-0.6284176012,-35.5852433458,0.8795030944,1.4873810369,-3.7147515689,-7.7294160561,82.3161259979,1.7939670018,2.1346565814,0.9526804215,-0.1414519428,0.9504353282,0.3814210762,1.5789914382,0.3136545611,-5.2789521716,1.6952644301,0.9113637214,1.1335165638,1.2393615861,1.3751757804,-0.1124087528,-1.9899933822,-0.1916299215,0.9992465982,1.8090905224,0.7067066322,1.1003170315,-0.4312321159,44.2313274764,2.1965813912,-0.3115205855,2.6951199702,0.3731241897,2.1093137281,1.8269774035,-1.5009022956,0.1615219675,1.3617296833,1.1915383391,0.6332953574,1.5153745439,0.3632923726,15.74373135,1.883775586,0.5186328633,1.8915759347,1.3923675219,2.1870598107,2.0317442485,-1.3709105774,55.7637486054,55.1722943634,-98.9507535518,55.9306329858,-39.3194190775,32.7606727301,38.349312363,-120.0157307632,21.2231005342,-51.4287435041,19.9008307533,9.5870406933,-97.8407865446,52.4919132021,0.2043896848,1.4474407108,1.2459417841,0.2707511306,0.2419110642,-0.1299389382,2.8977461142,0.94960044,0.9955072384,1.1291372259,-0.1959007844,2.0277921439,2.1942071044,0.1957614018,-0.4661175818,0.9982981736,1.763372708,-0.4228359965,1.1382409157,0.977793885,-16.6706726497,1.5073087436,1.4584697589,1.49129684,1.4376312466,2.4953114317,0.8894052194,1.3789942264,-3.6637618146,-0.0068881585,636.7588796834,-70.7891831921,76.0680306067,7.1794069568,-81.4784294219,3518.1861908578,-0.3417732885,1.8057275373,-0.4610292845,12745.2370398925,1.979807926,-2.9599577669,0.8663693344,0.5735692725,1.6428828063,0.088479861,1.3951591467,-0.0264063809,24.8147447093,0.7017545215,-0.2420397142,1.2281533105,-0.0120925227,-2.6639189008,0.541062164,-0.0068200308,-0.4879476448,0.3312789363,3.3070589059,-0.4026024853,3.3193261947,0.9522998626,-224.0227296604,3.1796811724,-0.9790073984,1.4157237513,-0.0443288513,5.7411298744,1.2631512049,-2.6342537915,0.3403652757,0.5809583967,1.5908213301,0.8369963203,0.4702151323,1.4412481582,9.5659893186,1.4706703103,0.4137189814,1.6029766323,2.4526987464,1.9615334276,1.2213498113,-1.5756647307
##end
biasActivation=0,1,1
[BASIC:ACTIVATION]
"org.encog.engine.network.activation.ActivationSigmoid"
"org.encog.engine.network.activation.ActivationSigmoid"
"org.encog.engine.network.activation.ActivationTANH"
